%YAML:1.0
---
opencv_ml_svm:
   format: 3
   svmType: C_SVC
   kernel:
      type: RBF
      gamma: 1.
   C: 1.
   term_criteria: { iterations:100 }
   var_count: 91
   class_count: 8
   class_labels: !!opencv-matrix
      rows: 8
      cols: 1
      dt: i
      data: [ 0, 1, 2, 3, 4, 5, 6, 7 ]
   sv_total: 629
   support_vectors:
      - [ -1.90427518e+00, -2.17982602e+00, -2.67229986e+00,
          -2.55797553e+00, -2.61953473e+00, -2.11533546e+00,
          -2.64884877e+00, -2.51107335e+00, -2.65764284e+00,
          -2.33812118e+00, -2.47882795e+00, -2.59315228e+00,
          -2.53159308e+00, -2.42020011e+00, -2.40261173e+00,
          -2.59901500e+00, -2.56970119e+00, -1.86616707e+00,
          -2.21793413e+00, -2.19741440e+00, -2.22086549e+00,
          -2.08015871e+00, -2.32346416e+00, -2.02739358e+00,
          -2.04498196e+00, -6.58433735e-01, -1.69907773e+00,
          -1.91013801e+00, -8.72425318e-01, -9.57435727e-01,
          -2.02739358e+00, -2.08895278e+00, -1.19057700e-01,
          -1.71373475e+00, -2.09481573e+00, -2.05963898e+00,
          -2.28828740e+00, -1.87496126e+00, -2.22672820e+00,
          -2.28828740e+00, -2.16223764e+00, -2.52573013e+00,
          -2.45537686e+00, -2.36743498e+00, -2.39968038e+00,
          -2.58142662e+00, -2.59022093e+00, -2.44365120e+00,
          -2.42606282e+00, -2.59022093e+00, -2.63712311e+00,
          -2.53159308e+00, -2.31467009e+00, -2.61367202e+00,
          -2.64298582e+00, -2.58142662e+00, -2.34691525e+00,
          1.58951349e+01, -5.45670874e-02, -2.04808593e+00,
          -2.55866528e+00, 2.32830954e+00, 4.66238689e+00,
          -3.70467633e-01, -8.08107138e-01, 4.88120651e+00,
          -1.53750634e+00, 6.41294479e+00, -2.70454502e+00,
          4.73532677e+00, 1.15916796e+01, 1.26857777e+01,
          -2.63160515e+00, 7.79880333e+00, 1.50927954e+01,
          -1.39162648e+00, -1.82926607e+00, 5.17296648e+00,
          -1.82926607e+00, 7.28822422e+00, 1.01328812e+01,
          2.32830954e+00, -1.68338621e+00, 7.06940413e+00,
          1.58951349e+01, -3.70467633e-01, -2.70454502e+00,
          5.31884623e+00, 6.63176489e+00, 2.54712915e+00,
          -7.87079558e-02 ]
      - [ -2.01359081e+00, -2.03560472e+00, -2.17469311e+00,
          -2.12566185e+00, -2.17069054e+00, -2.01959467e+00,
          -2.17369246e+00, -2.14867640e+00, -2.16668797e+00,
          -2.11065245e+00, -2.13466763e+00, -2.14467406e+00,
          -2.15367961e+00, -2.14867640e+00, -2.10765052e+00,
          -2.14567471e+00, -2.14867640e+00, -1.95055091e+00,
          -2.11365438e+00, -2.08363533e+00, -2.09564281e+00,
          -2.07563019e+00, -2.15668154e+00, -2.01359081e+00,
          -2.06662440e+00, -1.66436946e+00, -1.65436316e+00,
          -2.11565566e+00, -1.82347035e+00, -1.93954396e+00,
          -2.08563662e+00, -2.00358462e+00, -1.71540177e+00,
          -1.85449004e+00, -2.02459788e+00, -1.99758077e+00,
          -2.10664988e+00, -1.88751090e+00, -2.11365438e+00,
          -1.96856236e+00, -2.06662440e+00, -2.12966442e+00,
          -2.12666249e+00, -2.05261564e+00, -2.10364795e+00,
          -2.12866378e+00, -2.12366056e+00, -2.11465502e+00,
          -2.07963276e+00, -2.07462955e+00, -2.15768218e+00,
          -2.03460407e+00, -1.98357189e+00, -2.06462312e+00,
          -2.15267897e+00, -2.07162762e+00, -2.04160857e+00,
          5.88741827e+00, -6.73741460e-01, 3.83007455e+00,
          5.57090378e+00, 4.96952629e+00, -1.36076128e+00,
          4.36814880e+00, 1.51951957e+00, 2.59566855e+00, 5.79246378e+00,
          2.59566855e+00, 7.91536510e-01, 2.75392556e+00, 3.86172605e+00,
          9.52048525e-02, 5.82411528e+00, 1.83603394e+00, 2.27915406e+00,
          5.82411528e+00, 4.74796629e+00, 4.62136030e+00, 5.50760078e+00,
          5.85576677e+00, 6.35534152e-02, 3.83007455e+00, 5.76081228e+00,
          1.70942819e+00, 5.69976449e-01, 2.27915406e+00, 5.88741827e+00,
          5.63420677e+00, 1.83603394e+00, 5.85576677e+00, 4.62136030e+00 ]
      - [ -1.71378350e+00, -2.22219801e+00, -2.68287396e+00,
          -2.61365318e+00, -2.63274860e+00, -2.24129343e+00,
          -2.64468312e+00, -2.55398011e+00, -2.63274860e+00,
          -2.31767488e+00, -2.50624180e+00, -2.59694481e+00,
          -2.60171866e+00, -2.53727174e+00, -2.39166951e+00,
          -2.49669409e+00, -2.41792560e+00, -1.78300428e+00,
          -2.18878102e+00, -2.38450861e+00, -2.35586572e+00,
          -2.44179487e+00, -2.43463397e+00, -2.07659578e+00,
          -2.03840494e+00, -1.47509122e+00, -1.26981592e+00,
          -2.23413253e+00, -1.81880808e+00, -1.87609422e+00,
          -2.39883018e+00, -2.15059018e+00, -1.33903670e+00,
          -1.78777802e+00, -2.08136964e+00, -2.00021410e+00,
          -2.52533722e+00, -2.22219801e+00, -2.53727174e+00,
          -2.29380560e+00, -2.35586572e+00, -2.51817632e+00,
          -2.44418168e+00, -2.35586572e+00, -2.49669409e+00,
          -2.63274860e+00, -2.60649252e+00, -2.56114101e+00,
          -2.49908090e+00, -2.58739710e+00, -2.62081409e+00,
          -2.53249788e+00, -2.30096650e+00, -2.62558794e+00,
          -2.64229631e+00, -2.60171866e+00, -2.31051397e+00,
          1.03473358e+01, 3.91482145e-01, 9.98800564e+00, 4.90605116e+00,
          3.88758242e-01, 2.75007033e+00, 6.34337139e+00, 7.88335800e+00,
          1.72341299e+00, 7.06203175e+00, 3.77672791e+00, 2.64740467e+00,
          -3.81234884e-01, -1.51055813e+00, 8.70468330e+00,
          8.07609856e-02, -2.33188415e+00, 3.00673485e+00,
          4.70071983e+00, 4.95738411e+00, 1.98007727e+00, 1.32093862e-01,
          3.57139635e+00, 1.32093862e-01, 3.46873069e+00, 4.91423965e-01,
          9.52600956e+00, 1.03473358e+01, -2.19047572e-02,
          3.21206617e+00, 9.68000793e+00, 7.52402782e+00, 7.31869602e+00,
          -5.86566389e-01 ]
      - [ -2.11760736e+00, -2.21270895e+00, -2.35800314e+00,
          -2.31705666e+00, -2.36989093e+00, -2.24837208e+00,
          -2.38970375e+00, -2.31309390e+00, -2.37913680e+00,
          -2.32234001e+00, -2.31573582e+00, -2.32498169e+00,
          -2.34875703e+00, -2.33951116e+00, -2.35139894e+00,
          -2.35271978e+00, -2.31705666e+00, -2.03571415e+00,
          -2.25497627e+00, -2.19289613e+00, -2.16119552e+00,
          -2.28007269e+00, -2.33290696e+00, -2.20742559e+00,
          -2.24573040e+00, -2.02250552e+00, -1.66323280e+00,
          -2.17308331e+00, -1.86400294e+00, -1.97495484e+00,
          -2.17176247e+00, -2.12421155e+00, -2.06213140e+00,
          -2.07269812e+00, -2.22855926e+00, -2.08458591e+00,
          -2.27082658e+00, -1.89306176e+00, -2.30648971e+00,
          -2.10968208e+00, -2.28139353e+00, -2.30781054e+00,
          -2.26686406e+00, -2.24969292e+00, -2.29988551e+00,
          -2.27610993e+00, -2.30781054e+00, -2.29328108e+00,
          -2.27478909e+00, -2.24440956e+00, -2.33951116e+00,
          -2.17044163e+00, -2.21535063e+00, -2.25365543e+00,
          -2.35404062e+00, -2.21931314e+00, -2.26158071e+00,
          7.13631153e+00, -2.48595729e-01, 2.15750694e+00,
          6.64966154e+00, 5.97583818e+00, 2.60672259e+00, 5.47818422e-01,
          7.72426128e-01, 3.54258800e+00, 1.63342237e+00, 2.79389548e+00,
          7.06144238e+00, 3.46771884e+00, 4.14154196e+00, 1.48368394e+00,
          7.02400780e+00, 1.10933769e+00, 2.60672259e+00, 6.46248817e+00,
          7.13631153e+00, 6.83683443e+00, 4.89023447e+00, 2.83133030e+00,
          1.59598780e+00, 6.94913816e+00, 6.27531528e+00, 2.19494176e+00,
          8.47295344e-01, 5.86353445e+00, 4.74049568e+00, 1.44624925e+00,
          2.34468007e+00, -8.85701105e-02, 5.93840361e+00 ]
      - [ -1.65340245e+00, -2.19776750e+00, -2.54548979e+00,
          -2.45196438e+00, -2.51191664e+00, -2.18098092e+00,
          -2.52630496e+00, -2.46155667e+00, -2.53110123e+00,
          -2.21935034e+00, -2.38961434e+00, -2.45436239e+00,
          -2.45676064e+00, -2.38961434e+00, -2.26971006e+00,
          -2.48793578e+00, -2.44716835e+00, -1.73014116e+00,
          -2.09464979e+00, -2.08745575e+00, -2.17378664e+00,
          -2.22414637e+00, -2.31047750e+00, -1.91719174e+00,
          -2.00831890e+00, -9.38773453e-01, -1.15939713e+00,
          -1.82846260e+00, -1.04428911e+00, -9.81938958e-01,
          -2.15460205e+00, -1.95316291e+00, -1.45915771e+00,
          -1.65580058e+00, -2.06827092e+00, -1.90999746e+00,
          -2.23373866e+00, -1.78050089e+00, -2.27450609e+00,
          -2.22174835e+00, -2.15700006e+00, -2.43997407e+00,
          -2.43517780e+00, -2.26251578e+00, -2.39201236e+00,
          -2.45436239e+00, -2.46155667e+00, -2.39441037e+00,
          -2.27930236e+00, -2.42318749e+00, -2.56707239e+00,
          -2.48553753e+00, -2.27930236e+00, -2.50232410e+00,
          -2.55508208e+00, -2.49273181e+00, -2.15700006e+00,
          9.37298775e+00, 1.33170083e-01, 1.57058156e+00,
          -1.62558472e+00, 3.48518014e-01, 2.46362805e+00,
          -1.21506438e-01, 1.42957425e+00, 3.35667443e+00,
          2.65163779e+00, 2.88665009e+00, 6.88185787e+00, 9.32598495e+00,
          -2.61263609e+00, 3.16866469e+00, 8.99696827e+00,
          -1.68508872e-01, 2.65163779e+00, 9.04397011e+00,
          8.85596085e+00, 2.07510680e-01, 5.37777948e+00, 8.33893394e+00,
          5.80080175e+00, -3.09516221e-01, 7.06986761e+00,
          8.80895805e+00, 9.37298775e+00, 1.99360359e+00,
          -2.61263609e+00, 5.36527812e-01, 5.00176001e+00,
          2.18161345e+00, 2.74564266e+00 ]
      - [ -1.79823625e+00, -2.00505805e+00, -2.15474653e+00,
          -2.12617993e+00, -2.15246129e+00, -2.01648450e+00,
          -2.16617322e+00, -2.12046671e+00, -2.14674783e+00,
          -2.05076432e+00, -2.05990577e+00, -2.13646388e+00,
          -2.12960792e+00, -2.08390164e+00, -2.08847213e+00,
          -2.13189340e+00, -2.12960792e+00, -1.86336792e+00,
          -2.00962853e+00, -1.96163678e+00, -1.94221163e+00,
          -2.03819513e+00, -2.10561204e+00, -1.97077811e+00,
          -1.94335425e+00, -1.66683018e+00, -1.66568756e+00,
          -1.89764774e+00, -1.59598529e+00, -1.60741186e+00,
          -1.94563961e+00, -1.95249557e+00, -1.68054211e+00,
          -1.86451066e+00, -1.97991943e+00, -1.97649145e+00,
          -2.01991248e+00, -1.80852020e+00, -2.04962182e+00,
          -2.02334046e+00, -2.03133917e+00, -2.13646388e+00,
          -2.10675478e+00, -2.03476715e+00, -2.06104827e+00,
          -2.12617993e+00, -2.12960792e+00, -2.12160945e+00,
          -2.08732963e+00, -2.13189340e+00, -2.15931726e+00,
          -2.11932397e+00, -2.01648450e+00, -2.10561204e+00,
          -2.14674783e+00, -2.11475348e+00, -2.04390836e+00,
          5.31254435e+00, -7.51558602e-01, 4.81205893e+00,
          1.30865955e+00, 9.25935209e-01, 3.75220680e+00, 4.84149885e+00,
          1.36754012e+00, 3.42836332e+00, 4.28213263e+00, 1.89746606e+00,
          5.72651267e-01, 3.34004211e+00, 2.95731807e+00,
          -4.55956534e-02, 4.75317812e+00, 5.31254435e+00,
          2.95731807e+00, 5.31254435e+00, 4.25269222e+00, 4.13493109e+00,
          5.07702160e+00, 4.57653618e+00, -1.04656684e+00,
          4.81205893e+00, 4.92982006e+00, 1.27921915e+00, 4.25449610e-01,
          4.84149885e+00, 5.31254435e+00, 5.07702160e+00, 5.31254435e+00,
          5.28310394e+00, 4.13493109e+00 ]
      - [ -1.83678567e+00, -2.12657762e+00, -2.58732581e+00,
          -2.50810218e+00, -2.58732581e+00, -2.20163155e+00,
          -2.59358025e+00, -2.50184751e+00, -2.56856227e+00,
          -2.34965467e+00, -2.44764185e+00, -2.51644135e+00,
          -2.47891450e+00, -2.38718176e+00, -2.32880640e+00,
          -2.54145932e+00, -2.51018691e+00, -2.24332833e+00,
          -2.26000690e+00, -2.23290396e+00, -2.19120741e+00,
          -2.25375247e+00, -2.31004286e+00, -2.13074732e+00,
          -2.34965467e+00, -1.93060315e+00, -1.59286010e+00,
          -2.12866235e+00, -1.48027909e+00, -1.85137951e+00,
          -2.19954681e+00, -1.87014294e+00, -1.87014294e+00,
          -2.22039509e+00, -2.38718176e+00, -2.00982690e+00,
          -2.40803003e+00, -1.92851830e+00, -2.41636944e+00,
          -2.14951062e+00, -2.33089113e+00, -2.54562902e+00,
          -2.52269602e+00, -2.31421256e+00, -2.51852632e+00,
          -2.51435661e+00, -2.51227188e+00, -2.39135146e+00,
          -2.40177560e+00, -2.51644135e+00, -2.55605316e+00,
          -2.50601721e+00, -2.36633348e+00, -2.54562902e+00,
          -2.55396843e+00, -2.50393248e+00, -2.33714581e+00,
          9.82577419e+00, 2.43878379e-01, 1.70165944e+00,
          -1.67523146e+00, 9.82577419e+00, 3.46351576e+00,
          -3.04898918e-01, 1.55483818e+00, 2.77834940e+00,
          8.66246819e-02, 3.02305174e+00, 7.23193026e+00, 9.38531017e+00,
          6.73910081e-01, 1.70165944e+00, 3.16987300e+00, 5.95947838e+00,
          2.82728982e+00, 3.12093258e+00, 9.72789288e+00, 2.82386482e-01,
          5.76371670e+00, 5.61689520e+00, 7.57451344e+00,
          -2.55958468e-01, 1.16331458e+00, 9.23848820e+00,
          9.04272652e+00, 8.60226250e+00, 3.61033702e+00,
          -5.49601138e-01, 5.17643118e+00, 2.09318304e+00,
          -2.55958468e-01 ]
      - [ -1.33381772e+00, -2.13525748e+00, -2.30580401e+00,
          -2.17372680e+00, -2.28400493e+00, -2.02113247e+00,
          -2.26861715e+00, -2.14679837e+00, -2.28144026e+00,
          -2.29041624e+00, -2.27631092e+00, -2.27118182e+00,
          -2.27759337e+00, -2.27246404e+00, -2.25322962e+00,
          -2.24553561e+00, -2.29041624e+00, -2.23527718e+00,
          -2.25451183e+00, -2.20065498e+00, -2.20321965e+00,
          -2.20321965e+00, -2.26733494e+00, -2.19167900e+00,
          -2.20963120e+00, -2.13269305e+00, -2.23143029e+00,
          -2.15962148e+00, -2.06857777e+00, -2.06473088e+00,
          -2.16346836e+00, -2.18526745e+00, -2.02626181e+00,
          -2.12499905e+00, -2.27246404e+00, -2.22758341e+00,
          -2.25322962e+00, -2.08011842e+00, -2.24297118e+00,
          -2.16475058e+00, -2.23912430e+00, -2.28785181e+00,
          -2.31478024e+00, -2.28144026e+00, -2.24553561e+00,
          -2.26989961e+00, -2.26477027e+00, -2.23784184e+00,
          -2.21988964e+00, -2.23143029e+00, -2.24681807e+00,
          -2.24681807e+00, -2.15577435e+00, -2.23527718e+00,
          -2.24681807e+00, -2.23399496e+00, -2.11858773e+00,
          7.07937813e+00, 6.64011776e-01, 7.04235697e+00, 5.00620937e+00,
          1.23008108e+00, 1.56326878e+00, 6.96831560e+00, 1.60028970e+00,
          5.30237627e+00, 3.26622868e+00, 2.04454017e+00, 1.04497671e+00,
          6.96831560e+00, 6.33896065e+00, 1.19455017e-01, 4.52642828e-01,
          3.52537489e+00, 4.15472937e+00, 9.33914065e-01, 5.26535559e+00,
          6.11683559e+00, 2.34070706e+00, 5.30237627e+00,
          -1.10223365e+00, 1.74837315e+00, 4.41387558e+00,
          2.15560269e+00, 1.67433143e+00, 3.74749994e+00, 5.82066870e+00,
          6.78321123e+00, 7.07937813e+00, 6.74619007e+00, 1.97049832e+00 ]
      - [ -2.07507062e+00, -2.07890916e+00, -2.29003000e+00,
          -2.27851439e+00, -2.27595544e+00, -2.03284645e+00,
          -2.30026627e+00, -2.27595544e+00, -2.28491211e+00,
          -2.17999125e+00, -2.22093606e+00, -2.26443958e+00,
          -2.27595544e+00, -2.21069980e+00, -2.20558167e+00,
          -2.27467585e+00, -2.25420356e+00, -1.80637109e+00,
          -2.18638897e+00, -2.15951896e+00, -2.16719604e+00,
          -2.13392854e+00, -2.22093606e+00, -1.86650860e+00,
          -2.08402729e+00, -1.14613831e+00, -1.86906767e+00,
          -2.10194063e+00, -1.69889140e+00, -1.65794671e+00,
          -2.06739354e+00, -1.98166549e+00, -1.28816509e+00,
          -1.77182412e+00, -1.97270894e+00, -2.05971622e+00,
          -2.17487311e+00, -1.94839799e+00, -2.15056229e+00,
          -2.07762957e+00, -2.00341749e+00, -2.24908543e+00,
          -2.24780583e+00, -2.13520813e+00, -2.20046353e+00,
          -2.23373127e+00, -2.23501062e+00, -2.21197939e+00,
          -2.19662499e+00, -2.19662499e+00, -2.27979398e+00,
          -2.17871189e+00, -2.06483436e+00, -2.17999125e+00,
          -2.27723479e+00, -2.14032626e+00, -2.05331874e+00,
          5.99998713e+00, -1.24082279e+00, 3.26241398e+00,
          3.88162708e+00, 8.83332729e-01, 3.94480407e-01, 5.54372501e+00,
          5.90221643e+00, 5.80444622e+00, 4.69638109e+00, 1.76326692e+00,
          7.85562277e-01, 1.79585707e+00, 5.67408562e+00, 3.16464353e+00,
          -1.33279777e+00, 2.57802081e+00, 5.93480682e+00,
          5.47854471e+00, 3.78385663e+00, 2.61061096e+00, 2.54543066e+00,
          3.65349579e+00, 5.90221643e+00, 5.67408562e+00, 5.21782351e+00,
          -2.57322699e-01, 1.82844722e+00, 3.49054503e+00,
          4.04457760e+00, 4.43565941e+00, 4.07716799e+00, 5.47854471e+00,
          5.99998713e+00 ]
      - [ -2.02198148e+00, -2.14528584e+00, -2.40997887e+00,
          -2.38696218e+00, -2.41655517e+00, -2.10418439e+00,
          -2.41655517e+00, -2.40997887e+00, -2.41162300e+00,
          -2.26365781e+00, -2.34092855e+00, -2.37709785e+00,
          -2.37709785e+00, -2.28996277e+00, -2.26201391e+00,
          -2.38860631e+00, -2.38038588e+00, -2.13213325e+00,
          -2.22748876e+00, -2.18309903e+00, -2.24392915e+00,
          -2.18145514e+00, -2.21104813e+00, -1.97923601e+00,
          -2.15350604e+00, -1.79016948e+00, -1.98416817e+00,
          -2.17816687e+00, -1.62740791e+00, -1.72769535e+00,
          -2.10418439e+00, -1.97594798e+00, -1.38408744e+00,
          -2.01211715e+00, -2.20940399e+00, -2.18309903e+00,
          -2.24228525e+00, -2.07294726e+00, -2.23242092e+00,
          -2.15515018e+00, -2.17652297e+00, -2.36887765e+00,
          -2.36887765e+00, -2.20447183e+00, -2.31297970e+00,
          -2.38860631e+00, -2.37874198e+00, -2.28174257e+00,
          -2.25543761e+00, -2.39682651e+00, -2.43299580e+00,
          -2.38860631e+00, -2.19953966e+00, -2.37709785e+00,
          -2.41491103e+00, -2.39189434e+00, -2.16337037e+00,
          1.00930748e+01, -9.23751473e-01, 3.66962528e+00,
          6.78098345e+00, 3.66962528e+00, 2.06376314e+00, 2.81651115e+00,
          8.63776207e+00, 1.61211431e+00, 7.98538017e+00, 4.52273989e+00,
          -1.04759502e+00, 6.58025074e+00, -3.95213455e-01,
          -3.45030248e-01, 8.63776207e+00, 2.66596150e+00,
          -1.64979339e+00, 7.78464746e+00, 6.53006744e+00,
          8.23629570e+00, -2.45272446e+00, -1.95089245e+00,
          -6.96312606e-01, 1.00930748e+01, 6.42970133e+00,
          1.71248078e+00, 8.43702888e+00, -2.40254116e+00,
          6.93153286e+00, 3.31834292e+00, 4.37219000e+00, 1.06009924e+00,
          3.31834292e+00 ]
      - [ -1.68318069e+00, -2.17902732e+00, -2.28309369e+00,
          -2.23565173e+00, -2.27085066e+00, -2.13464594e+00,
          -2.25554681e+00, -2.18667912e+00, -2.27238107e+00,
          -2.22953010e+00, -2.26319861e+00, -2.25248599e+00,
          -2.24024296e+00, -2.21269584e+00, -2.18514872e+00,
          -2.16831446e+00, -2.21881747e+00, -2.05965686e+00,
          -2.19280076e+00, -2.19739199e+00, -2.10250759e+00,
          -2.20045280e+00, -2.20045280e+00, -1.85458446e+00,
          -1.95405984e+00, -1.82244623e+00, -1.98466766e+00,
          -2.14229774e+00, -1.86682761e+00, -1.96630299e+00,
          -2.18208790e+00, -1.93875587e+00, -1.51789856e+00,
          -1.80255115e+00, -2.12699389e+00, -2.14076757e+00,
          -2.22340846e+00, -1.94640791e+00, -2.20351338e+00,
          -2.12087250e+00, -2.05659604e+00, -2.17902732e+00,
          -2.22034788e+00, -2.21116543e+00, -2.25248599e+00,
          -2.24330354e+00, -2.23718214e+00, -2.23106050e+00,
          -2.13923717e+00, -2.17137527e+00, -2.23565173e+00,
          -2.23718214e+00, -2.18208790e+00, -2.26932025e+00,
          -2.27391148e+00, -2.23106050e+00, -2.17596650e+00,
          1.10068178e+01, -4.46625143e-01, -1.73345101e+00,
          -1.36030507e+00, 4.02365780e+00, 9.67415333e+00,
          2.95752668e+00, -7.20626235e-01, 2.92198449e-01,
          -1.46691811e+00, 4.34349728e+00, 1.51824939e+00,
          3.97035122e+00, 9.83407307e+00, 8.60802269e+00,
          -1.09377217e+00, 4.61003017e+00, 1.06869783e+01,
          5.58731258e-01, -7.73932815e-01, 7.38197136e+00,
          -2.31982327e+00, 4.55672359e+00, 5.35632181e+00,
          5.05424678e-01, 7.91503716e+00, 4.82325649e+00, 1.10068178e+01,
          -5.07400036e-01, 4.61003017e+00, 1.32278755e-01,
          4.71664333e+00, -1.84006405e+00, 1.07402849e+01 ]
      - [ -1.54757297e+00, -2.07505250e+00, -2.56886339e+00,
          -2.46561193e+00, -2.53070521e+00, -2.13116741e+00,
          -2.59355378e+00, -2.49703622e+00, -2.51499295e+00,
          -2.26584315e+00, -2.38480663e+00, -2.44316602e+00,
          -2.44316602e+00, -2.39154029e+00, -2.31522417e+00,
          -2.51274848e+00, -2.42969847e+00, -1.94262159e+00,
          -2.16483641e+00, -2.06607413e+00, -2.18279314e+00,
          -2.18503761e+00, -2.28604436e+00, -1.92915404e+00,
          -2.27482152e+00, -1.77427697e+00, -1.14130151e+00,
          -2.04587293e+00, -1.30066764e+00, -1.74734187e+00,
          -2.07056332e+00, -1.66878104e+00, -1.89324045e+00,
          -2.14014578e+00, -2.11321068e+00, -1.91119719e+00,
          -2.23890805e+00, -1.94037700e+00, -2.38705111e+00,
          -2.06607413e+00, -2.28604436e+00, -2.52621603e+00,
          -2.40500784e+00, -2.29726744e+00, -2.33542562e+00,
          -2.42969847e+00, -2.46112275e+00, -2.42520928e+00,
          -2.35338235e+00, -2.52397132e+00, -2.55315113e+00,
          -2.50152540e+00, -2.18279314e+00, -2.46336746e+00,
          -2.51050377e+00, -2.42745399e+00, -2.22768497e+00,
          7.41284657e+00, 9.46171045e-01, 4.65181971e+00, 1.02304173e+00,
          2.36411190e+00, 6.38732243e+00, 7.01841402e+00, 2.32466865e+00,
          2.36411190e+00, 7.09730053e+00, 5.49722910e-01, 6.74231148e+00,
          2.32466865e+00, 4.53349018e+00, 9.44155276e-01,
          -2.39141881e-01, 4.57293320e+00, -5.54687798e-01,
          2.36411190e+00, 6.11121988e+00, 3.31074977e+00,
          -8.30790460e-01, 7.17618704e+00, 4.53349018e+00,
          -5.54687798e-01, 2.95576048e+00, 2.04856610e+00,
          7.41284657e+00, 6.38732243e+00, 2.56132817e+00, 1.73302007e+00,
          7.29451704e+00, 6.34787893e+00, 7.17618704e+00 ]
      - [ -6.78487480e-01, -2.07662725e+00, -2.48971391e+00,
          -2.24772811e+00, -2.51904559e+00, -2.21839666e+00,
          -2.55815434e+00, -2.30639148e+00, -2.42127347e+00,
          -2.33816743e+00, -2.37238765e+00, -2.40905213e+00,
          -2.42127347e+00, -2.48726964e+00, -2.49704695e+00,
          -2.47993684e+00, -2.39683056e+00, -2.18417645e+00,
          -1.99596524e+00, -2.08640432e+00, -2.13773465e+00,
          -2.32350159e+00, -2.43593931e+00, -2.34061170e+00,
          -2.35772181e+00, -1.96174514e+00, -1.64887464e+00,
          -1.75397956e+00, -1.70264924e+00, -1.81508708e+00,
          -2.20861936e+00, -2.21106362e+00, -2.05951715e+00,
          -2.08396006e+00, -2.30150294e+00, -1.74420238e+00,
          -2.20128655e+00, -1.80286562e+00, -2.39194202e+00,
          -2.30394721e+00, -2.43105078e+00, -2.44327235e+00,
          -2.39683056e+00, -2.29905844e+00, -2.24039531e+00,
          -2.35038877e+00, -2.36749887e+00, -2.46038222e+00,
          -2.44816089e+00, -2.47749233e+00, -2.43105078e+00,
          -2.26972699e+00, -2.13529038e+00, -2.44082785e+00,
          -2.45793796e+00, -2.36994314e+00, -2.31372428e+00,
          8.95938778e+00, 2.80952883e+00, -2.28808355e+00,
          5.85823345e+00, 5.85823345e+00, 5.99709129e+00, 8.95938778e+00,
          6.64509344e+00, 5.62680387e+00, 6.87652302e+00, 4.65480042e+00,
          -2.05218375e-01, 2.71079278e+00, -2.00748090e-02,
          5.30280256e+00, 7.66338348e+00, 2.24793386e+00,
          -2.65837073e+00, 3.77536845e+00, 1.55364549e+00,
          6.36737823e+00, -1.87151051e+00, -3.44076067e-01,
          2.98850822e+00, 4.46965694e+00, 2.84965038e+00, 8.31138611e+00,
          7.20052433e+00, -1.22350800e+00, 3.21993756e+00,
          6.96909475e+00, -2.28808355e+00, 3.59022474e+00,
          6.73766565e+00 ]
      - [ -2.13660622e+00, -2.19056630e+00, -2.67845511e+00,
          -2.64922690e+00, -2.64922690e+00, -2.14784789e+00,
          -2.71667695e+00, -2.67620683e+00, -2.70993185e+00,
          -2.49634004e+00, -2.48509836e+00, -2.61775017e+00,
          -2.59526682e+00, -2.51882339e+00, -2.48509836e+00,
          -2.68744850e+00, -2.67171025e+00, -2.09163952e+00,
          -2.43338656e+00, -2.30523133e+00, -2.32321811e+00,
          -2.34120488e+00, -2.43113828e+00, -1.84432244e+00,
          -2.34345317e+00, -1.59250879e+00, -1.48908544e+00,
          -2.37717819e+00, -1.40364861e+00, -1.45760870e+00,
          -2.38841987e+00, -1.61724055e+00, -1.39240694e+00,
          -2.21529794e+00, -2.30298305e+00, -2.31197643e+00,
          -2.40640664e+00, -2.03543115e+00, -2.46935987e+00,
          -2.32321811e+00, -2.24902296e+00, -2.65822029e+00,
          -2.66721344e+00, -2.45137334e+00, -2.53231335e+00,
          -2.63573670e+00, -2.59976339e+00, -2.52331996e+00,
          -2.42214489e+00, -2.66946197e+00, -2.69644189e+00,
          -2.68520021e+00, -2.27375460e+00, -2.67171025e+00,
          -2.69419360e+00, -2.64922690e+00, -2.28049970e+00,
          1.15400229e+01, -5.20052493e-01, 2.50909877e+00,
          -8.70214820e-01, 2.97521091e+00, 5.18924379e+00,
          1.86819434e+00, 2.45083475e+00, 7.51980495e+00, 1.46034622e+00,
          3.61611509e+00, 3.09173894e+00, 8.68508530e+00, 7.46154070e+00,
          5.18924379e+00, -2.03549528e+00, 6.00494003e+00,
          8.68508530e+00, 3.44132304e+00, 5.42229986e+00, 1.08991184e+01,
          5.01445198e+00, -2.50160742e+00, -6.95422709e-01,
          1.15400229e+01, 8.45202923e+00, 6.00494003e+00, 1.20273627e-01,
          5.30577183e+00, -1.16153491e+00, -9.28478837e-01,
          -2.03549528e+00, 9.35970008e-01, 9.73383808e+00 ]
      - [ -2.19257140e+00, -2.32749510e+00, -2.48257971e+00,
          -2.43915606e+00, -2.47017288e+00, -2.29027462e+00,
          -2.49033380e+00, -2.46707106e+00, -2.47792721e+00,
          -2.37091875e+00, -2.40968990e+00, -2.46396947e+00,
          -2.43605423e+00, -2.41434240e+00, -2.39573216e+00,
          -2.42519832e+00, -2.42364740e+00, -2.19567299e+00,
          -2.36316442e+00, -2.33990169e+00, -2.35696101e+00,
          -2.35075760e+00, -2.36161351e+00, -2.13984251e+00,
          -2.16155457e+00, -1.75678360e+00, -2.25460529e+00,
          -2.24995279e+00, -2.06695294e+00, -2.02507997e+00,
          -2.27631712e+00, -2.11192751e+00, -1.55207193e+00,
          -2.12123251e+00, -2.31353736e+00, -2.36471534e+00,
          -2.35075760e+00, -2.31663918e+00, -2.38022375e+00,
          -2.38177466e+00, -2.29337645e+00, -2.43760514e+00,
          -2.41589332e+00, -2.34765601e+00, -2.43760514e+00,
          -2.47947788e+00, -2.46707106e+00, -2.44225764e+00,
          -2.41899490e+00, -2.46862197e+00, -2.47482538e+00,
          -2.43760514e+00, -2.37246966e+00, -2.48257971e+00,
          -2.48413038e+00, -2.45466447e+00, -2.34610510e+00,
          1.27172642e+01, -1.50554657e+00, 5.07308626e+00,
          -5.20214796e-01, 1.59280992e+00, -2.01176167e+00,
          -1.82531834e+00, 2.52502680e+00, 6.44033718e+00,
          1.46851432e+00, 2.87706405e-01, 3.70583463e+00, 5.81885958e+00,
          8.36691856e+00, -1.88746619e+00, 6.19174623e+00,
          -1.47328094e-01, 6.68892860e+00, 1.19093428e+01,
          5.69456387e+00, 1.20336380e+01, 5.75671148e+00,
          -1.76317060e+00, -2.32250071e+00, 1.27172642e+01,
          9.42343140e+00, 6.56463289e+00, 4.45160818e+00, 6.12959862e+00,
          1.15777540e+00, 1.90354884e+00, -1.76317060e+00,
          5.32167721e+00, 2.83576560e+00 ]
      - [ -1.86341655e+00, -1.98190355e+00, -2.34813595e+00,
          -2.30145931e+00, -2.33018327e+00, -2.03396606e+00,
          -2.33915973e+00, -2.33556914e+00, -2.31941175e+00,
          -2.15963387e+00, -2.20810580e+00, -2.29786873e+00,
          -2.28889251e+00, -2.22964907e+00, -2.14886236e+00,
          -2.31043553e+00, -2.30325460e+00, -1.95676994e+00,
          -2.03576136e+00, -2.11116195e+00, -2.11116195e+00,
          -2.13450027e+00, -2.12372875e+00, -2.02139926e+00,
          -2.09859514e+00, -1.59771860e+00, -1.66952884e+00,
          -2.04832792e+00, -1.50975096e+00, -1.61926162e+00,
          -2.08782363e+00, -1.92984104e+00, -1.81494462e+00,
          -2.04114699e+00, -2.07884741e+00, -1.94599843e+00,
          -2.17938185e+00, -1.98728931e+00, -2.23683000e+00,
          -2.05909967e+00, -2.14168143e+00, -2.31043553e+00,
          -2.31582141e+00, -2.10218573e+00, -2.24580622e+00,
          -2.27812099e+00, -2.26196361e+00, -2.24401093e+00,
          -2.17220068e+00, -2.33915973e+00, -2.35172653e+00,
          -2.30145931e+00, -2.09141421e+00, -2.32120705e+00,
          -2.33736444e+00, -2.28530192e+00, -2.06269002e+00,
          1.26709824e+01, -7.80876756e-01, -1.63715318e-01,
          -9.68679339e-02, 3.78028035e+00, 1.26709824e+01,
          5.71605921e-01, -1.63435781e+00, 1.26709824e+01,
          -1.30012083e+00, 4.84983873e+00, 3.04216385e-01,
          5.25092268e+00, 4.84983873e+00, 7.72427607e+00,
          -2.30283165e+00, 7.25634432e+00, -2.36967897e+00,
          -2.23598433e+00, -1.56751037e+00, 4.98353338e+00,
          -1.83489990e+00, -2.30283165e+00, 9.39546108e+00,
          1.05318661e+01, -2.36967897e+00, 6.45417595e+00,
          9.93023968e+00, -2.30562702e-01, 7.25634432e+00,
          2.71072221e+00, 6.72156525e+00, 3.71343303e+00, 6.25363350e+00 ]
      - [ -1.67095733e+00, -2.16755509e+00, -2.62033534e+00,
          -2.49764657e+00, -2.63494110e+00, -2.26687455e+00,
          -2.64954710e+00, -2.57943916e+00, -2.59696603e+00,
          -2.15002799e+00, -2.34574604e+00, -2.46259260e+00,
          -2.47427726e+00, -2.42753863e+00, -2.36035180e+00,
          -2.54438519e+00, -2.45382905e+00, -1.22401929e+00,
          -1.98352170e+00, -2.05947208e+00, -2.21137261e+00,
          -2.21137261e+00, -2.30484962e+00, -1.69140542e+00,
          -2.07407784e+00, -8.76400828e-01, -1.89927414e-01,
          -1.81701541e+00, -9.28981781e-01, -9.58193421e-01,
          -2.03902388e+00, -1.40513146e+00, -1.02245903e+00,
          -1.79364610e+00, -1.70309007e+00, -1.84622705e+00,
          -2.17923975e+00, -1.86667526e+00, -2.24058414e+00,
          -2.15294933e+00, -2.02149677e+00, -2.51517344e+00,
          -2.41293287e+00, -2.10913181e+00, -2.37203646e+00,
          -2.52101588e+00, -2.54730630e+00, -2.47135615e+00,
          -2.37495756e+00, -2.62033534e+00, -2.58236027e+00,
          -2.48888302e+00, -2.27271700e+00, -2.53562164e+00,
          -2.62033534e+00, -2.53854275e+00, -2.32237673e+00,
          9.27464199e+00, 6.42604172e-01, -2.14622235e+00,
          5.69068861e+00, 6.12076330e+00, 8.79678154e+00, 5.88183308e+00,
          8.60563755e+00, 5.73847485e+00, 7.93663263e+00, 2.43079782e-01,
          6.12076330e+00, -1.86994612e-01, -1.57278991e+00,
          4.49603748e+00, 7.45877218e+00, 7.20940232e-01,
          -8.08213174e-01, 4.87832594e+00, -1.42943180e+00,
          1.43773091e+00, -1.57278991e+00, -1.81172013e+00,
          3.01467037e+00, 9.27464199e+00, -1.81172013e+00,
          7.07648420e+00, 6.78976774e+00, -9.14225280e-02,
          2.44123769e+00, 7.21984196e+00, 7.20940232e-01, 3.73146105e+00,
          8.12777710e+00 ]
      - [ -1.79080188e+00, -2.13624263e+00, -2.57751536e+00,
          -2.48168349e+00, -2.54631424e+00, -2.16967249e+00,
          -2.58865857e+00, -2.53071380e+00, -2.57528663e+00,
          -2.24544644e+00, -2.40145206e+00, -2.49728394e+00,
          -2.51957059e+00, -2.45716834e+00, -2.36133623e+00,
          -2.52625632e+00, -2.51288462e+00, -1.76182938e+00,
          -2.14738584e+00, -2.24098921e+00, -2.31453466e+00,
          -2.33682108e+00, -2.30116272e+00, -1.97577989e+00,
          -2.04709673e+00, -1.12889278e+00, -9.48372126e-01,
          -2.15852904e+00, -1.57685149e+00, -1.77520132e+00,
          -2.17412972e+00, -1.67714071e+00, -1.33838594e+00,
          -1.81308842e+00, -2.08498359e+00, -1.87771928e+00,
          -2.35242176e+00, -2.17635846e+00, -2.44379640e+00,
          -2.22538877e+00, -2.25213242e+00, -2.51957059e+00,
          -2.48168349e+00, -2.29001951e+00, -2.45271087e+00,
          -2.56414342e+00, -2.56191492e+00, -2.47499752e+00,
          -2.41482401e+00, -2.49951267e+00, -2.57974410e+00,
          -2.51065588e+00, -2.29893422e+00, -2.54185700e+00,
          -2.56860065e+00, -2.50396991e+00, -2.25658965e+00,
          8.05537415e+00, 1.05779365e-01, 4.29328537e+00,
          -1.87479019e+00, 7.74915791e+00, 5.95560408e+00,
          1.79980814e+00, -4.74943191e-01, 7.53043175e+00,
          8.37413371e-01, 2.28100562e+00, 6.34931087e+00, 1.14362991e+00,
          2.49973154e+00, 1.23112035e+00, -1.61231887e+00,
          5.69313240e+00, 2.19351506e+00, 2.84969330e+00, 5.91185856e+00,
          5.34317064e+00, 4.99320889e+00, 4.73073769e+00, 8.05537415e+00,
          4.55575705e+00, 6.17432976e+00, 1.09988463e+00, 2.19351506e+00,
          7.57417679e+00, 3.11216474e+00, -6.06178820e-01,
          7.35545063e+00, 2.41224122e+00, 8.05537415e+00 ]
      - [ -1.62276125e+00, -1.84414911e+00, -2.43365860e+00,
          -2.38989592e+00, -2.39247012e+00, -1.90078318e+00,
          -2.40534163e+00, -2.36157894e+00, -2.39247012e+00,
          -2.00632858e+00, -2.20712233e+00, -2.35900474e+00,
          -2.28949904e+00, -2.24831057e+00, -2.26375628e+00,
          -2.28692484e+00, -2.28692484e+00, -1.50177014e+00,
          -1.82870340e+00, -1.93682313e+00, -1.98830867e+00,
          -2.07840824e+00, -2.01662564e+00, -1.87504041e+00,
          -1.76434648e+00, -1.03325164e+00, -8.09289396e-01,
          -1.84672332e+00, -8.76220644e-01, -9.63746071e-01,
          -1.86216903e+00, -1.61246407e+00, -1.07444000e+00,
          -1.53266144e+00, -1.76177216e+00, -1.49404728e+00,
          -2.12474537e+00, -1.59959269e+00, -2.15563679e+00,
          -1.78494072e+00, -2.06038833e+00, -2.27920198e+00,
          -2.29722190e+00, -2.02177429e+00, -2.17108226e+00,
          -2.34613323e+00, -2.35643029e+00, -2.26633072e+00,
          -2.16078520e+00, -2.36672735e+00, -2.41306448e+00,
          -2.31266761e+00, -2.04751706e+00, -2.35385609e+00,
          -2.41821313e+00, -2.34098458e+00, -2.15048814e+00,
          8.37315941e+00, 5.65374911e-01, -1.12327957e+00,
          5.46785593e+00, -3.92111614e-02, 8.32979679e+00,
          7.72271824e+00, 6.37847328e+00, 6.55192423e+00, 6.42183638e+00,
          4.86077785e+00, -1.25336766e+00, 5.29440498e+00,
          -1.42681861e+00, 5.38113070e+00, 7.07227707e+00,
          6.97955310e-01, -1.81708324e+00, 3.51653314e+00,
          4.75143082e-02, 1.26167083e+00, -1.81708324e+00,
          -2.42416143e+00, 2.12892556e+00, 8.32979679e+00,
          -3.86113048e-01, 7.15900278e+00, 6.89882612e+00,
          -2.56024837e-01, 2.82272935e+00, 6.50856161e+00,
          -2.16398525e+00, 6.11829710e+00, 8.37315941e+00 ]
      - [ -1.60368669e+00, -2.26640701e+00, -2.58265948e+00,
          -2.45374131e+00, -2.55647302e+00, -2.28453612e+00,
          -2.55445862e+00, -2.39733958e+00, -2.53632951e+00,
          -2.35906696e+00, -2.46381307e+00, -2.47992778e+00,
          -2.46582723e+00, -2.43359780e+00, -2.42554045e+00,
          -2.47388482e+00, -2.43359780e+00, -2.02267098e+00,
          -2.17576146e+00, -2.24424911e+00, -2.25432086e+00,
          -2.34496641e+00, -2.37921047e+00, -2.08108711e+00,
          -2.28252172e+00, -1.91993928e+00, -1.17261636e+00,
          -2.07705832e+00, -1.91993928e+00, -1.87360930e+00,
          -2.34698081e+00, -1.66814590e+00, -1.85145140e+00,
          -2.17979002e+00, -2.25633526e+00, -1.89778137e+00,
          -2.40338254e+00, -2.14151740e+00, -2.42554045e+00,
          -2.24022055e+00, -2.27446437e+00, -2.45978427e+00,
          -2.42151165e+00, -2.30266523e+00, -2.47589898e+00,
          -2.50007129e+00, -2.47388482e+00, -2.46784163e+00,
          -2.42352605e+00, -2.48999953e+00, -2.52021480e+00,
          -2.49201393e+00, -2.36309552e+00, -2.50812864e+00,
          -2.51820040e+00, -2.48597074e+00, -2.38323903e+00,
          7.88590288e+00, 4.67062235e-01, 4.63025600e-01, 4.81722736e+00,
          4.73429012e+00, 3.90491843e+00, 7.42974854e+00, 7.47121716e+00,
          5.06603909e+00, 1.37533462e+00, 5.27338219e+00, 5.45962811e-01,
          1.29239738e+00, 4.94163322e+00, 1.83148909e+00, 7.88590288e+00,
          -7.60660544e-02, 6.80771971e+00, 7.59562302e+00,
          -1.52746665e+00, 4.94163322e+00, 3.36582685e+00,
          3.61463833e+00, 3.03407812e+00, 5.06603909e+00, 6.93212557e+00,
          -1.36159229e+00, 2.53645515e+00, 3.73904419e+00,
          5.77100515e+00, 3.28288960e+00, 2.55682647e-01, 4.52694750e+00,
          6.60037661e+00 ]
      - [ -2.14951968e+00, -2.18614697e+00, -2.43254900e+00,
          -2.42921925e+00, -2.42089486e+00, -2.18947673e+00,
          -2.41756511e+00, -2.41090560e+00, -2.41423535e+00,
          -2.23775816e+00, -2.31767225e+00, -2.38426757e+00,
          -2.37094855e+00, -2.27438545e+00, -2.25607181e+00,
          -2.38759732e+00, -2.38093781e+00, -1.76493251e+00,
          -2.16283870e+00, -2.16283870e+00, -2.10956240e+00,
          -2.15284944e+00, -2.21112013e+00, -1.94473946e+00,
          -2.10456777e+00, -1.04903448e+00, -1.13061357e+00,
          -1.92642581e+00, -1.52685487e+00, -1.59844458e+00,
          -2.04130244e+00, -1.58179581e+00, -1.29377174e+00,
          -1.90644729e+00, -1.98303163e+00, -1.89812279e+00,
          -2.27272058e+00, -1.91643655e+00, -2.23609328e+00,
          -1.99468589e+00, -2.09790826e+00, -2.35762954e+00,
          -2.34597540e+00, -2.20612550e+00, -2.27272058e+00,
          -2.35097003e+00, -2.37760806e+00, -2.29935861e+00,
          -2.23109865e+00, -2.28936934e+00, -2.41590023e+00,
          -2.28104496e+00, -2.24608254e+00, -2.27438545e+00,
          -2.40757585e+00, -2.31101274e+00, -2.23609328e+00,
          6.30640125e+00, -1.14060283e+00, 3.42165542e+00,
          -5.62041044e-01, 1.77322924e+00, 5.41350365e+00,
          1.60151827e+00, 1.91059816e+00, 6.10034800e+00, 5.36909699e-01,
          -3.55987817e-01, 5.68824148e+00, 6.27205896e+00,
          6.03166342e+00, 2.94086456e+00, 3.00954890e+00, 3.79941964e+00,
          -1.21454310e+00, 6.27205896e+00, 4.03981543e+00,
          4.93271255e+00, 3.49033976e+00, 3.76507759e+00, 4.10849953e+00,
          5.96297884e+00, 4.62363291e+00, 4.93271255e+00, 6.23771667e+00,
          3.93678856e+00, 3.11257553e+00, 1.08638501e+00, 2.35704684e+00,
          4.93271255e+00, 6.30640125e+00 ]
      - [ -1.85975659e+00, -1.90689528e+00, -2.09048772e+00,
          -2.09669018e+00, -2.09669018e+00, -1.89573085e+00,
          -2.10537338e+00, -2.08056378e+00, -2.10165191e+00,
          -1.97140062e+00, -2.02846313e+00, -2.08056378e+00,
          -2.08552575e+00, -2.02350116e+00, -1.95899582e+00,
          -2.05947542e+00, -2.07312083e+00, -1.81509900e+00,
          -1.93790746e+00, -1.93790746e+00, -1.94162893e+00,
          -1.97140062e+00, -1.94162893e+00, -1.74439120e+00,
          -1.90689528e+00, -1.51614118e+00, -1.58188701e+00,
          -1.92178106e+00, -1.54343188e+00, -1.60297537e+00,
          -1.92922401e+00, -1.57444417e+00, -1.38713026e+00,
          -1.78160584e+00, -1.95031238e+00, -1.86347806e+00,
          -2.00365329e+00, -1.82626343e+00, -2.02474165e+00,
          -1.83370638e+00, -1.89945233e+00, -2.07188034e+00,
          -2.06815886e+00, -1.96891963e+00, -2.04458952e+00,
          -2.08304477e+00, -2.08676624e+00, -2.05079198e+00,
          -1.96395779e+00, -2.06939936e+00, -2.10165191e+00,
          -2.07560182e+00, -1.91805959e+00, -2.06567788e+00,
          -2.09669018e+00, -2.06691837e+00, -1.91061664e+00,
          7.70441484e+00, -1.09437478e+00, 2.50443006e+00,
          3.89109278e+00, 2.31844291e-01, 7.70441484e+00, 2.31844291e-01,
          5.85553122e+00, 1.23332286e+00, 4.96960783e+00, 7.70441484e+00,
          -1.57852077e+00, 7.66589642e+00, -2.11777830e+00,
          7.70441484e+00, 7.39626741e+00, -5.77042222e-01,
          2.19628286e+00, 6.08664179e+00, 7.20367575e+00, 7.04960203e+00,
          -5.77042222e-01, -5.77042222e-01, 4.39183187e+00,
          2.61998534e+00, 5.23923683e+00, 6.62589931e+00, 7.70441484e+00,
          -8.46671045e-01, -1.15481830e+00, 1.04073083e+00,
          4.43035030e+00, 5.01473129e-01, -7.69634247e-01 ]
      - [ -1.86710405e+00, -2.05517387e+00, -2.19836354e+00,
          -2.15348315e+00, -2.19408917e+00, -2.06158543e+00,
          -2.19302058e+00, -2.16523743e+00, -2.19088340e+00,
          -2.07761407e+00, -2.14386606e+00, -2.15989470e+00,
          -2.14920878e+00, -2.13638592e+00, -2.12035728e+00,
          -2.13745451e+00, -2.14920878e+00, -1.94617879e+00,
          -2.04341960e+00, -2.04769373e+00, -2.05196810e+00,
          -2.08509421e+00, -2.09577990e+00, -1.97503042e+00,
          -2.02632236e+00, -1.76238322e+00, -1.60637081e+00,
          -2.04021382e+00, -1.79123485e+00, -1.91091573e+00,
          -2.05089951e+00, -1.99853921e+00, -1.80085206e+00,
          -1.94831598e+00, -2.03487086e+00, -1.98785341e+00,
          -2.12142587e+00, -1.96007037e+00, -2.15241456e+00,
          -2.06479120e+00, -2.10005426e+00, -2.15241456e+00,
          -2.16523743e+00, -2.07013392e+00, -2.13318014e+00,
          -2.16630602e+00, -2.15989470e+00, -2.15241456e+00,
          -2.13318014e+00, -2.17912912e+00, -2.18767762e+00,
          -2.16951180e+00, -2.06372261e+00, -2.17806053e+00,
          -2.18126631e+00, -2.15455174e+00, -2.10326004e+00,
          6.15258074e+00, -1.14153898e+00, 1.94839740e+00,
          3.68919206e+00, 5.52852201e+00, 3.68919206e+00, 5.10153484e+00,
          5.03209352e-01, 4.64170218e+00, 5.39714146e+00,
          -1.59888232e+00, 6.05404520e+00, 3.68919206e+00,
          3.52496624e+00, 2.40447894e-01, 1.84986186e+00, 6.01744890e-01,
          3.06513357e+00, 6.02120018e+00, 4.51032162e+00, 3.78772759e+00,
          3.72203732e+00, 3.45927572e+00, 5.75843859e+00, 6.15258074e+00,
          2.93375278e+00, 4.93730879e+00, -2.23135669e-02,
          5.62705803e+00, 6.15258074e+00, 6.15258074e+00,
          -7.77752757e-01, 1.91555214e+00, 4.83877325e+00 ]
      - [ -1.96428943e+00, -2.17019415e+00, -2.41864157e+00,
          -2.38971281e+00, -2.40672970e+00, -2.09872317e+00,
          -2.39311600e+00, -2.35057378e+00, -2.39141440e+00,
          -2.24677038e+00, -2.29611969e+00, -2.35567880e+00,
          -2.38460755e+00, -2.27059412e+00, -2.18380785e+00,
          -2.35057378e+00, -2.34376693e+00, -2.12254691e+00,
          -2.13956380e+00, -2.07830286e+00, -2.18721128e+00,
          -2.13105536e+00, -2.19742131e+00, -2.00513005e+00,
          -2.03576040e+00, -1.37380183e+00, -2.06298757e+00,
          -1.89622164e+00, -1.45888638e+00, -1.65628290e+00,
          -1.97449958e+00, -1.90983522e+00, -1.32104933e+00,
          -1.90302837e+00, -2.19571972e+00, -2.05447912e+00,
          -2.17019415e+00, -2.03235722e+00, -2.21784163e+00,
          -2.15658069e+00, -2.18210602e+00, -2.37609911e+00,
          -2.33015347e+00, -2.20933318e+00, -2.27399755e+00,
          -2.38120413e+00, -2.39822125e+00, -2.26719069e+00,
          -2.22975349e+00, -2.37609911e+00, -2.39822125e+00,
          -2.34546876e+00, -2.21443820e+00, -2.38971281e+00,
          -2.42034316e+00, -2.38630939e+00, -2.15998411e+00,
          8.98270416e+00, -8.95625949e-01, 8.70051670e+00,
          2.30427885e+00, 7.52473783e+00, 7.99281657e-01, 4.18552542e+00,
          -9.87902522e-01, 8.46312821e-01, 6.20786524e+00,
          2.21021652e+00, 6.30192757e+00, 5.73755360e+00, 9.40375149e-01,
          7.43067551e+00, -1.41341597e-01, 6.81927061e+00,
          6.53708363e+00, -1.69336998e+00, 6.77223921e+00,
          2.63349700e+00, 2.72755933e+00, 7.19551992e+00, 2.25724769e+00,
          7.75989389e+00, -2.06961918e+00, 5.73755360e+00,
          7.71286249e+00, 7.99281657e-01, -2.48101103e-04,
          2.53943467e+00, 8.98270416e+00, 1.03443754e+00,
          -2.25774384e+00 ]
      - [ -1.70921278e+00, -1.99936509e+00, -2.11520529e+00,
          -2.05011415e+00, -2.09755349e+00, -1.98061001e+00,
          -2.10858583e+00, -2.01591372e+00, -2.09534693e+00,
          -2.06666279e+00, -2.08210802e+00, -2.07990170e+00,
          -2.06555939e+00, -2.07328224e+00, -2.00598454e+00,
          -2.03466868e+00, -2.06776595e+00, -1.92875767e+00,
          -2.04790759e+00, -2.00046825e+00, -2.01260400e+00,
          -1.98612618e+00, -2.02363634e+00, -1.80298817e+00,
          -1.90779603e+00, -1.74782622e+00, -1.90889931e+00,
          -2.00598454e+00, -1.80850446e+00, -1.87249243e+00,
          -2.00488114e+00, -1.85263407e+00, -1.46539664e+00,
          -1.68935442e+00, -2.03466868e+00, -1.96957755e+00,
          -2.03797841e+00, -1.91110575e+00, -2.02253318e+00,
          -1.88242149e+00, -1.95633864e+00, -2.02142978e+00,
          -2.05011415e+00, -2.05893993e+00, -2.09314060e+00,
          -2.08762431e+00, -2.07328224e+00, -2.06666279e+00,
          -2.00157142e+00, -2.00598454e+00, -2.08762431e+00,
          -2.02142978e+00, -2.05673361e+00, -2.08983088e+00,
          -2.11299872e+00, -2.06224966e+00, -2.02363634e+00,
          5.57769108e+00, -3.70981932e-01, 3.63806462e+00,
          4.78971815e+00, 3.69867778e+00, -1.81713569e+00,
          5.48677111e+00, 6.07397795e-01, 4.09266472e+00, 4.03205109e+00,
          3.64944428e-01, 4.69879770e+00, 5.48677111e+00, 5.06247807e+00,
          -1.19962260e-01, 5.00186443e+00, 4.60787773e+00,
          2.81978464e+00, 5.46784461e-01, 4.09266472e+00, 4.33511782e+00,
          5.57769108e+00, 4.60787773e+00, -6.35175586e-01,
          5.09278440e+00, 3.48653126e+00, -2.71495610e-01,
          6.98317766e-01, 2.85009122e+00, 5.51707792e+00, 5.57769108e+00,
          5.57769108e+00, 4.45634460e+00, 4.27450466e+00 ]
      - [ -1.75446522e+00, -2.24691105e+00, -2.48884439e+00,
          -2.43050575e+00, -2.52316117e+00, -2.29838634e+00,
          -2.50771856e+00, -2.47340178e+00, -2.49399185e+00,
          -2.37388325e+00, -2.44594836e+00, -2.43050575e+00,
          -2.45967507e+00, -2.46482253e+00, -2.39790487e+00,
          -2.45452762e+00, -2.39618897e+00, -2.07704306e+00,
          -2.24862695e+00, -2.27951193e+00, -2.20401502e+00,
          -2.22117352e+00, -2.34986138e+00, -2.15082407e+00,
          -2.14739251e+00, -1.75274944e+00, -1.42330837e+00,
          -2.14224482e+00, -1.84712052e+00, -1.92776501e+00,
          -2.14910817e+00, -1.56229126e+00, -1.85569978e+00,
          -2.05816889e+00, -2.21087837e+00, -2.15425587e+00,
          -2.30868125e+00, -2.10964394e+00, -2.32583976e+00,
          -2.24176359e+00, -2.22460508e+00, -2.45452762e+00,
          -2.42707419e+00, -2.34814548e+00, -2.41163158e+00,
          -2.41334748e+00, -2.42364240e+00, -2.43736911e+00,
          -2.40305233e+00, -2.46310687e+00, -2.51115036e+00,
          -2.43908501e+00, -2.33441877e+00, -2.45967507e+00,
          -2.49742365e+00, -2.46653843e+00, -2.36701989e+00,
          7.52650833e+00, -4.55575079e-01, 7.44703913e+00,
          4.02987146e+00, 5.06296873e+00, 1.16898680e+00, 6.21526957e+00,
          -1.49322534e+00, 2.15358511e-01, 6.65234900e+00,
          8.90845180e-01, 3.87093329e+00, 4.26827860e+00, 3.47358823e+00,
          5.50004816e+00, 1.24845576e+00, 5.50004816e+00, 3.35438466e+00,
          9.70314205e-01, 5.61925173e+00, 5.46031380e+00, 4.34774733e+00,
          2.40075660e+00, 1.52659738e+00, 4.93500084e-01, 5.02323437e+00,
          4.98349953e+00, 5.34111023e+00, 5.26164103e+00,
          -1.42252073e-01, 7.40730476e+00, 7.52650833e+00,
          6.09606600e+00, 2.67889810e+00 ]
      - [ -1.95586693e+00, -2.20256448e+00, -2.59475064e+00,
          -2.53149462e+00, -2.57577372e+00, -2.24262643e+00,
          -2.58631635e+00, -2.54625440e+00, -2.57577372e+00,
          -2.28058004e+00, -2.42606831e+00, -2.49564981e+00,
          -2.50619245e+00, -2.44293666e+00, -2.42185140e+00,
          -2.54836297e+00, -2.49986672e+00, -1.82302964e+00,
          -2.04442501e+00, -2.05075049e+00, -2.22364974e+00,
          -2.29323125e+00, -2.44504523e+00, -2.22997546e+00,
          -2.23419237e+00, -1.31065762e+00, -1.52151036e+00,
          -1.71971190e+00, -1.49409950e+00, -1.59530878e+00,
          -2.03388238e+00, -2.02544832e+00, -1.47512269e+00,
          -1.75766540e+00, -2.17937064e+00, -1.63326228e+00,
          -2.26160336e+00, -1.90947926e+00, -2.38389778e+00,
          -2.29533982e+00, -2.36281252e+00, -2.55047154e+00,
          -2.44082808e+00, -2.22154117e+00, -2.35016131e+00,
          -2.52516913e+00, -2.52095199e+00, -2.45980477e+00,
          -2.45347929e+00, -2.53149462e+00, -2.58209944e+00,
          -2.50830102e+00, -2.22786689e+00, -2.49775839e+00,
          -2.56944823e+00, -2.49986672e+00, -2.38600636e+00,
          7.53461266e+00, -3.92159186e-02, -3.22422624e-01,
          1.96253157e+00, 5.77078867e+00, 6.41217899e+00, 1.32114089e+00,
          3.16513896e+00, 4.96904993e+00, 5.89104939e+00,
          -1.40476930e+00, 4.24748564e+00, 2.00261855e+00,
          6.93330908e+00, -8.83639455e-01, 5.65052748e+00,
          6.61261368e+00, 2.96470451e+00, 7.53461266e+00, 7.33417797e+00,
          3.40566039e+00, 5.77078867e+00, 5.16948462e+00,
          -6.43117964e-01, 2.80435681e+00, 7.29409122e+00,
          -4.82770294e-01, 5.73070145e+00, 4.36774635e+00,
          4.20739889e+00, 2.44357443e+00, 4.96904993e+00, 1.72201002e+00,
          3.64618206e+00 ]
      - [ -2.03375983e+00, -2.17419314e+00, -2.56086540e+00,
          -2.52816176e+00, -2.56086540e+00, -2.25114298e+00,
          -2.57240796e+00, -2.50122952e+00, -2.53778052e+00,
          -2.33578753e+00, -2.41081357e+00, -2.53008556e+00,
          -2.49161077e+00, -2.45121217e+00, -2.39542365e+00,
          -2.48391581e+00, -2.47429705e+00, -1.79906332e+00,
          -2.31270266e+00, -2.22805786e+00, -2.26845646e+00,
          -2.29538894e+00, -2.40696597e+00, -2.05492115e+00,
          -1.98374259e+00, -9.71853793e-01, -1.39122975e+00,
          -2.20882058e+00, -1.55667162e+00, -1.62207890e+00,
          -2.30308390e+00, -1.79136837e+00, -1.08343089e+00,
          -1.78559709e+00, -2.11455703e+00, -2.17996430e+00,
          -2.37041497e+00, -2.07223487e+00, -2.36079621e+00,
          -2.33386374e+00, -2.25306654e+00, -2.46660209e+00,
          -2.44351721e+00, -2.31077886e+00, -2.45121217e+00,
          -2.52431440e+00, -2.54162812e+00, -2.49161077e+00,
          -2.44736457e+00, -2.53008556e+00, -2.54932308e+00,
          -2.47814465e+00, -2.29154158e+00, -2.54355192e+00,
          -2.56471300e+00, -2.52623820e+00, -2.33771133e+00,
          7.89083004e+00, -6.54436231e-01, -7.13302732e-01,
          6.73812342e+00, 1.42743838e+00, 3.07416248e+00, 6.24410629e+00,
          5.99709749e+00, 7.84966183e+00, 5.62658453e+00, 2.78598571e+00,
          2.33563542e-01, 1.22159791e+00, 4.59738207e+00, 1.71561515e+00,
          5.79125690e+00, 7.89083004e+00, 2.82715392e+00, 2.41547275e+00,
          5.66775274e+00, 2.95065808e+00, 7.56148529e+00, 3.23883486e+00,
          -5.07462263e-01, 4.55621386e+00, 7.47914886e+00,
          -3.83957952e-01, 8.92253101e-01, 3.28000283e+00,
          7.23214054e+00, -3.42789859e-01, 5.25607157e+00,
          2.58014512e+00, 6.12060165e+00 ]
      - [ -2.00175834e+00, -2.14431763e+00, -2.36040759e+00,
          -2.30938625e+00, -2.36791062e+00, -2.21034503e+00,
          -2.37541389e+00, -2.34240007e+00, -2.36340880e+00,
          -2.20134139e+00, -2.28987813e+00, -2.31839013e+00,
          -2.33189583e+00, -2.28387570e+00, -2.26286697e+00,
          -2.32439256e+00, -2.33489704e+00, -1.90121651e+00,
          -2.10079956e+00, -2.13831520e+00, -2.15632272e+00,
          -2.20584321e+00, -2.26286697e+00, -1.97474706e+00,
          -2.03477216e+00, -1.23794043e+00, -1.52155840e+00,
          -1.95974076e+00, -1.67462218e+00, -1.74665213e+00,
          -2.15032005e+00, -1.82618523e+00, -1.54706907e+00,
          -1.91172087e+00, -2.09629774e+00, -2.02126646e+00,
          -2.20734382e+00, -2.00325894e+00, -2.27187085e+00,
          -2.21184564e+00, -2.11430526e+00, -2.31388831e+00,
          -2.33789825e+00, -2.20434260e+00, -2.30188322e+00,
          -2.32289195e+00, -2.33789825e+00, -2.30638504e+00,
          -2.28837752e+00, -2.35440516e+00, -2.37091208e+00,
          -2.31238770e+00, -2.19834018e+00, -2.34840250e+00,
          -2.37091208e+00, -2.34690189e+00, -2.24786067e+00,
          7.73429441e+00, -1.14190042e+00, 3.19237161e+00,
          7.73429441e+00, 4.97669840e+00, 3.84121776e+00, 7.28821230e+00,
          7.53152990e+00, 5.09835720e+00, 5.54443884e+00, 3.39513612e+00,
          1.36749208e+00, -1.55231524e+00, -1.73517317e-01,
          4.57116938e+00, 6.59881353e+00, 2.05689096e+00, 3.27347755e+00,
          7.28821230e+00, -1.13058044e-02, 5.34167433e+00,
          3.55734754e+00, 3.67900634e+00, 7.18646049e-01,
          -5.18586859e-02, 7.36931849e+00, -1.14678645e+00,
          8.80857527e-01, 3.84121776e+00, 7.12600088e+00, 3.67900634e+00,
          -1.79563248e+00, 4.61172247e+00, 6.63936663e+00 ]
      - [ -2.07502770e+00, -2.16179585e+00, -2.42890501e+00,
          -2.41529441e+00, -2.42720366e+00, -2.20603037e+00,
          -2.44421697e+00, -2.41699576e+00, -2.41699576e+00,
          -2.23665452e+00, -2.33533168e+00, -2.37105966e+00,
          -2.39657974e+00, -2.29449964e+00, -2.29449964e+00,
          -2.40168381e+00, -2.37786508e+00, -1.75687861e+00,
          -2.16860104e+00, -2.18051052e+00, -2.21283579e+00,
          -2.17540646e+00, -2.17880917e+00, -1.86576390e+00,
          -2.11075568e+00, -1.34175336e+00, -1.30092132e+00,
          -2.13967848e+00, -1.58504391e+00, -1.78069723e+00,
          -2.05631304e+00, -1.68031859e+00, -1.01850009e+00,
          -1.97294784e+00, -1.94232380e+00, -2.13457441e+00,
          -2.25196648e+00, -2.19071841e+00, -2.28088903e+00,
          -2.09714508e+00, -2.07843041e+00, -2.38467050e+00,
          -2.37446237e+00, -2.25877166e+00, -2.34043574e+00,
          -2.39998245e+00, -2.39657974e+00, -2.32682514e+00,
          -2.28769445e+00, -2.42039847e+00, -2.43911314e+00,
          -2.38637161e+00, -2.20092654e+00, -2.41869712e+00,
          -2.43741179e+00, -2.40678763e+00, -2.22134233e+00,
          8.52767849e+00, -1.18523073e+00, 2.70912027e+00,
          8.44147778e+00, 5.68305016e+00, 2.32121634e+00, 4.77794075e+00,
          8.98901999e-01, 1.28680587e+00, 5.72615051e+00, 7.66566992e+00,
          2.79532099e+00, 5.03654337e+00, -2.11812830e+00,
          8.52767849e+00, 2.66601968e+00, -2.11812830e+00,
          2.49361801e+00, 3.35562658e+00, 6.76056099e+00, 2.19191504e+00,
          2.10571408e+00, 2.06261373e+00, 2.14881444e+00, 8.35527706e+00,
          2.52395540e-01, 8.18287468e+00, 8.52767849e+00, 1.89021194e+00,
          1.23094238e-01, 3.81696820e-01, 7.96737289e+00, 6.07095385e+00,
          -6.09613121e-01 ]
      - [ -1.66227019e+00, -2.15774989e+00, -2.33777428e+00,
          -2.27501345e+00, -2.34107757e+00, -2.06691194e+00,
          -2.35263872e+00, -2.23207188e+00, -2.33281946e+00,
          -2.26345229e+00, -2.31134868e+00, -2.28162003e+00,
          -2.27005863e+00, -2.27996826e+00, -2.27171040e+00,
          -2.25849748e+00, -2.27005863e+00, -2.06360888e+00,
          -2.29152942e+00, -2.15279508e+00, -2.18582726e+00,
          -2.14784050e+00, -2.30143905e+00, -1.88853931e+00,
          -2.10985351e+00, -1.69530225e+00, -1.91826808e+00,
          -2.11976314e+00, -1.86211371e+00, -1.82743013e+00,
          -2.20234323e+00, -2.07186675e+00, -1.43600118e+00,
          -1.70025706e+00, -2.22381401e+00, -2.02231884e+00,
          -2.22216225e+00, -1.82082379e+00, -2.22711706e+00,
          -2.05865407e+00, -2.12636971e+00, -2.22051072e+00,
          -2.23702669e+00, -2.20564628e+00, -2.26840711e+00,
          -2.23867846e+00, -2.25023961e+00, -2.25849748e+00,
          -2.20069146e+00, -2.19738841e+00, -2.30309081e+00,
          -2.17096281e+00, -2.23042035e+00, -2.24198151e+00,
          -2.31630349e+00, -2.21555591e+00, -2.18913031e+00,
          8.11354542e+00, 5.52524328e-01, 8.03075790e+00, 4.47087193e+00,
          7.07869482e+00, 4.55652177e-01, 3.89135575e+00, 1.36632061e+00,
          5.38440228e-01, 5.21596432e+00, 2.27698898e+00, 7.12008905e+00,
          5.46432829e+00, 4.71923590e+00, 3.72864127e-01,
          -8.68956387e-01, 3.80856752e+00, 5.17457008e+00,
          -1.36568463e+00, 5.71269226e+00, 7.36845303e+00,
          -4.96410251e-01, 7.24427128e+00, 7.61681747e+00,
          7.40984726e+00, -1.82101882e+00, 3.17972503e-04,
          2.19420099e+00, 1.78026080e+00, -2.06652120e-01,
          7.16148329e+00, 8.11354542e+00, 1.49050260e+00, 2.40117097e+00 ]
      - [ -1.89898169e+00, -1.96604681e+00, -2.32200766e+00,
          -2.29105449e+00, -2.32888603e+00, -2.05374718e+00,
          -2.31684875e+00, -2.32200766e+00, -2.33060575e+00,
          -2.18787742e+00, -2.22055006e+00, -2.26697969e+00,
          -2.29621339e+00, -2.23430705e+00, -2.23602676e+00,
          -2.30137205e+00, -2.29793286e+00, -1.60836649e+00,
          -2.17412043e+00, -2.04686880e+00, -2.07782197e+00,
          -2.11049461e+00, -2.19131660e+00, -1.96432722e+00,
          -2.00215888e+00, -1.18877983e+00, -1.38481629e+00,
          -2.06750417e+00, -1.37621820e+00, -1.34526503e+00,
          -2.06406498e+00, -1.69778657e+00, -1.41061044e+00,
          -1.87834632e+00, -1.77173007e+00, -1.97980380e+00,
          -2.11049461e+00, -1.88350523e+00, -2.17755961e+00,
          -2.06062579e+00, -2.03655124e+00, -2.26010132e+00,
          -2.25838184e+00, -2.14832616e+00, -2.18959713e+00,
          -2.26697969e+00, -2.30309176e+00, -2.21367168e+00,
          -2.22398949e+00, -2.26526022e+00, -2.32372713e+00,
          -2.25838184e+00, -2.08298087e+00, -2.27729750e+00,
          -2.32544684e+00, -2.25494242e+00, -2.06578469e+00,
          7.82029390e+00, -3.99475634e-01, 7.82029390e+00,
          2.68463039e+00, 5.35355806e+00, 1.75454950e+00, 3.33164310e+00,
          1.43104315e+00, 1.14797509e+00, 2.48243880e+00, 6.72846031e+00,
          3.21032810e+00, 7.25415802e+00, -2.04665041e+00,
          2.60375381e+00, 7.61810255e+00, -2.32971859e+00,
          2.28024745e+00, 6.36451530e+00, 7.49678755e+00, 2.64419198e+00,
          1.91630268e+00, 1.87586439e+00, 6.80933666e+00, 7.65854073e+00,
          -6.71748340e-01, 7.45634937e+00, 7.77985573e+00,
          1.71411121e+00, -1.39963770e+00, 1.59279633e+00,
          7.45634937e+00, 1.75454950e+00, -9.95254695e-01 ]
      - [ -2.14225793e+00, -2.22996449e+00, -2.34507895e+00,
          -2.31218910e+00, -2.33959746e+00, -2.24640942e+00,
          -2.34727168e+00, -2.31986356e+00, -2.34617543e+00,
          -2.24640942e+00, -2.30122590e+00, -2.31328559e+00,
          -2.31109285e+00, -2.28916621e+00, -2.28806996e+00,
          -2.32534504e+00, -2.29574418e+00, -1.98000109e+00,
          -2.17734051e+00, -2.22667551e+00, -2.25408363e+00,
          -2.21680832e+00, -2.24969840e+00, -2.13129473e+00,
          -2.14445066e+00, -1.53927648e+00, -1.69934058e+00,
          -2.15431762e+00, -2.03701019e+00, -2.00521684e+00,
          -2.25408363e+00, -1.95478559e+00, -1.86927176e+00,
          -2.07757449e+00, -2.08415246e+00, -2.15212488e+00,
          -2.27820301e+00, -2.15322137e+00, -2.28478098e+00,
          -2.21242309e+00, -2.20584512e+00, -2.32424879e+00,
          -2.30122590e+00, -2.24531293e+00, -2.29793692e+00,
          -2.32753778e+00, -2.32863402e+00, -2.29135895e+00,
          -2.30012941e+00, -2.32095981e+00, -2.32644153e+00,
          -2.32534504e+00, -2.23544598e+00, -2.31986356e+00,
          -2.35275340e+00, -2.33521199e+00, -2.27491403e+00,
          6.79941034e+00, -1.54695070e+00, 2.61417437e+00,
          3.33576679e+00, 4.20167780e+00, 6.69117165e+00, 5.75310135e+00,
          6.43861389e+00, 4.45423508e+00, 3.08320951e+00, 4.52639437e+00,
          1.06275082e+00, 1.85650241e+00, 1.85650241e+00, 3.84088159e+00,
          4.52639437e+00, 6.22213650e+00, 5.10366821e+00, 5.96957922e+00,
          9.18432355e-01, 3.08320951e+00, 2.93889093e+00, 4.20167780e+00,
          9.54511940e-01, -2.72195071e-01, 6.40253448e+00,
          4.85476911e-01, 5.53662348e+00, 6.79941034e+00, 4.95934963e+00,
          3.19144845e+00, 7.01954603e-01, 3.87696123e+00, 5.68094206e+00 ]
      - [ -1.87307656e+00, -1.91737664e+00, -2.20374513e+00,
          -2.17210221e+00, -2.21323800e+00, -1.89680874e+00,
          -2.22273088e+00, -2.17684865e+00, -2.20532727e+00,
          -2.12780213e+00, -2.08191991e+00, -2.18317723e+00,
          -2.16102719e+00, -2.10406995e+00, -2.11198068e+00,
          -2.19899869e+00, -2.15786290e+00, -1.80820858e+00,
          -2.02021623e+00, -1.94743741e+00, -1.99964833e+00,
          -2.02021623e+00, -2.07242703e+00, -1.88256943e+00,
          -1.98699117e+00, -1.57563317e+00, -1.73701203e+00,
          -1.93794453e+00, -1.55664742e+00, -1.52500451e+00,
          -1.97908032e+00, -1.68796551e+00, -1.10098934e+00,
          -1.64524758e+00, -1.94901955e+00, -1.85409081e+00,
          -2.04236627e+00, -1.76074421e+00, -2.07875562e+00,
          -1.97116959e+00, -1.94901955e+00, -2.11356282e+00,
          -2.10565209e+00, -2.05502343e+00, -2.08033776e+00,
          -2.15311646e+00, -2.15311646e+00, -2.07084489e+00,
          -2.05502343e+00, -2.03920197e+00, -2.19425225e+00,
          -2.04078412e+00, -1.91737664e+00, -2.08508420e+00,
          -2.17210221e+00, -2.07875562e+00, -1.92212307e+00,
          7.83497143e+00, 6.82166293e-02, -5.60950100e-01,
          5.11629200e+00, -1.22200290e-03, 7.75501060e+00,
          2.11774874e+00, 6.59557390e+00, 4.83642817e+00, 6.39567089e+00,
          4.11677790e+00, 7.83497143e+00, 2.39761281e+00,
          -1.88030922e+00, 5.35617590e+00, 6.59557390e+00,
          2.15772939e+00, -2.24013448e+00, 4.03681660e+00,
          2.67747688e+00, 6.35569000e+00, -1.56046462e+00,
          -2.16017342e+00, 1.99780703e+00, 7.75501060e+00,
          7.39518547e+00, 6.67553473e+00, 6.43565130e+00,
          -1.00073647e+00, 2.67747688e+00, 1.07825363e+00,
          -1.92028987e+00, 5.98486722e-01, 7.79499102e+00 ]
      - [ -1.85974169e+00, -2.03868198e+00, -2.36181664e+00,
          -2.33228278e+00, -2.36876583e+00, -2.04389381e+00,
          -2.37918949e+00, -2.30274916e+00, -2.35834217e+00,
          -2.16724086e+00, -2.20372391e+00, -2.28711343e+00,
          -2.31317282e+00, -2.24889326e+00, -2.18461370e+00,
          -2.32185912e+00, -2.34270668e+00, -1.72770810e+00,
          -1.99872434e+00, -1.99872434e+00, -2.13249516e+00,
          -2.16029167e+00, -2.08732581e+00, -1.92575848e+00,
          -2.13423252e+00, -1.64779305e+00, -1.25864148e+00,
          -1.95529234e+00, -1.36635315e+00, -1.72249627e+00,
          -1.94660592e+00, -1.63215756e+00, -1.62520838e+00,
          -2.05084300e+00, -1.98482609e+00, -1.79719949e+00,
          -2.10817337e+00, -1.91707206e+00, -2.24368143e+00,
          -1.83194518e+00, -2.12554622e+00, -2.28537631e+00,
          -2.30796099e+00, -2.12207150e+00, -2.22630858e+00,
          -2.30274916e+00, -2.31317282e+00, -2.23325777e+00,
          -2.17245269e+00, -2.32185912e+00, -2.38266420e+00,
          -2.30796099e+00, -2.12207150e+00, -2.32185912e+00,
          -2.36181664e+00, -2.29232526e+00, -2.16550374e+00,
          6.56608438e+00, -4.07372504e-01, -2.17490149e+00,
          3.16877818e+00, 5.75214624e+00, 2.92105794e+00, 5.57520342e+00,
          1.61167943e+00, 3.69960713e+00, 4.05349350e+00, 4.26582479e+00,
          9.39295948e-01, 4.79244083e-01, 6.31836414e+00, 5.92908955e+00,
          -7.94745743e-01, 4.01810455e+00, 6.03525543e+00,
          6.03525543e+00, 1.22240484e+00, 4.33660221e+00, 2.92105794e+00,
          6.24758673e+00, 5.22131729e+00, -7.59357154e-01,
          5.50442600e+00, -8.65522981e-01, 1.61167943e+00,
          6.56608438e+00, 4.44276810e+00, 2.53178310e+00, 6.24758673e+00,
          3.98271608e+00, 6.53069592e+00 ]
      - [ -2.06291437e+00, -2.18597674e+00, -2.54879856e+00,
          -2.47453690e+00, -2.54667687e+00, -2.24750805e+00,
          -2.55092025e+00, -2.51060677e+00, -2.52333736e+00,
          -2.27296925e+00, -2.37905741e+00, -2.51060677e+00,
          -2.48726749e+00, -2.42997980e+00, -2.34935260e+00,
          -2.46180630e+00, -2.47029328e+00, -1.51125550e+00,
          -2.28145623e+00, -2.25811672e+00, -2.22629023e+00,
          -2.32601333e+00, -2.32389140e+00, -1.94409561e+00,
          -2.08413196e+00, -7.28324294e-01, -1.57278669e+00,
          -2.16263747e+00, -1.34363616e+00, -1.50489020e+00,
          -2.11808038e+00, -2.03533149e+00, -1.05295432e+00,
          -1.91439092e+00, -1.80618083e+00, -2.16263747e+00,
          -2.35571790e+00, -1.99289620e+00, -2.39178801e+00,
          -2.31116080e+00, -2.13505435e+00, -2.44058847e+00,
          -2.40664029e+00, -2.24326444e+00, -2.41724920e+00,
          -2.49999785e+00, -2.51485038e+00, -2.45544100e+00,
          -2.37057042e+00, -2.46180630e+00, -2.52758098e+00,
          -2.44058847e+00, -2.25387335e+00, -2.48514557e+00,
          -2.55304217e+00, -2.50636315e+00, -2.27509093e+00,
          1.01945210e+01, -5.60704887e-01, -2.08684421e+00,
          -2.47584677e+00, 1.19189131e+00, 8.36065197e+00,
          3.08133221e+00, -8.64264846e-01, 3.19247580e+00,
          -1.69784176e+00, 3.91490889e+00, -1.92012882e+00,
          3.97048068e+00, 1.01945210e+01, 8.58293915e+00,
          -2.47584677e+00, 5.52649069e+00, 1.00833778e+01,
          3.97048068e+00, 8.74965477e+00, 4.41505527e+00, 5.19305992e+00,
          4.74848604e+00, 5.41534710e+00, 3.02576041e+00, 8.52736759e+00,
          -2.25355959e+00, 4.24833965e+00, 6.41563940e+00,
          4.52619886e+00, 2.48837508e-02, 5.19305992e+00, 1.41417849e+00,
          6.58235502e+00 ]
      - [ -1.88825762e+00, -2.03427315e+00, -2.24579120e+00,
          -2.15845466e+00, -2.23623872e+00, -2.06020117e+00,
          -2.24033260e+00, -2.15436077e+00, -2.23078036e+00,
          -2.15163159e+00, -2.19257045e+00, -2.16664267e+00,
          -2.20348763e+00, -2.19802904e+00, -2.20621681e+00,
          -2.19529986e+00, -2.18711209e+00, -1.91964424e+00,
          -2.10386944e+00, -2.04382563e+00, -2.13389134e+00,
          -2.07248306e+00, -2.18711209e+00, -2.03290868e+00,
          -2.06020117e+00, -1.88552845e+00, -1.65763485e+00,
          -2.07111835e+00, -1.84868336e+00, -1.87734056e+00,
          -2.06838918e+00, -2.01243925e+00, -1.85823572e+00,
          -1.88416374e+00, -2.03427315e+00, -1.91282105e+00,
          -2.12160969e+00, -1.96877098e+00, -2.15026689e+00,
          -2.00970984e+00, -2.11888051e+00, -2.14207911e+00,
          -2.13116217e+00, -2.09568167e+00, -2.11751580e+00,
          -2.13252687e+00, -2.15299630e+00, -2.16391325e+00,
          -2.14617300e+00, -2.06565976e+00, -2.17346573e+00,
          -2.09022307e+00, -2.06565976e+00, -2.08885860e+00,
          -2.19529986e+00, -2.05064893e+00, -2.11888051e+00,
          8.13905716e+00, 8.58067349e-03, -1.93329597e+00,
          5.36190653e+00, -1.27009571e+00, 8.13905716e+00,
          5.56915665e+00, 6.23235703e+00, 5.44480658e+00, 6.93700695e+00,
          5.61060667e+00, 2.63554811e-01, 2.54330564e+00,
          -2.33845368e-01, 5.65205669e+00, 6.97845697e+00,
          1.71430528e+00, -2.26489615e+00, 3.66245604e+00,
          2.83345556e+00, 6.97845697e+00, -1.56024587e+00,
          -1.92395359e-01, 2.70910573e+00, 1.46560526e+00,
          5.32045650e+00, 7.64165735e+00, 6.64685678e+00, 3.46454829e-01,
          8.13905716e+00, 6.35670710e+00, -1.93329597e+00,
          3.24795580e+00, 4.15985632e+00 ]
      - [ -1.92054522e+00, -2.15953660e+00, -2.30116105e+00,
          -2.25563884e+00, -2.30748343e+00, -2.18482661e+00,
          -2.30874801e+00, -2.28978038e+00, -2.31254148e+00,
          -2.22908425e+00, -2.25437427e+00, -2.26069689e+00,
          -2.27207732e+00, -2.25690341e+00, -2.24805188e+00,
          -2.28345799e+00, -2.26196146e+00, -1.99262190e+00,
          -2.13803983e+00, -2.13171744e+00, -2.15194941e+00,
          -2.17850399e+00, -2.21391010e+00, -2.02549911e+00,
          -2.07228565e+00, -1.70684385e+00, -1.66132176e+00,
          -2.10010481e+00, -1.80041718e+00, -1.93571925e+00,
          -2.08240175e+00, -1.92054522e+00, -1.68914080e+00,
          -1.96859634e+00, -2.04446650e+00, -2.07987285e+00,
          -2.18988466e+00, -2.07607913e+00, -2.20505857e+00,
          -2.13930440e+00, -2.15068507e+00, -2.25563884e+00,
          -2.28092885e+00, -2.22023273e+00, -2.25437427e+00,
          -2.28598690e+00, -2.28851604e+00, -2.26575494e+00,
          -2.21517467e+00, -2.28092885e+00, -2.30748343e+00,
          -2.26954842e+00, -2.23540688e+00, -2.27587104e+00,
          -2.30495453e+00, -2.28219342e+00, -2.22023273e+00,
          7.14974594e+00, -1.15425539e+00, 2.30907369e+00,
          1.86224246e+00, 6.85185814e+00, 6.18161154e+00, 4.99006128e+00,
          1.19199550e+00, 1.75053465e+00, 6.88909435e+00, 1.34093928e+00,
          6.29331923e+00, 4.43152237e+00, -1.82411551e+00,
          1.04305172e+00, 2.16013002e+00, 8.19636166e-01, 4.61770201e+00,
          4.50599432e+00, 5.25071287e+00, 2.04842210e+00, 2.34630966e+00,
          5.28794861e+00, 6.66567850e+00, 6.92633009e+00, 2.71866894e+00,
          7.14974594e+00, 5.73478031e+00, 2.23861113e-01,
          -4.09149855e-01, 5.21347713e+00, 7.14974594e+00,
          1.00581586e+00, 4.28257847e+00 ]
      - [ -1.43695581e+00, -2.13264084e+00, -2.32225180e+00,
          -2.22210526e+00, -2.33159876e+00, -2.08991170e+00,
          -2.30489302e+00, -2.19539952e+00, -2.29688144e+00,
          -2.28352857e+00, -2.29287553e+00, -2.29688144e+00,
          -2.28486371e+00, -2.27952266e+00, -2.24346972e+00,
          -2.23812866e+00, -2.27151084e+00, -2.20074058e+00,
          -2.29821658e+00, -2.21275806e+00, -2.16869378e+00,
          -2.23412275e+00, -2.27151084e+00, -2.13130569e+00,
          -2.16869378e+00, -1.98842978e+00, -2.23679328e+00,
          -2.26483440e+00, -1.94169474e+00, -1.98976505e+00,
          -2.23011684e+00, -2.16201735e+00, -1.87493026e+00,
          -2.02581787e+00, -2.22878170e+00, -2.23946404e+00,
          -2.23946404e+00, -2.00578856e+00, -2.25949335e+00,
          -2.23011684e+00, -2.22477579e+00, -2.25548744e+00,
          -2.27551675e+00, -2.28085780e+00, -2.29020500e+00,
          -2.27685213e+00, -2.27685213e+00, -2.27418137e+00,
          -2.27551675e+00, -2.27017546e+00, -2.27685213e+00,
          -2.26082850e+00, -2.19940519e+00, -2.28619909e+00,
          -2.28486371e+00, -2.26216388e+00, -2.18204665e+00,
          7.12491179e+00, 3.84377301e-01, 7.12491179e+00, 1.79264545e+00,
          6.82660341e+00, 1.23331690e+00, 4.96217442e+00, 1.15873969e+00,
          7.12491179e+00, 5.67065763e+00, 1.82993412e+00, 6.34185171e+00,
          4.44013453e+00, 5.24833918e-01, 1.00958538e+00, 1.08416259e+00,
          1.08416259e+00, -3.44947428e-02, 4.66386604e+00,
          5.22319460e+00, 2.05366564e+00, 7.08762360e+00, 3.91809440e+00,
          6.82660341e+00, 4.51471138e+00, 5.07404041e+00, 2.20281982e+00,
          5.78252316e+00, 4.96217442e+00, -3.70091945e-01,
          6.52829456e+00, 4.73844290e+00, 6.73988223e-01, 2.01637697e+00 ]
      - [ -2.29026985e+00, -2.40268755e+00, -2.71602201e+00,
          -2.69210315e+00, -2.71123815e+00, -2.44095731e+00,
          -2.70884633e+00, -2.67536020e+00, -2.71362996e+00,
          -2.47922730e+00, -2.57490182e+00, -2.62752295e+00,
          -2.65383339e+00, -2.60121226e+00, -2.53184819e+00,
          -2.64426589e+00, -2.62273908e+00, -1.71861410e+00,
          -2.24721622e+00, -2.40747118e+00, -2.38594460e+00,
          -2.43139005e+00, -2.47205162e+00, -2.13479853e+00,
          -2.22329760e+00, -1.01062202e+00, -8.81461263e-01,
          -2.15871739e+00, -1.69947922e+00, -1.75688398e+00,
          -2.27591872e+00, -1.71622217e+00, -1.52726483e+00,
          -2.06304264e+00, -2.08696127e+00, -2.03434038e+00,
          -2.48161912e+00, -2.13479853e+00, -2.50792956e+00,
          -2.29744554e+00, -2.44813299e+00, -2.68492770e+00,
          -2.64426589e+00, -2.43856549e+00, -2.54619956e+00,
          -2.65144157e+00, -2.67057657e+00, -2.58686113e+00,
          -2.57011819e+00, -2.61077976e+00, -2.72080564e+00,
          -2.57011819e+00, -2.44574118e+00, -2.64426589e+00,
          -2.69927883e+00, -2.62752295e+00, -2.49357843e+00,
          1.16471291e+01, -6.27923548e-01, -1.40322137e+00,
          8.02522564e+00, -1.11576879e+00, 1.16471291e+01,
          7.79526329e+00, 9.11754608e+00, 1.98871982e+00, 8.14020634e+00,
          7.81418741e-01, 7.23928213e-01, 7.68028259e+00, 4.36475575e-01,
          8.19769669e+00, 3.78985047e-01, 1.35632408e+00,
          -1.86314559e+00, 4.97822762e+00, 2.44864416e+00,
          1.75875771e+00, -1.86314559e+00, 5.51456630e-01,
          3.19602108e+00, 3.36849260e+00, 3.78985047e-01, 1.08422613e+01,
          9.57746983e+00, 2.64003962e-01, 3.94339800e+00, 9.17503643e+00,
          5.03571796e+00, 4.86324644e+00, 3.36849260e+00 ]
      - [ -1.78533995e+00, -2.07201767e+00, -2.57937527e+00,
          -2.45975447e+00, -2.56906319e+00, -2.06376791e+00,
          -2.57112575e+00, -2.50100303e+00, -2.58350015e+00,
          -2.32157159e+00, -2.42469311e+00, -2.50100303e+00,
          -2.45356727e+00, -2.34632087e+00, -2.43294287e+00,
          -2.52368975e+00, -2.49687815e+00, -2.21432519e+00,
          -2.15451479e+00, -2.22463751e+00, -2.15451479e+00,
          -2.26176119e+00, -2.39169431e+00, -2.14626503e+00,
          -2.40406895e+00, -1.90083599e+00, -1.68428087e+00,
          -2.15245247e+00, -1.49866211e+00, -1.81215143e+00,
          -2.11532879e+00, -2.11532879e+00, -1.84927523e+00,
          -2.14420271e+00, -2.32982135e+00, -1.89052379e+00,
          -2.38963175e+00, -1.82452607e+00, -2.39375663e+00,
          -2.12770319e+00, -2.37519479e+00, -2.50925279e+00,
          -2.46181679e+00, -2.24938655e+00, -2.37725735e+00,
          -2.45975447e+00, -2.49069095e+00, -2.38963175e+00,
          -2.41025615e+00, -2.47831631e+00, -2.54843903e+00,
          -2.44944239e+00, -2.26588607e+00, -2.48037887e+00,
          -2.54843903e+00, -2.46594167e+00, -2.25144911e+00,
          8.47112370e+00, 5.06019592e-01, 2.98308349e+00, 5.93463421e+00,
          2.52190351e+00, 5.93463421e+00, -6.60237372e-01,
          4.59721279e+00, 1.41507196e+00, 6.94923019e+00, 5.24286461e+00,
          1.59954381e+00, 5.65792656e+00, 5.33510065e+00,
          -4.75765437e-01, 7.64099979e+00, 4.00476277e-01,
          4.18215084e+00, 3.95156097e+00, 5.61180830e+00, 7.54876375e+00,
          3.30590940e+00, 3.90544319e+00, 8.15538108e-01, 7.41040993e+00,
          8.47112370e+00, 7.04146624e+00, 6.99534798e+00,
          -2.22824883e+00, 5.98075247e+00, 2.16004327e-01,
          3.44426322e+00, -1.99765897e+00, 1.36895394e+00 ]
      - [ -1.56036091e+00, -2.09136891e+00, -2.73324680e+00,
          -2.63112974e+00, -2.71282339e+00, -2.11762762e+00,
          -2.75366998e+00, -2.68364716e+00, -2.72449374e+00,
          -2.34228468e+00, -2.45315456e+00, -2.59611821e+00,
          -2.62529445e+00, -2.54943633e+00, -2.43856645e+00,
          -2.60195351e+00, -2.64863563e+00, -1.66539550e+00,
          -2.23433256e+00, -2.16722727e+00, -2.15847421e+00,
          -2.31310844e+00, -2.28101468e+00, -1.99508727e+00,
          -2.10595703e+00, -1.28026879e+00, -6.23802841e-01,
          -2.08261609e+00, -1.29193926e+00, -1.53701985e+00,
          -2.04176927e+00, -1.58953714e+00, -8.22201431e-01,
          -1.88129985e+00, -2.06802797e+00, -1.97174621e+00,
          -2.39480209e+00, -1.95424044e+00, -2.46190739e+00,
          -2.11470985e+00, -2.28976750e+00, -2.60195351e+00,
          -2.59903598e+00, -2.27517939e+00, -2.44148397e+00,
          -2.59320068e+00, -2.67781186e+00, -2.55527139e+00,
          -2.41522551e+00, -2.67781186e+00, -2.70698810e+00,
          -2.57277727e+00, -2.29852033e+00, -2.62529445e+00,
          -2.72157621e+00, -2.61070633e+00, -2.32477903e+00,
          1.02560253e+01, 9.13786232e-01, 8.25604439e+00, 5.17915010e+00,
          -1.33360982e+00, 1.02560253e+01, 1.02274217e-01,
          7.69194698e+00, 1.64072144e+00, 6.92272329e+00, 3.23045015e+00,
          -6.15667820e-01, 6.10221815e+00, -1.59001768e+00,
          9.84577274e+00, 3.28173184e+00, -7.69512534e-01,
          2.97404242e+00, 7.89707327e+00, 3.02532387e+00, 2.71763444e+00,
          -2.41052294e+00, 3.48685813e+00, -7.69512534e-01,
          3.48685813e+00, 4.09963667e-01, 9.23039436e+00, 1.02560253e+01,
          3.12788701e+00, 1.69200301e+00, -2.56696790e-01,
          7.43553925e+00, 7.23041296e+00, -6.15667820e-01 ]
      - [ -2.29486537e+00, -2.27434778e+00, -2.56159401e+00,
          -2.54265475e+00, -2.56001568e+00, -2.30906987e+00,
          -2.56475067e+00, -2.54896784e+00, -2.54581118e+00,
          -2.44795823e+00, -2.48583674e+00, -2.54265475e+00,
          -2.50477600e+00, -2.47952366e+00, -2.47794533e+00,
          -2.54581118e+00, -2.52055883e+00, -2.22857785e+00,
          -2.42586231e+00, -2.41165781e+00, -2.38798356e+00,
          -2.41323614e+00, -2.46216273e+00, -2.27592611e+00,
          -2.37535739e+00, -1.78981698e+00, -2.06285882e+00,
          -2.37693572e+00, -2.00604081e+00, -2.03602815e+00,
          -2.36273122e+00, -2.33274412e+00, -1.87820041e+00,
          -2.15124226e+00, -2.28855228e+00, -2.25067353e+00,
          -2.41323614e+00, -2.13545942e+00, -2.42112756e+00,
          -2.31538296e+00, -2.36904430e+00, -2.50477600e+00,
          -2.48110199e+00, -2.39271855e+00, -2.46847582e+00,
          -2.52055883e+00, -2.50951099e+00, -2.42744064e+00,
          -2.42270565e+00, -2.43848848e+00, -2.55212450e+00,
          -2.38482714e+00, -2.29802203e+00, -2.44637990e+00,
          -2.55685925e+00, -2.44795823e+00, -2.28539562e+00,
          1.07227564e+01, -8.79151642e-01, 2.21195006e+00,
          -1.50479436e+00, 4.04338932e+00, 2.85834050e+00,
          1.11181505e-01, 2.05035257e+00, 4.04338932e+00, 3.44978017e-03,
          7.03706026e-01, 1.29623044e+00, 1.06688910e+01, 7.97559738e+00,
          2.42741370e+00, 3.80510807e-01, 4.31271887e+00, 3.66632843e+00,
          3.26644957e-01, 9.32224369e+00, 5.98256063e+00, 6.46735334e+00,
          6.09029245e+00, 6.89828014e+00, 5.73156439e-02, 8.51425648e+00,
          1.07227564e+01, 1.02918301e+01, -6.96806431e-01,
          4.31271887e+00, 3.18153572e+00, 6.03642654e+00,
          -5.89074731e-01, 3.50473094e+00 ]
      - [ -1.49087298e+00, -1.95794082e+00, -2.50543070e+00,
          -2.40335631e+00, -2.52089667e+00, -2.00743151e+00,
          -2.53326917e+00, -2.43428802e+00, -2.49305820e+00,
          -2.18374181e+00, -2.35077262e+00, -2.50233769e+00,
          -2.46521974e+00, -2.40954280e+00, -2.27962971e+00,
          -2.40644956e+00, -2.43119478e+00, -1.15990448e+00,
          -1.91772962e+00, -2.08166742e+00, -2.26107073e+00,
          -2.14043736e+00, -2.29818869e+00, -1.68883550e+00,
          -1.87133217e+00, -5.56450076e-02, -4.33010995e-01,
          -1.77853727e+00, -1.35168064e+00, -9.21730876e-01,
          -2.15899634e+00, -1.46303451e+00, -6.03134990e-01,
          -1.62078595e+00, -1.53417730e+00, -1.65481067e+00,
          -2.17446232e+00, -1.94866133e+00, -2.28890920e+00,
          -2.16518283e+00, -2.03217673e+00, -2.42191529e+00,
          -2.39717007e+00, -2.21467328e+00, -2.33221364e+00,
          -2.47759223e+00, -2.47140598e+00, -2.39098382e+00,
          -2.24251175e+00, -2.42810178e+00, -2.47449923e+00,
          -2.43738127e+00, -2.10641265e+00, -2.44356751e+00,
          -2.49924445e+00, -2.36933160e+00, -2.11259890e+00,
          1.26758175e+01, 1.27750862e+00, -2.62915730e+00,
          5.79165220e+00, -9.69581783e-01, 1.26758175e+01,
          5.67062318e-01, 9.66399479e+00, 3.82474756e+00,
          -2.19889688e+00, 1.18767624e+01, -2.32182860e+00,
          3.88621354e+00, -2.62915730e+00, 8.49614525e+00,
          5.42285728e+00, -6.62252963e-01, 1.30465138e+00,
          1.11391735e+01, 1.38704348e-02, -2.50622582e+00,
          -1.15397906e+00, -1.52277362e+00, 8.68054295e+00,
          -1.64570510e+00, 3.57888460e+00, 9.97132397e+00,
          8.43467999e+00, -1.52277362e+00, 1.30465138e+00,
          5.23846006e+00, -2.62915730e+00, 7.51269341e+00,
          5.85311794e+00 ]
      - [ -1.93242884e+00, -2.25974512e+00, -2.79805899e+00,
          -2.68444514e+00, -2.78453350e+00, -2.34089804e+00,
          -2.79264879e+00, -2.73313665e+00, -2.77912331e+00,
          -2.44098663e+00, -2.51402402e+00, -2.69256020e+00,
          -2.66821456e+00, -2.54378009e+00, -2.59247184e+00,
          -2.72231627e+00, -2.67903495e+00, -1.72954679e+00,
          -2.26515532e+00, -2.14072108e+00, -2.40311527e+00,
          -2.31114197e+00, -2.52754951e+00, -2.03251743e+00,
          -2.17588735e+00, -1.13713109e+00, -1.26427054e+00,
          -2.05415797e+00, -1.34271836e+00, -1.86480153e+00,
          -2.31384706e+00, -1.95406961e+00, -1.11008024e+00,
          -1.95136452e+00, -2.04604268e+00, -2.10014462e+00,
          -2.33819294e+00, -2.13801599e+00, -2.47074270e+00,
          -2.43287134e+00, -2.38147449e+00, -2.68444514e+00,
          -2.67632985e+00, -2.41393566e+00, -2.53295970e+00,
          -2.66550946e+00, -2.64116359e+00, -2.53295970e+00,
          -2.53836989e+00, -2.78453350e+00, -2.78453350e+00,
          -2.71149588e+00, -2.38417959e+00, -2.73854685e+00,
          -2.78723860e+00, -2.68444514e+00, -2.41934586e+00,
          1.13901596e+01, -1.66002333e-01, 9.24087715e+00,
          2.34054661e+00, 7.00304091e-01, 7.77031469e+00,
          -4.87457693e-01, 3.24550796e+00, 3.60943586e-01,
          -4.87457693e-01, 6.86535311e+00, 3.81110883e+00,
          4.54639006e+00, 4.74063754e-01, 1.13901596e+01, 6.07351208e+00,
          -2.69330096e+00, 2.28398657e+00, 1.02023983e+01,
          9.18431664e+00, 4.32014942e+00, 9.97615814e+00, 2.62334704e+00,
          1.15278471e+00, 7.71375465e+00, 3.47174811e+00, 8.95807648e+00,
          6.35631275e+00, 4.09390926e+00, -1.10961866e+00,
          -2.86298132e+00, 2.62334704e+00, -7.70258129e-01,
          1.83150578e+00 ]
      - [ -1.76977932e+00, -2.03179073e+00, -2.30911446e+00,
          -2.29380202e+00, -2.30571175e+00, -1.90588915e+00,
          -2.30401039e+00, -2.24616361e+00, -2.29039931e+00,
          -2.12026215e+00, -2.22234440e+00, -2.28699660e+00,
          -2.26147604e+00, -2.19682384e+00, -2.11345649e+00,
          -2.21553898e+00, -2.21383762e+00, -1.92800689e+00,
          -2.13387299e+00, -2.07262373e+00, -2.07432508e+00,
          -2.00797153e+00, -2.13387299e+00, -1.83783424e+00,
          -1.99265909e+00, -1.54689944e+00, -1.80891085e+00,
          -1.92970836e+00, -1.52648294e+00, -1.67960656e+00,
          -1.92800689e+00, -1.80210531e+00, -1.06370950e+00,
          -1.77998745e+00, -2.05390859e+00, -2.07772779e+00,
          -2.17981005e+00, -2.01137424e+00, -2.13897729e+00,
          -2.03689480e+00, -1.97394407e+00, -2.24616361e+00,
          -2.22915006e+00, -2.09304023e+00, -2.22404575e+00,
          -2.28699660e+00, -2.29210067e+00, -2.18321300e+00,
          -2.12026215e+00, -2.22064304e+00, -2.29720497e+00,
          -2.22915006e+00, -2.15088677e+00, -2.29210067e+00,
          -2.26998281e+00, -2.26658010e+00, -2.08283186e+00,
          9.15133381e+00, -4.52916622e-01, 4.11844492e+00,
          3.04045349e-01, -2.23888779e+00, 7.40306711e+00,
          -1.76208782e+00, 9.15133381e+00, 1.89337850e+00,
          1.46955633e+00, 6.71435595e+00, 3.37675619e+00, 6.34351158e+00,
          5.23097801e+00, -1.55017674e+00, 8.35666656e+00,
          -5.43599010e-01, 5.49586725e+00, 6.66137791e+00,
          6.18457794e+00, 8.51560020e+00, 4.48928928e+00,
          -1.60315454e+00, 1.20466745e+00, 5.81373358e+00,
          5.33693361e+00, 5.44288921e+00, 8.72751141e+00,
          -1.86804330e+00, 7.56200027e+00, 7.80845284e-01,
          -2.13293219e+00, -1.55017674e+00, 2.26422286e+00 ]
      - [ -1.82185864e+00, -2.05496979e+00, -2.33102226e+00,
          -2.27581167e+00, -2.32795501e+00, -2.08717585e+00,
          -2.32028699e+00, -2.24207211e+00, -2.31108522e+00,
          -2.20219779e+00, -2.21293306e+00, -2.30188346e+00,
          -2.28041267e+00, -2.25740838e+00, -2.21446681e+00,
          -2.26814365e+00, -2.23287034e+00, -1.68229878e+00,
          -2.14852095e+00, -2.10251212e+00, -2.19913054e+00,
          -2.19146228e+00, -2.23133659e+00, -1.90160716e+00,
          -2.06110430e+00, -1.46759129e+00, -1.55347431e+00,
          -2.01049471e+00, -1.92001069e+00, -1.94914961e+00,
          -2.08257508e+00, -1.88167012e+00, -1.73750925e+00,
          -2.05036879e+00, -1.86940110e+00, -2.07337332e+00,
          -2.15618896e+00, -2.16539073e+00, -2.20986581e+00,
          -2.16692448e+00, -2.10404563e+00, -2.27121091e+00,
          -2.26047564e+00, -2.17152524e+00, -2.22213483e+00,
          -2.28347993e+00, -2.30341697e+00, -2.25434113e+00,
          -2.23440385e+00, -2.28041267e+00, -2.30341697e+00,
          -2.29114795e+00, -2.16385722e+00, -2.31108522e+00,
          -2.28194618e+00, -2.28961444e+00, -2.19299603e+00,
          9.00093555e+00, -7.39119232e-01, -7.59985447e-01,
          3.71715516e-01, 3.29527617e+00, 1.88065004e+00, 2.54080892e+00,
          7.86923409e+00, 1.45626223e+00, 1.03187442e+00, 7.20907545e+00,
          -1.04291070e+00, 6.12452841e+00, -4.29905981e-01,
          -3.82751793e-01, 8.05785084e+00, 5.46436977e+00,
          -9.98265520e-02, 7.39769220e+00, 6.03022003e+00,
          7.02045870e+00, -2.36322832e+00, 4.33266878e+00,
          2.68227148e+00, 8.67085552e+00, 9.00093555e+00, 1.55057061e+00,
          7.86923409e+00, -2.31607413e+00, 6.45460796e+00,
          1.45626223e+00, 4.04974365e+00, 1.31479967e+00, 7.77492571e+00 ]
      - [ -1.50888586e+00, -1.78522313e+00, -2.23288965e+00,
          -2.18683338e+00, -2.25683880e+00, -1.88654685e+00,
          -2.26420784e+00, -2.17946434e+00, -2.21446705e+00,
          -1.98418605e+00, -2.06524491e+00, -2.17025304e+00,
          -2.18867564e+00, -2.11498570e+00, -2.14446163e+00,
          -2.19604468e+00, -2.17209530e+00, -1.72627115e+00,
          -1.93812978e+00, -1.93444526e+00, -2.00445080e+00,
          -1.83864832e+00, -2.05603361e+00, -1.94549882e+00,
          -1.93260300e+00, -1.08701098e+00, -1.36703277e+00,
          -1.88286233e+00, -1.30623853e+00, -1.66363478e+00,
          -1.89207363e+00, -1.77601194e+00, -1.28413153e+00,
          -1.74285150e+00, -1.95102549e+00, -1.72627115e+00,
          -2.04313803e+00, -1.83680618e+00, -1.96944797e+00,
          -2.02103090e+00, -2.14261937e+00, -2.24946976e+00,
          -2.16288400e+00, -1.98234379e+00, -2.10761666e+00,
          -2.15919971e+00, -2.14261937e+00, -2.14630389e+00,
          -2.18314886e+00, -2.21262479e+00, -2.22736287e+00,
          -2.11867023e+00, -1.89207363e+00, -2.13525033e+00,
          -2.17762208e+00, -2.17393756e+00, -1.99339724e+00,
          7.63050938e+00, 4.25475091e-01, 1.16525710e+00,
          -1.48315942e+00, -1.58951163e-01, 2.02209783e+00,
          -2.10631633e+00, 1.04841518e+00, 2.64525461e+00,
          2.06104493e+00, 1.63262475e+00, 5.56630230e+00, 6.96840525e+00,
          -2.30105281e+00, 2.48946548e+00, 7.63050938e+00,
          -4.31582272e-01, 7.24103642e+00, 7.35787821e+00,
          7.51366711e+00, 3.57853509e-02, 6.81261587e+00, 5.68314409e+00,
          3.38525319e+00, 7.08524704e+00, 6.96840525e+00, 7.16314173e+00,
          7.39682531e+00, 2.91788578e+00, -2.30105281e+00,
          -6.26318753e-01, 7.12419415e+00, 1.82736123e+00,
          2.29472876e+00 ]
      - [ -1.98792565e+00, -2.17698956e+00, -2.47750139e+00,
          -2.45560980e+00, -2.48745203e+00, -2.11728501e+00,
          -2.47949147e+00, -2.44167876e+00, -2.46954083e+00,
          -2.25659513e+00, -2.38595462e+00, -2.44565916e+00,
          -2.43769836e+00, -2.32824039e+00, -2.33620095e+00,
          -2.38197446e+00, -2.40784621e+00, -1.74711800e+00,
          -2.03568912e+00, -2.13718653e+00, -2.17698956e+00,
          -2.20485139e+00, -2.00782704e+00, -1.77099979e+00,
          -1.97001433e+00, -9.82902229e-01, -1.21574926e+00,
          -1.63965023e+00, -1.46451735e+00, -1.55606413e+00,
          -1.78891110e+00, -1.44461596e+00, -9.66981053e-01,
          -1.75109839e+00, -2.04763007e+00, -1.87050700e+00,
          -2.25659513e+00, -2.00384688e+00, -2.35212231e+00,
          -1.93419170e+00, -2.10136390e+00, -2.38396454e+00,
          -2.37401390e+00, -2.23271346e+00, -2.40983653e+00,
          -2.44167876e+00, -2.43172812e+00, -2.27052617e+00,
          -2.30833912e+00, -2.44764924e+00, -2.48347187e+00,
          -2.42376757e+00, -2.24664450e+00, -2.45759988e+00,
          -2.48148179e+00, -2.43570828e+00, -2.22077274e+00,
          6.98762989e+00, -6.76419854e-01, 3.35551262e+00,
          -4.63826895e-01, 6.42596197e+00, 6.03961833e-02,
          4.21673632e+00, -1.36249506e+00, 6.42596197e+00,
          4.36651421e+00, 2.00751042e+00, 6.23873949e+00, 2.19473290e+00,
          5.19029331e+00, 5.82684994e+00, -8.38271976e-01,
          2.90617871e+00, 3.72995782e+00, -5.01271427e-01,
          1.52073193e+00, 6.96952760e-01, 1.59562087e+00, 5.90173912e+00,
          6.46340656e+00, 4.55373669e+00, 2.79384518e+00, 6.38851786e+00,
          6.42596197e+00, 6.05151701e+00, 2.41939998e+00, 6.42596197e+00,
          6.98762989e+00, 5.84619284e-01, 6.65062904e+00 ]
      - [ -2.07191420e+00, -2.12371850e+00, -2.28488755e+00,
          -2.24920011e+00, -2.28028274e+00, -2.14444017e+00,
          -2.28028274e+00, -2.23999047e+00, -2.24574637e+00,
          -2.20775652e+00, -2.24689770e+00, -2.24344397e+00,
          -2.24459529e+00, -2.26877046e+00, -2.22962952e+00,
          -2.26416564e+00, -2.23193192e+00, -1.94873488e+00,
          -2.20890784e+00, -2.14444017e+00, -2.18012762e+00,
          -2.13868403e+00, -2.23423433e+00, -2.12141609e+00,
          -2.10529923e+00, -1.83937025e+00, -1.61258245e+00,
          -2.09839177e+00, -1.94067645e+00, -1.94182765e+00,
          -2.14213777e+00, -2.08803105e+00, -1.75993693e+00,
          -1.95909584e+00, -2.07076287e+00, -2.05694842e+00,
          -2.20660543e+00, -1.91995478e+00, -2.16516185e+00,
          -2.12256718e+00, -2.18127871e+00, -2.20430303e+00,
          -2.18243003e+00, -2.15710354e+00, -2.18933725e+00,
          -2.21236134e+00, -2.21121025e+00, -2.20200062e+00,
          -2.18473244e+00, -2.09839177e+00, -2.23883915e+00,
          -2.08112383e+00, -2.10875273e+00, -2.13868403e+00,
          -2.26531696e+00, -2.15249872e+00, -2.13407922e+00,
          6.84648848e+00, -1.07266617e+00, 2.81497884e+00,
          4.47077751e+00, 6.34254980e+00, 5.55064631e+00, 6.52252817e+00,
          6.48653221e+00, 4.47077751e+00, 6.01858950e+00, 5.58664179e+00,
          1.12318468e+00, -1.36662155e-01, -1.46850026e+00,
          3.89484763e+00, 6.84648848e+00, 2.23904896e+00, 2.85097456e+00,
          3.71486950e+00, 2.13106203e+00, 3.13893962e+00, 2.92296576e+00,
          4.25480366e+00, 1.66311896e+00, -2.08653405e-01,
          6.45053673e+00, -6.04605258e-01, 1.12318468e+00,
          5.73062420e+00, 6.30655432e+00, 3.10294390e+00, 7.27232814e-01,
          6.23456287e+00, 5.73062420e+00 ]
      - [ -1.86625803e+00, -1.96985924e+00, -2.12247610e+00,
          -2.06900454e+00, -2.13027406e+00, -2.01219082e+00,
          -2.13584399e+00, -2.06343460e+00, -2.12136197e+00,
          -2.06566238e+00, -2.08682823e+00, -2.08571434e+00,
          -2.09908223e+00, -2.11022210e+00, -2.10799408e+00,
          -2.09574032e+00, -2.06900454e+00, -1.80164659e+00,
          -2.00439286e+00, -1.94980741e+00, -2.00996304e+00,
          -2.00550699e+00, -2.09351230e+00, -1.96206129e+00,
          -1.99659503e+00, -1.77156889e+00, -1.70250142e+00,
          -1.89522183e+00, -1.81724250e+00, -1.88519597e+00,
          -1.98768306e+00, -1.89076591e+00, -1.85177624e+00,
          -1.80833054e+00, -1.90413380e+00, -1.83506632e+00,
          -2.00439286e+00, -1.81612849e+00, -2.02444482e+00,
          -1.88742387e+00, -2.01887488e+00, -2.04004073e+00,
          -2.00884891e+00, -1.99436700e+00, -2.00550699e+00,
          -2.04115462e+00, -2.04338264e+00, -2.05229449e+00,
          -2.02778673e+00, -1.97320127e+00, -2.07680249e+00,
          -1.95537734e+00, -2.03001475e+00, -1.97765720e+00,
          -2.08348632e+00, -1.99993706e+00, -2.06232047e+00,
          5.84144545e+00, -3.76852125e-01, -1.68022156e+00,
          2.80143833e+00, 5.05793858e+00, 4.71319532e+00, 5.27732038e+00,
          5.49670267e+00, 3.77298713e+00, 2.55071616e+00, 4.83855677e+00,
          8.27000797e-01, -1.46083963e+00, 3.58494544e+00,
          5.24598026e+00, 5.74742460e+00, 5.81010532e+00, 5.34000111e+00,
          4.08639002e+00, 1.45380640e+00, 5.84144545e+00,
          -1.42949939e+00, 3.58494544e+00, 1.14040363e+00,
          3.80432749e+00, 4.90123701e+00, -1.68022156e+00,
          1.70452857e+00, 4.80721617e+00, 4.21175098e+00, 2.29999399e+00,
          4.77587605e+00, 5.77876520e+00, 4.83855677e+00 ]
      - [ -2.16789269e+00, -2.10711455e+00, -2.49680948e+00,
          -2.40921736e+00, -2.48787141e+00, -2.19828176e+00,
          -2.49323416e+00, -2.40742993e+00, -2.47893357e+00,
          -2.31626272e+00, -2.37346554e+00, -2.43960643e+00,
          -2.47178316e+00, -2.40742993e+00, -2.43603134e+00,
          -2.45569468e+00, -2.45569468e+00, -1.97483289e+00,
          -2.17683053e+00, -2.13929129e+00, -2.37882829e+00,
          -2.27872324e+00, -2.39134145e+00, -2.09281373e+00,
          -2.31089997e+00, -1.47967017e+00, -1.57798767e+00,
          -1.75853431e+00, -1.65485406e+00, -1.94086862e+00,
          -2.06599998e+00, -1.98555839e+00, -1.64770377e+00,
          -1.87651539e+00, -2.11605263e+00, -1.91405475e+00,
          -2.24297142e+00, -2.05348682e+00, -2.26799774e+00,
          -2.15895462e+00, -2.24297142e+00, -2.40027952e+00,
          -2.40564227e+00, -2.18934369e+00, -2.24297142e+00,
          -2.38955402e+00, -2.38955402e+00, -2.32698822e+00,
          -2.36095238e+00, -2.29659915e+00, -2.45927000e+00,
          -2.28408599e+00, -2.16789269e+00, -2.25369692e+00,
          -2.43424368e+00, -2.27693558e+00, -2.22867084e+00,
          7.56017685e+00, 4.04450566e-01, 4.35822296e+00, 4.91164732e+00,
          3.96291995e+00, -1.33413923e+00, 5.42554092e+00,
          7.24393415e+00, 3.36996555e+00, 7.56017685e+00, 3.76526856e+00,
          6.29520750e+00, 2.07542181e-01, 4.95117760e+00, 6.80910110e+00,
          7.48111629e+00, -7.01654553e-01, 3.13278389e+00,
          2.73748088e+00, 2.34217811e+00, 7.08581305e+00,
          -1.61085129e+00, 4.67446518e+00, 6.02845132e-01,
          2.30264783e+00, 5.03023815e+00, 1.70969331e+00, 9.19087470e-01,
          1.15626919e+00, 7.40205574e+00, 3.25137472e+00, 2.10499620e+00,
          3.76526856e+00, 7.56017685e+00 ]
      - [ -1.89307094e+00, -2.09301901e+00, -2.26198936e+00,
          -2.20848203e+00, -2.24509239e+00, -2.13666964e+00,
          -2.26058125e+00, -2.21974683e+00, -2.24086809e+00,
          -2.10850811e+00, -2.15779090e+00, -2.22256303e+00,
          -2.23805189e+00, -2.17187190e+00, -2.14511824e+00,
          -2.20425773e+00, -2.17609620e+00, -1.78605640e+00,
          -2.06626534e+00, -2.05922508e+00, -2.11414027e+00,
          -2.07330585e+00, -2.15075064e+00, -1.99445307e+00,
          -1.90151942e+00, -1.44811594e+00, -1.70720363e+00,
          -1.92123258e+00, -1.79168880e+00, -1.80999386e+00,
          -1.95925093e+00, -1.98037219e+00, -1.48754227e+00,
          -1.83815563e+00, -1.90855992e+00, -1.98882067e+00,
          -2.10287571e+00, -2.03951192e+00, -2.11695647e+00,
          -2.13103747e+00, -2.08457065e+00, -2.19299316e+00,
          -2.15215874e+00, -2.11554837e+00, -2.15638280e+00,
          -2.23805189e+00, -2.24790835e+00, -2.20989013e+00,
          -2.19721746e+00, -2.23101139e+00, -2.24931645e+00,
          -2.21833873e+00, -2.12540507e+00, -2.24509239e+00,
          -2.26058125e+00, -2.22960329e+00, -2.16342330e+00,
          8.35075092e+00, -1.07778943e+00, 2.88119698e+00,
          5.59477425e+00, 1.67620048e-01, 5.59477425e+00, 7.58755732e+00,
          7.07876158e+00, -1.27396774e+00, 6.10356951e+00,
          4.95877934e+00, 1.65160751e+00, 5.34037638e+00, 5.04357862e+00,
          -3.41175646e-01, 7.16356087e+00, 2.03320432e+00,
          3.81398916e+00, 3.77158952e+00, 5.29797649e+00, 7.16356087e+00,
          -2.24915957e+00, -1.69796407e+00, 2.24520254e+00,
          5.59477425e+00, 7.92675447e+00, 6.99396229e+00, 6.56996584e+00,
          -1.06196952e+00, 8.35075092e+00, 1.18521142e+00,
          -2.12196064e+00, -1.69796407e+00, 1.73640680e+00 ]
      - [ -2.09163642e+00, -2.34256506e+00, -2.86010528e+00,
          -2.76339340e+00, -2.84180856e+00, -2.33472371e+00,
          -2.85226393e+00, -2.75293803e+00, -2.79475927e+00,
          -2.54383087e+00, -2.64315677e+00, -2.78691792e+00,
          -2.76339340e+00, -2.63008738e+00, -2.60917687e+00,
          -2.77384877e+00, -2.72941327e+00, -2.12561655e+00,
          -2.55951381e+00, -2.24062538e+00, -2.47587085e+00,
          -2.41052485e+00, -2.58303833e+00, -2.09163642e+00,
          -2.41836643e+00, -1.34930611e+00, -2.22494245e+00,
          -2.25369453e+00, -1.53227484e+00, -1.66558063e+00,
          -2.47848487e+00, -2.13607192e+00, -1.08008063e+00,
          -2.06549811e+00, -2.32426834e+00, -2.45757413e+00,
          -2.41313887e+00, -2.17789316e+00, -2.45496035e+00,
          -2.44973254e+00, -2.28506064e+00, -2.75032401e+00,
          -2.63531518e+00, -2.53598928e+00, -2.67713666e+00,
          -2.82612538e+00, -2.80260086e+00, -2.65622592e+00,
          -2.54905844e+00, -2.78169012e+00, -2.81828403e+00,
          -2.71895814e+00, -2.44711876e+00, -2.82351160e+00,
          -2.86010528e+00, -2.79737329e+00, -2.51769233e+00,
          1.31026125e+01, -3.97724882e-02, -1.26240396e+00,
          -1.59187686e+00, 5.45884228e+00, 3.74558353e+00,
          -1.72366595e+00, 2.75716496e+00, 4.14095116e+00,
          4.47042370e+00, 5.16749442e-01, 2.09821916e+00, 3.81147814e+00,
          1.01373568e+01, 3.21842694e+00, 7.14433193e-01, 7.63336325e+00,
          4.47042370e+00, 6.48538589e-01, 1.16529322e+01,
          -1.59187686e+00, 8.16051960e+00, 8.22641468e+00,
          6.57905006e+00, 5.82644045e-01, 2.23000836e+00, 1.31026125e+01,
          1.28390341e+01, -6.69352829e-01, 5.52473688e+00,
          -7.63017014e-02, 7.63336325e+00, -4.71669137e-01,
          4.53631830e+00 ]
      - [ -1.81351066e+00, -2.12092519e+00, -2.69826460e+00,
          -2.66077495e+00, -2.67577076e+00, -2.11592650e+00,
          -2.67577076e+00, -2.55080557e+00, -2.63828111e+00,
          -2.25338840e+00, -2.50081944e+00, -2.61828685e+00,
          -2.65577626e+00, -2.52581239e+00, -2.42334104e+00,
          -2.56580138e+00, -2.52831173e+00, -1.74103093e+00,
          -2.26338553e+00, -2.29087782e+00, -2.42584038e+00,
          -2.39085007e+00, -2.35336041e+00, -2.03844810e+00,
          -2.28587937e+00, -1.44861221e+00, -1.06122005e+00,
          -2.29587650e+00, -1.59857047e+00, -1.78851771e+00,
          -2.31337166e+00, -1.70604062e+00, -1.67854822e+00,
          -2.14091969e+00, -1.99845922e+00, -2.10093069e+00,
          -2.45083332e+00, -2.23339391e+00, -2.43083882e+00,
          -2.23089457e+00, -2.34836197e+00, -2.51331592e+00,
          -2.57329941e+00, -2.31337166e+00, -2.46832848e+00,
          -2.59329367e+00, -2.64827847e+00, -2.49582076e+00,
          -2.35336041e+00, -2.59579301e+00, -2.68576789e+00,
          -2.58579588e+00, -2.21839809e+00, -2.60329103e+00,
          -2.68326879e+00, -2.60329103e+00, -2.31087232e+00,
          1.07429953e+01, 6.40806377e-01, 3.75223303e+00,
          -9.00179520e-02, -9.00179520e-02, 7.06083822e+00,
          -4.63570148e-01, 8.82186985e+00, 4.92625427e+00,
          1.08400321e+00, 4.87288952e+00, 1.29746163e+00, 5.13971281e+00,
          -3.56840938e-01, 4.87288952e+00, 9.08869267e+00,
          6.10027552e+00, 5.13971281e+00, 7.80794239e+00, 6.68728590e+00,
          1.07429953e+01, -2.70488334e+00, 4.71279573e+00,
          8.17180216e-01, 9.72906780e+00, 4.92625427e+00, 5.03298330e+00,
          8.39495277e+00, -2.17123723e+00, 7.22093201e+00,
