%YAML:1.0
---
opencv_ml_svm:
   format: 3
   svmType: C_SVC
   kernel:
      type: RBF
      gamma: 1.5000000000000001e-04
   C: 6.2500000000000000e+01
   term_criteria: { epsilon:1.1920928955078125e-07, iterations:1000 }
   var_count: 91
   class_count: 8
   class_labels: !!opencv-matrix
      rows: 8
      cols: 1
      dt: i
      data: [ 0, 1, 2, 3, 4, 5, 6, 7 ]
   sv_total: 778
   support_vectors:
      - [ -2.18631387e+00, -2.24481916e+00, -2.38576341e+00,
          -2.36448884e+00, -2.37645578e+00, -2.22354460e+00,
          -2.37379646e+00, -2.35518122e+00, -2.36049986e+00,
          -2.27274203e+00, -2.28072000e+00, -2.33656573e+00,
          -2.32991743e+00, -2.32991743e+00, -2.29135728e+00,
          -2.33922505e+00, -2.33523607e+00, -1.95362306e+00,
          -2.21157765e+00, -2.19828105e+00, -2.25146747e+00,
          -2.23019290e+00, -2.25678611e+00, -2.00282049e+00,
          -2.08791900e+00, -1.47361493e+00, -1.55871332e+00,
          -2.11717153e+00, -1.81400847e+00, -1.94963408e+00,
          -2.19296217e+00, -1.79406357e+00, -1.55871332e+00,
          -2.02941370e+00, -2.08658934e+00, -2.11983085e+00,
          -2.26476407e+00, -2.16105032e+00, -2.27673101e+00,
          -2.19296217e+00, -2.14509439e+00, -2.36182952e+00,
          -2.33789539e+00, -2.29002762e+00, -2.26210475e+00,
          -2.34055471e+00, -2.33922505e+00, -2.30598354e+00,
          -2.30731320e+00, -2.32459879e+00, -2.37645578e+00,
          -2.32725811e+00, -2.26343441e+00, -2.34055471e+00,
          -2.36714816e+00, -2.30997252e+00, -2.28072000e+00,
          7.55878210e+00, -1.33931899e+00, 5.37137747e+00,
          2.00496241e-02, 4.04331064e+00, -1.19083488e+00,
          4.23861504e+00, 6.69944429e+00, 4.35579729e+00, 4.12143230e+00,
          5.01983070e+00, 2.09027147e+00, 2.15353563e-01, 7.16817379e+00,
          6.81662703e+00, 6.58226204e+00, 3.73082447e+00, 6.93380928e+00,
          -2.12829375e+00, 1.62154198e+00, 7.40253878e+00,
          3.18397355e+00, 4.51204014e+00, 6.19165421e+00, 7.55878210e+00,
          2.24651456e+00, 4.00425005e+00, -4.48679835e-01,
          1.26999485e+00, 3.30115581e+00, 3.06679106e+00, 5.91822863e+00,
          2.87148714e+00, 2.44181848e+00 ]
      - [ -2.13750601e+00, -2.18461347e+00, -2.99721670e+00,
          -2.87159681e+00, -2.97366309e+00, -2.30238199e+00,
          -2.91085315e+00, -2.93048120e+00, -2.85589433e+00,
          -2.47903490e+00, -2.69101834e+00, -2.86374569e+00,
          -2.89122510e+00, -2.65176225e+00, -2.55362177e+00,
          -2.81271267e+00, -2.77738190e+00, -1.47407615e+00,
          -2.02366304e+00, -2.21994400e+00, -2.27490258e+00,
          -2.23564649e+00, -1.98833239e+00, -1.74886954e+00,
          -1.78812575e+00, 7.59601533e-01, -2.21803427e-01,
          -1.24639022e+00, -8.10646415e-01, -7.79241443e-01,
          -1.16395223e+00, -5.12299299e-01, 3.70965183e-01,
          -1.19143152e+00, -2.16891098e+00, -1.58791912e+00,
          -2.60858035e+00, -1.87841499e+00, -2.62035728e+00,
          -1.64680350e+00, -2.38481998e+00, -2.83234072e+00,
          -2.66353893e+00, -2.56539845e+00, -2.73812580e+00,
          -2.86374569e+00, -2.86767125e+00, -2.72242332e+00,
          -2.57324982e+00, -2.82841516e+00, -2.95010924e+00,
          -2.78915882e+00, -2.47903490e+00, -2.86374569e+00,
          -2.93833232e+00, -2.87552261e+00, -2.31808448e+00,
          1.16296434e+01, 5.27989984e-01, 1.09730554e+00, 7.61732388e+00,
          -1.66116381e+00, 8.55771160e+00, 1.53615296e+00,
          5.54847193e+00, -3.11592165e-02, 3.41692758e+00,
          7.80540133e+00, -2.10001135e+00, 1.11281033e+01,
          5.33073127e-01, 7.36655426e+00, 5.61116457e+00,
          -2.53885865e+00, 1.05638704e+01, 6.99039936e+00,
          6.58458114e-01, 1.16296434e+01, -2.97770596e+00,
          1.09730554e+00, 7.80540133e+00, 1.15999806e+00, 4.29462242e+00,
          6.23808956e+00, 8.11886406e+00, 2.60192513e+00,
          -1.34770143e+00, 1.97500038e+00, -3.04039860e+00,
          5.79924202e+00, -2.41347361e+00 ]
      - [ -1.63688540e+00, -1.98085654e+00, -2.27214742e+00,
          -2.20397305e+00, -2.26285100e+00, -2.00409794e+00,
          -2.27369690e+00, -2.20707178e+00, -2.26130152e+00,
          -2.13734794e+00, -2.16058922e+00, -2.22721434e+00,
          -2.22101665e+00, -2.18847895e+00, -2.16523767e+00,
          -2.25510383e+00, -2.19932485e+00, -1.88014424e+00,
          -2.06917357e+00, -2.04593229e+00, -1.99015307e+00,
          -2.13579869e+00, -2.23341203e+00, -2.04283333e+00,
          -1.98860371e+00, -1.42151594e+00, -1.66942322e+00,
          -1.95916474e+00, -1.38432992e+00, -1.72830117e+00,
          -2.09551358e+00, -2.05058050e+00, -1.48969042e+00,
          -1.84450758e+00, -2.01494384e+00, -2.03663564e+00,
          -2.09706306e+00, -1.77943194e+00, -2.13579869e+00,
          -2.17608356e+00, -2.14819384e+00, -2.24890614e+00,
          -2.21326947e+00, -2.10790896e+00, -2.12805152e+00,
          -2.22256613e+00, -2.21791792e+00, -2.18383050e+00,
          -2.15749049e+00, -2.27369690e+00, -2.26749921e+00,
          -2.23031330e+00, -2.07846999e+00, -2.25045562e+00,
          -2.25975227e+00, -2.23960972e+00, -2.07692051e+00,
          6.35812140e+00, -2.03671902e-01, 6.32399797e+00,
          3.73059702e+00, 6.32399797e+00, 6.32399797e+00, 1.99028850e+00,
          4.88845915e-01, 2.67276239e+00, 1.20544350e+00, 7.61835456e-01,
          6.28987408e+00, 2.74100971e+00, -7.39607155e-01,
          1.13485247e-01, 6.25575066e+00, 6.32399797e+00, 3.42348385e+00,
          6.35812140e+00, 5.19791603e+00, 6.01688480e+00, 5.94863701e+00,
          2.43389654e+00, 1.17131984e+00, 3.59410214e+00, 5.19791603e+00,
          7.61835456e-01, 1.99028850e+00, 5.67564774e+00, 6.35812140e+00,
          5.26616335e+00, -7.39607155e-01, 1.99028850e+00,
          6.25340700e-01 ]
      - [ -1.86710405e+00, -2.05517387e+00, -2.19836354e+00,
          -2.15348315e+00, -2.19408917e+00, -2.06158543e+00,
          -2.19302058e+00, -2.16523743e+00, -2.19088340e+00,
          -2.07761407e+00, -2.14386606e+00, -2.15989470e+00,
          -2.14920878e+00, -2.13638592e+00, -2.12035728e+00,
          -2.13745451e+00, -2.14920878e+00, -1.94617879e+00,
          -2.04341960e+00, -2.04769373e+00, -2.05196810e+00,
          -2.08509421e+00, -2.09577990e+00, -1.97503042e+00,
          -2.02632236e+00, -1.76238322e+00, -1.60637081e+00,
          -2.04021382e+00, -1.79123485e+00, -1.91091573e+00,
          -2.05089951e+00, -1.99853921e+00, -1.80085206e+00,
          -1.94831598e+00, -2.03487086e+00, -1.98785341e+00,
          -2.12142587e+00, -1.96007037e+00, -2.15241456e+00,
          -2.06479120e+00, -2.10005426e+00, -2.15241456e+00,
          -2.16523743e+00, -2.07013392e+00, -2.13318014e+00,
          -2.16630602e+00, -2.15989470e+00, -2.15241456e+00,
          -2.13318014e+00, -2.17912912e+00, -2.18767762e+00,
          -2.16951180e+00, -2.06372261e+00, -2.17806053e+00,
          -2.18126631e+00, -2.15455174e+00, -2.10326004e+00,
          6.15258074e+00, -1.14153898e+00, 1.94839740e+00,
          3.68919206e+00, 5.52852201e+00, 3.68919206e+00, 5.10153484e+00,
          5.03209352e-01, 4.64170218e+00, 5.39714146e+00,
          -1.59888232e+00, 6.05404520e+00, 3.68919206e+00,
          3.52496624e+00, 2.40447894e-01, 1.84986186e+00, 6.01744890e-01,
          3.06513357e+00, 6.02120018e+00, 4.51032162e+00, 3.78772759e+00,
          3.72203732e+00, 3.45927572e+00, 5.75843859e+00, 6.15258074e+00,
          2.93375278e+00, 4.93730879e+00, -2.23135669e-02,
          5.62705803e+00, 6.15258074e+00, 6.15258074e+00,
          -7.77752757e-01, 1.91555214e+00, 4.83877325e+00 ]
      - [ -1.84917605e+00, -2.12767124e+00, -2.41300058e+00,
          -2.37541223e+00, -2.41641760e+00, -2.18917942e+00,
          -2.43692040e+00, -2.37028646e+00, -2.44204593e+00,
          -2.25410461e+00, -2.28998423e+00, -2.39078927e+00,
          -2.37541223e+00, -2.30023575e+00, -2.31561279e+00,
          -2.40274930e+00, -2.38566351e+00, -2.07812309e+00,
          -2.06274605e+00, -2.10887694e+00, -2.15842533e+00,
          -2.17209363e+00, -2.20284772e+00, -2.10204291e+00,
          -2.30536127e+00, -1.69882286e+00, -1.44083047e+00,
          -1.83379900e+00, -1.68686295e+00, -1.62022924e+00,
          -2.10033417e+00, -1.90897560e+00, -1.88676441e+00,
          -2.14646530e+00, -2.20797348e+00, -1.77229095e+00,
          -2.27460718e+00, -1.92093551e+00, -2.27460718e+00,
          -2.00294638e+00, -2.27119017e+00, -2.42837763e+00,
          -2.40104055e+00, -2.27802444e+00, -2.27460718e+00,
          -2.34465814e+00, -2.33611536e+00, -2.27119017e+00,
          -2.32415557e+00, -2.39078927e+00, -2.41983485e+00,
          -2.37882924e+00, -2.23701906e+00, -2.36686945e+00,
          -2.39078927e+00, -2.36003518e+00, -2.22505903e+00,
          7.10196400e+00, -1.30365804e-01, 6.46250725e+00,
          6.61296797e+00, 5.93589592e+00, 2.70099783e+00, 1.68539011e+00,
          1.91108072e+00, 3.22760916e+00, 5.03313398e+00, 2.88907313e+00,
          2.21200156e+00, 3.11476374e+00, 4.69459772e+00, 5.18359423e+00,
          5.86066580e+00, 2.28723168e+00, 5.29643965e+00, 5.89828110e+00,
          3.26522422e+00, 7.10196400e+00, 5.59736013e+00, 3.45329976e+00,
          1.80786222e-01, 6.91388845e+00, 6.57535267e+00,
          -1.32381761e+00, 5.56937218e-01, 5.14597893e+00,
          7.10196400e+00, 3.18999410e+00, -1.32381761e+00,
          -1.95364743e-01, 7.82627761e-01 ]
      - [ -1.72282815e+00, -1.94677770e+00, -2.23366714e+00,
          -2.18536448e+00, -2.23805833e+00, -1.95409632e+00,
          -2.24391317e+00, -2.20146537e+00, -2.23220348e+00,
          -2.10632348e+00, -2.15609002e+00, -2.22195745e+00,
          -2.20292902e+00, -2.14145279e+00, -2.11656952e+00,
          -2.22488499e+00, -2.22195745e+00, -1.95409632e+00,
          -1.90725720e+00, -1.96287858e+00, -2.01118135e+00,
          -2.05655694e+00, -2.06387544e+00, -2.02435493e+00,
          -2.16487217e+00, -1.86773670e+00, -1.35982502e+00,
          -1.79894173e+00, -1.59548426e+00, -1.64525092e+00,
          -1.96141493e+00, -1.71697330e+00, -1.91164827e+00,
          -2.08144021e+00, -2.08583117e+00, -1.69648111e+00,
          -2.07704902e+00, -1.78576815e+00, -2.09754109e+00,
          -1.85017204e+00, -2.12827921e+00, -2.23659468e+00,
          -2.22634864e+00, -2.11071444e+00, -2.12388802e+00,
          -2.17365456e+00, -2.18536448e+00, -2.13413405e+00,
          -2.10339594e+00, -2.20146537e+00, -2.23952222e+00,
          -2.19561052e+00, -2.06973028e+00, -2.18097329e+00,
          -2.20146537e+00, -2.16779971e+00, -2.06094790e+00,
          6.41400385e+00, -6.44308403e-02, 3.95619035e+00,
          3.95619035e+00, 6.31159496e+00, 7.81514525e-01, 5.86782312e+00,
          1.66905832e+00, 2.86382866e+00, 5.66300535e+00, 5.18509722e+00,
          5.32164240e+00, 3.06864667e+00, 1.73733091e+00, 1.67061135e-01,
          6.17504978e+00, 6.41400385e+00, -8.57027829e-01,
          6.20918608e+00, -3.62035492e-03, -5.15664816e-01,
          1.77146721e+00, 6.14091349e+00, 1.08874118e+00, 4.19514465e+00,
          5.97023201e+00, -2.76710749e-01, -1.26666343e+00,
          5.86782312e+00, 6.41400385e+00, 3.06864667e+00, 2.04455757e+00,
          6.37986755e+00, 5.04855204e+00 ]
      - [ -2.01820946e+00, -2.10041571e+00, -2.27156663e+00,
          -2.22574687e+00, -2.26213312e+00, -2.14623570e+00,
          -2.27695727e+00, -2.25000429e+00, -2.26482844e+00,
          -2.17588401e+00, -2.20148921e+00, -2.23113728e+00,
          -2.24191856e+00, -2.19205570e+00, -2.22035623e+00,
          -2.25674272e+00, -2.24461389e+00, -1.90231204e+00,
          -2.01012349e+00, -2.12063050e+00, -2.11254454e+00,
          -2.15432167e+00, -2.17857909e+00, -2.05863881e+00,
          -2.09232998e+00, -1.54249072e+00, -1.30665290e+00,
          -2.02360010e+00, -1.80528152e+00, -1.82414854e+00,
          -2.10176349e+00, -1.74463749e+00, -1.81606269e+00,
          -2.00203776e+00, -2.03303361e+00, -1.86323023e+00,
          -2.15432167e+00, -1.95487010e+00, -2.17453623e+00,
          -2.03033829e+00, -2.14488816e+00, -2.25000429e+00,
          -2.23383260e+00, -2.13814998e+00, -2.16375518e+00,
          -2.20822740e+00, -2.22439909e+00, -2.19879389e+00,
          -2.17857909e+00, -2.21361804e+00, -2.27426195e+00,
          -2.19609857e+00, -2.16105986e+00, -2.20553207e+00,
          -2.24730921e+00, -2.18531752e+00, -2.15297389e+00,
          8.58775711e+00, -1.22309887e+00, 1.50363612e+00,
          -1.39829278e+00, 3.12530231e+00, 1.03420651e+00,
          -1.56899440e+00, 1.37560987e+00, 2.44249558e+00,
          2.48517084e+00, 2.69854808e+00, 6.32595921e+00, 8.54508114e+00,
          -2.29447675e+00, 2.95460057e+00, 2.78389883e+00,
          5.21639824e+00, 2.69854808e+00, 2.99727607e+00, 8.16100216e+00,
          2.66048819e-01, 7.69157267e+00, 7.64889717e+00, 3.97881079e+00,
          -2.03380853e-01, 7.86227465e+00, 8.07565117e+00,
          8.58775711e+00, 7.56354666e+00, -2.29447675e+00,
          1.93039036e+00, 8.03297615e+00, 1.88771498e+00, 2.48517084e+00 ]
      - [ -2.03387785e+00, -2.03807926e+00, -2.46242309e+00,
          -2.40780449e+00, -2.47712803e+00, -2.05488491e+00,
          -2.45822167e+00, -2.43721437e+00, -2.45612097e+00,
          -2.26705670e+00, -2.32797742e+00, -2.38679743e+00,
          -2.36579037e+00, -2.35948825e+00, -2.27545977e+00,
          -2.44561744e+00, -2.42881155e+00, -1.57592249e+00,
          -2.04858279e+00, -2.07799268e+00, -2.09689903e+00,
          -2.16832328e+00, -2.32587671e+00, -2.00236702e+00,
          -2.22924399e+00, -1.39526129e+00, -5.80184937e-01,
          -1.81750441e+00, -8.13363969e-01, -1.18729079e+00,
          -2.11580563e+00, -1.80279946e+00, -1.48559189e+00,
          -2.00656843e+00, -1.92674148e+00, -1.78179228e+00,
          -2.04858279e+00, -1.65154815e+00, -2.21874046e+00,
          -2.05488491e+00, -2.18512893e+00, -2.39309955e+00,
          -2.39730096e+00, -2.16412187e+00, -2.26075459e+00,
          -2.38049531e+00, -2.36368966e+00, -2.29856753e+00,
          -2.24394894e+00, -2.33217883e+00, -2.44561744e+00,
          -2.32377601e+00, -2.15571904e+00, -2.39309955e+00,
          -2.46872520e+00, -2.32797742e+00, -2.17462540e+00,
          8.00752640e+00, 1.22159058e-02, 7.92506313e+00, 6.02840853e+00,
          2.97212511e-01, -2.21791673e+00, 3.55451083e+00,
          -1.15103729e-01, 3.79675776e-01, 4.42037487e+00,
          2.31756210e+00, 1.61662447e+00, 7.34782028e+00, 3.34835291e+00,
          1.57539296e+00, 1.45169806e+00, 4.04929066e+00, 6.23456669e+00,
          1.16307664e+00, 5.98717690e+00, 7.05919886e+00, 2.68864679e+00,
          7.92506313e+00, 4.99761772e+00, 7.26535702e+00,
          -5.68651617e-01, -4.44956720e-01, 7.26535702e+00,
          -2.30037975e+00, 9.98150170e-01, 7.34782028e+00,
          8.00752640e+00, 6.48195648e+00, 2.97212511e-01 ]
      - [ -1.68808532e+00, -1.93628359e+00, -2.45918679e+00,
          -2.35556984e+00, -2.46882558e+00, -2.02303243e+00,
          -2.45436740e+00, -2.43749952e+00, -2.46400619e+00,
          -2.20134974e+00, -2.20134974e+00, -2.35797954e+00,
          -2.35316038e+00, -2.29532766e+00, -2.25436282e+00,
          -2.38689590e+00, -2.41581225e+00, -1.64712059e+00,
          -1.99411619e+00, -1.87845099e+00, -2.05435848e+00,
          -1.91700602e+00, -2.17725277e+00, -1.92423511e+00,
          -2.09532332e+00, -9.48309958e-01, -5.60349584e-01,
          -1.56760073e+00, -1.29048622e+00, -1.42301929e+00,
          -1.92905450e+00, -1.66639817e+00, -1.32181215e+00,
          -1.95556116e+00, -2.07363605e+00, -1.74832761e+00,
          -2.10978150e+00, -1.94592237e+00, -2.20375943e+00,
          -2.07363605e+00, -2.13628793e+00, -2.42786074e+00,
          -2.41581225e+00, -2.25436282e+00, -2.22544670e+00,
          -2.34834099e+00, -2.34834099e+00, -2.34111190e+00,
          -2.33870220e+00, -2.40617347e+00, -2.47123528e+00,
          -2.34593129e+00, -2.04471970e+00, -2.38689590e+00,
          -2.42545104e+00, -2.39653468e+00, -2.07604575e+00,
          9.76517963e+00, 2.49306828e-01, -8.18008840e-01,
          6.74141169e+00, 3.51605868e+00, 2.00417471e+00, 1.34902501e+00,
          8.60606861e+00, 4.72556591e+00, 7.64854193e+00, 5.27992344e+00,
          -1.06998956e+00, 9.76517963e+00, -1.97711992e+00,
          -5.15632033e-01, 8.60606861e+00, 2.60892844e+00,
          -1.72513926e+00, 7.59814596e+00, 6.89260006e+00,
          7.29576874e+00, -2.53147745e+00, -2.22910070e+00,
          2.86090899e+00, 8.45487976e+00, 9.61399078e+00, 2.25615549e+00,
          1.95377862e+00, -1.47315860e+00, 3.66724730e+00,
          1.55060947e+00, -1.92672384e+00, 1.39942110e+00,
          8.50527573e+00 ]
      - [ -1.34618163e+00, -2.04816031e+00, -2.50632191e+00,
          -2.32948756e+00, -2.42594266e+00, -2.02940512e+00,
          -2.47149086e+00, -2.35895991e+00, -2.42326331e+00,
          -2.15265322e+00, -2.31877041e+00, -2.36967731e+00,
          -2.35360146e+00, -2.26250482e+00, -2.14193606e+00,
          -2.37503576e+00, -2.30269456e+00, -1.82577777e+00,
          -1.91955352e+00, -2.03744316e+00, -2.14461541e+00,
          -2.11246371e+00, -2.18480492e+00, -1.94366729e+00,
          -2.14461541e+00, -1.43727815e+00, -9.57682073e-01,
          -1.72128475e+00, -1.28991628e+00, -1.68109512e+00,
          -1.92759144e+00, -1.52837467e+00, -1.51497805e+00,
          -1.84453297e+00, -2.11246371e+00, -1.48818505e+00,
          -2.17676711e+00, -1.87668467e+00, -2.29733586e+00,
          -1.76415372e+00, -2.15533257e+00, -2.36431861e+00,
          -2.34824276e+00, -2.12853956e+00, -2.34288406e+00,
          -2.35895991e+00, -2.36431861e+00, -2.24910831e+00,
          -2.29465652e+00, -2.39111161e+00, -2.41522551e+00,
          -2.33216691e+00, -2.18748426e+00, -2.40986681e+00,
          -2.41522551e+00, -2.32412910e+00, -2.25714636e+00,
          1.07991199e+01, 1.66803944e+00, -2.13346100e+00,
          6.20833397e+00, 6.09813809e-01, 1.06871500e+01, 7.49599361e+00,
          9.00759411e+00, 2.28936982e+00, 7.66394901e+00, 1.78550303e+00,
          -2.07747579e+00, 3.57702947e+00, -2.58134246e+00,
          7.66394901e+00, 2.73902625e-01, -7.89816141e-01,
          3.68899989e+00, 9.11956406e+00, 4.24885178e+00,
          -9.01786566e-01, -2.13346100e+00, 2.51331067e+00,
          7.71993399e+00, 3.74498510e+00, 9.45725024e-01, 1.07991199e+01,
          1.07991199e+01, 4.41858232e-01, 1.95345867e+00,
          -1.68557930e+00, -2.13346100e+00, 8.39175701e+00,
          -1.73978955e-01 ]
      - [ -1.86630356e+00, -1.99329400e+00, -2.37921262e+00,
          -2.31819129e+00, -2.36436963e+00, -2.01308465e+00,
          -2.35282493e+00, -2.31819129e+00, -2.34787726e+00,
          -2.14007497e+00, -2.30334830e+00, -2.32808661e+00,
          -2.30334830e+00, -2.23243165e+00, -2.22088695e+00,
          -2.29180360e+00, -2.30334830e+00, -1.85805750e+00,
          -2.02297997e+00, -2.12193346e+00, -2.14502263e+00,
          -2.18955183e+00, -2.17635798e+00, -1.84486365e+00,
          -1.95866024e+00, -1.42101288e+00, -1.36164081e+00,
          -1.92072809e+00, -1.62386751e+00, -1.71457493e+00,
          -2.12523198e+00, -1.81023002e+00, -1.32865632e+00,
          -1.73436558e+00, -1.98010015e+00, -1.77889466e+00,
          -2.22583461e+00, -2.00648785e+00, -2.25716996e+00,
          -2.03287530e+00, -2.09884429e+00, -2.28850532e+00,
          -2.28025913e+00, -2.14007497e+00, -2.24562526e+00,
          -2.33138514e+00, -2.30499744e+00, -2.27366209e+00,
          -2.22748399e+00, -2.31654215e+00, -2.37756348e+00,
          -2.32478809e+00, -2.13677645e+00, -2.35117579e+00,
          -2.34622812e+00, -2.32313895e+00, -2.13347816e+00,
          5.50903034e+00, -4.21582550e-01, 9.98238444e-01,
          3.23808002e+00, 5.04239655e+00, 4.23356533e+00, 5.50903034e+00,
          1.09156513e+00, 2.27370381e+00, 4.79352570e+00, 1.90039682e+00,
          5.50903034e+00, 3.45584226e+00, 3.51806021e+00, 8.11585009e-01,
          5.41570377e+00, 4.98017883e+00, 2.77144623e+00, 5.50903034e+00,
          4.26467419e+00, 5.26015902e+00, 4.63798094e+00, 3.17586207e+00,
          6.56040430e-01, 5.35348606e+00, 5.38459492e+00, 1.52708995e+00,
          5.31604826e-01, 4.94906998e+00, 3.51806021e+00, 4.51354551e+00,
          1.02934730e+00, 5.01128769e+00, 4.26467419e+00 ]
      - [ -1.84757102e+00, -2.23158979e+00, -2.82264447e+00,
          -2.68239427e+00, -2.86605549e+00, -2.37517929e+00,
          -2.86605549e+00, -2.75585866e+00, -2.81596589e+00,
          -2.29837561e+00, -2.54882264e+00, -2.73582292e+00,
          -2.65901923e+00, -2.52878690e+00, -2.59891200e+00,
          -2.74584079e+00, -2.65567994e+00, -1.41680229e+00,
          -2.04792857e+00, -2.10135722e+00, -2.14142895e+00,
          -2.24160767e+00, -2.38519716e+00, -1.98782134e+00,
          -2.16480398e+00, -6.98854327e-01, -1.51210278e-01,
          -1.39008796e+00, -4.01657254e-01, -6.98854327e-01,
          -1.97112489e+00, -1.96778560e+00, -8.15729558e-01,
          -1.63385630e+00, -1.85758889e+00, -1.56707048e+00,
          -2.23826838e+00, -1.68728495e+00, -2.39855433e+00,
          -2.18150043e+00, -2.40857220e+00, -2.75585866e+00,
          -2.68573356e+00, -2.46534014e+00, -2.55216193e+00,
          -2.66569781e+00, -2.71912646e+00, -2.69241214e+00,
          -2.57887626e+00, -2.81262660e+00, -2.84268045e+00,
          -2.71578717e+00, -2.43862581e+00, -2.83266258e+00,
          -2.82932329e+00, -2.78257298e+00, -2.42526865e+00,
          9.74645424e+00, 6.40202165e-01, -2.73735285e+00,
          5.95582438e+00, 4.99553156e+00, 9.24103642e+00, 5.75365734e+00,
          9.13995266e+00, 2.77169538e+00, 8.12911892e+00, 1.94067284e-01,
          6.51178312e+00, -2.60808259e-01, -1.72651839e+00,
          4.69228125e+00, 6.30961657e+00, 6.99484587e-01,
          -8.09962396e-03, 5.09661484e+00, 1.86194432e+00,
          3.07494569e+00, -1.72651839e+00, -1.97922707e+00,
          3.12548757e+00, 9.74645424e+00, -2.13085222e+00,
          7.42153454e+00, 7.32045078e+00, -1.59724802e-01,
          2.11465287e+00, 6.76449203e+00, 6.81503344e+00, 3.88361335e+00,
          6.10744953e+00 ]
      - [ -2.17057157e+00, -2.36069131e+00, -2.63229108e+00,
          -2.53949451e+00, -2.65492439e+00, -2.53270459e+00,
          -2.64134431e+00, -2.57797122e+00, -2.65266109e+00,
          -2.52138782e+00, -2.58023453e+00, -2.54628444e+00,
          -2.54854774e+00, -2.56665444e+00, -2.49422789e+00,
          -2.58023453e+00, -2.57797122e+00, -1.82201862e+00,
          -2.34937477e+00, -2.20904827e+00, -2.38106132e+00,
          -2.29731822e+00, -2.45575118e+00, -1.88539195e+00,
          -2.36521792e+00, -1.70885217e+00, -6.85826659e-01,
          -1.90576196e+00, -1.69300878e+00, -1.86502194e+00,
          -2.10493493e+00, -1.53910232e+00, -1.60926557e+00,
          -2.10946178e+00, -2.01213837e+00, -2.05514169e+00,
          -2.30410814e+00, -2.13209486e+00, -2.39237809e+00,
          -2.31089807e+00, -2.09361839e+00, -2.56212783e+00,
          -2.54854774e+00, -2.52591443e+00, -2.56665444e+00,
          -2.55307460e+00, -2.58023453e+00, -2.52138782e+00,
          -2.46480465e+00, -2.51007128e+00, -2.62097430e+00,
          -2.52817774e+00, -2.47385788e+00, -2.57570791e+00,
          -2.61192107e+00, -2.51686120e+00, -2.49196458e+00,
          1.23803816e+01, -7.89939880e-01, -2.63060951e+00,
          9.65661335e+00, -1.05687654e+00, 1.23803816e+01,
          6.38809061e+00, 5.66175270e+00, 9.31590497e-02, 1.12908745e+01,
          9.40553725e-01, -2.63060951e+00, 1.78794837e+00,
          2.27217388e+00, 6.32756233e+00, 6.20650625e+00,
          -7.54235625e-01, 1.18266642e+00, 4.75382948e+00,
          1.12213826e+00, -2.08585572e+00, 5.54069614e+00,
          2.27217388e+00, 6.75125980e+00, -2.63060951e+00,
          1.60636377e+00, 1.15935154e+01, 7.35654163e+00, 6.87231636e+00,
          1.18266642e+00, -5.12122869e-01, 5.05647039e+00,
          7.05390072e+00, 7.47759819e+00 ]
      - [ -1.88937616e+00, -2.13405704e+00, -2.43075657e+00,
          -2.40378380e+00, -2.39415073e+00, -2.05506563e+00,
          -2.43653631e+00, -2.39222407e+00, -2.42497659e+00,
          -2.27084708e+00, -2.26892042e+00, -2.36910462e+00,
          -2.34020543e+00, -2.24002099e+00, -2.27084708e+00,
          -2.40185714e+00, -2.41727018e+00, -2.14561677e+00,
          -2.19185567e+00, -1.98185396e+00, -2.00690007e+00,
          -2.05699205e+00, -2.18222237e+00, -2.01267982e+00,
          -2.08974481e+00, -1.20542586e+00, -1.89515603e+00,
          -1.96644104e+00, -8.50927770e-01, -1.24588490e+00,
          -1.87588978e+00, -1.90864241e+00, -6.19733334e-01,
          -1.84506392e+00, -2.18414903e+00, -2.17258930e+00,
          -2.08396482e+00, -1.84313726e+00, -2.15139651e+00,
          -2.18222237e+00, -2.13213038e+00, -2.39029741e+00,
          -2.37873769e+00, -2.24965429e+00, -2.30745292e+00,
          -2.40956378e+00, -2.38837075e+00, -2.29203987e+00,
          -2.28433347e+00, -2.37295794e+00, -2.45194936e+00,
          -2.37103128e+00, -2.18414903e+00, -2.42304993e+00,
          -2.42882991e+00, -2.39993048e+00, -2.07433176e+00,
          8.40262985e+00, -6.08173609e-01, 1.27754200e+00,
          4.22144079e+00, 1.25581697e-01, 8.40262985e+00, 1.25581697e-01,
          6.35470057e+00, 1.23487687e+00, 5.62939215e+00, 5.67205763e+00,
          8.08224857e-01, 8.35996532e+00, -7.70387471e-01,
          8.40262985e+00, 8.06130886e+00, -1.11170900e+00,
          2.30150676e+00, 6.69602203e+00, 7.84798241e+00, 2.94148469e+00,
          6.80229247e-01, -6.42391860e-01, -7.27722287e-01,
          2.77082396e+00, 5.67205763e+00, 7.54932642e+00, 8.40262985e+00,
          -1.06904387e+00, 1.27754200e+00, 1.02155089e+00,
          3.41080189e+00, 5.88538361e+00, 2.77082396e+00 ]
      - [ -1.72683430e+00, -2.29436588e+00, -2.44534397e+00,
          -2.30164194e+00, -2.42715383e+00, -2.31255603e+00,
          -2.42169666e+00, -2.27253771e+00, -2.35803127e+00,
          -2.28527093e+00, -2.40532565e+00, -2.39077353e+00,
          -2.37622142e+00, -2.43261075e+00, -2.38531661e+00,
          -2.35257435e+00, -2.29072785e+00, -1.99422908e+00,
          -2.30709910e+00, -2.21432948e+00, -2.26708078e+00,
          -2.20341539e+00, -2.37622142e+00, -2.14156890e+00,
          -2.18158722e+00, -1.68499708e+00, -1.71046317e+00,
          -1.98513401e+00, -1.90873551e+00, -2.07244658e+00,
          -2.11428380e+00, -1.86871719e+00, -1.85780311e+00,
          -1.97421992e+00, -2.09609365e+00, -2.08336067e+00,
          -2.30527997e+00, -2.14338803e+00, -2.29072785e+00,
          -2.21796751e+00, -2.27071881e+00, -2.33802223e+00,
          -2.23615766e+00, -2.27617574e+00, -2.39623070e+00,
          -2.34529829e+00, -2.33256507e+00, -2.41805863e+00,
          -2.35621238e+00, -2.26708078e+00, -2.32892728e+00,
          -2.23615766e+00, -2.35621238e+00, -2.29072785e+00,
          -2.34893632e+00, -2.28345180e+00, -2.33802223e+00,
          8.55058098e+00, 4.12323356e-01, 3.36400628e+00, 2.49231315e+00,
          2.88457513e+00, 4.84588480e+00, 9.51564834e-02,
          -1.16879880e+00, 4.27928448e+00, 2.05646634e+00,
          7.19945669e+00, 8.55058098e+00, 5.19456244e+00, 5.19456244e+00,
          6.45851755e+00, 1.48986578e+00, 5.76116276e+00,
          -2.04049206e+00, 6.45851755e+00, -1.60464537e+00,
          7.19945669e+00, -9.07290816e-01, 8.11473465e+00,
          1.88212776e+00, 1.88212776e+00, 7.06870270e+00, 4.88946962e+00,
          1.44628108e+00, 2.31797433e+00, 8.24548912e+00, 1.18477309e+00,
          -6.02198124e-01, 7.54813433e+00, 6.15342474e+00 ]
      - [ -1.80947530e+00, -1.98171747e+00, -2.08547783e+00,
          -2.04916167e+00, -2.08132744e+00, -1.98586798e+00,
          -2.08859062e+00, -2.04916167e+00, -2.08340263e+00,
          -2.01492071e+00, -2.06265068e+00, -2.05123687e+00,
          -2.06265068e+00, -2.07613945e+00, -2.05850029e+00,
          -2.04708648e+00, -2.04086089e+00, -1.83022738e+00,
          -1.96304059e+00, -1.98275506e+00, -1.98483026e+00,
          -2.00869513e+00, -2.06368828e+00, -1.91219807e+00,
          -1.89767158e+00, -1.67251158e+00, -1.65798509e+00,
          -1.88003230e+00, -1.80843759e+00, -1.80428720e+00,
          -1.97549188e+00, -1.78664792e+00, -1.72439170e+00,
          -1.83749056e+00, -1.89352119e+00, -1.87484431e+00,
          -2.00869513e+00, -1.85616744e+00, -1.99935675e+00,
          -1.96615350e+00, -1.98067987e+00, -2.02114654e+00,
          -2.01699615e+00, -1.98275506e+00, -2.03671050e+00,
          -2.04397368e+00, -2.05331206e+00, -2.04604888e+00,
          -2.02944732e+00, -2.00661993e+00, -2.06991386e+00,
          -2.00039434e+00, -2.01699615e+00, -2.03048491e+00,
          -2.07717705e+00, -2.02529693e+00, -2.03256011e+00,
          5.76088333e+00, -8.00924242e-01, 3.68214178e+00,
          5.32651901e+00, 4.89215517e+00, -1.40612102e+00,
          4.79907751e+00, 5.35754538e+00, 3.65111566e+00,
          -9.95137356e-03, 4.17855740e+00, 8.89802396e-01,
          4.67497349e+00, -2.89185315e-01, 5.07831144e+00,
          4.70599937e+00, 7.96724439e-01, 3.21675181e+00, 5.63677931e+00,
          5.66780519e+00, 5.54370117e+00, 4.55086946e+00, 2.78238797e+00,
          5.51267529e+00, 5.76088333e+00, 5.54370117e+00,
          -1.65081337e-01, 7.96724439e-01, 2.65828395e+00,
          5.41959715e+00, 8.31266046e-02, -1.15791309e+00,
          4.79907751e+00, 4.55086946e+00 ]
      - [ -1.90804839e+00, -2.20750332e+00, -3.16311646e+00,
          -2.96935153e+00, -3.15430903e+00, -2.02254581e+00,
          -3.11027145e+00, -3.07944512e+00, -3.01779270e+00,
          -2.42769051e+00, -2.78439403e+00, -2.92971778e+00,
          -2.95614028e+00, -2.68751168e+00, -2.50255442e+00,
          -3.03981161e+00, -2.98256278e+00, -1.11977756e+00,
          -2.21190691e+00, -2.07098699e+00, -2.33521199e+00,
          -2.22071457e+00, -2.48493934e+00, -1.20785260e+00,
          -2.34842324e+00, 5.16192131e-02, 1.79327890e-01,
          -1.60859358e+00, -3.27103078e-01, -4.68022972e-01,
          -2.19869566e+00, -5.51694214e-01, 2.45384097e-01,
          -1.91245210e+00, -1.96529710e+00, -2.02694964e+00,
          -2.34842324e+00, -2.00493073e+00, -2.39686441e+00,
          -2.03575706e+00, -1.69666851e+00, -2.96494770e+00,
          -2.89008403e+00, -2.44970942e+00, -2.79760528e+00,
          -3.10586762e+00, -3.05742645e+00, -2.83723903e+00,
          -2.48053551e+00, -3.07944512e+00, -3.07504153e+00,
          -2.96054411e+00, -2.20750332e+00, -3.06183028e+00,
          -3.10586762e+00, -3.06623387e+00, -2.44970942e+00,
          1.09464903e+01, 1.51366341e+00, 2.40744519e+00, 2.75362253e+00,
          -1.31190002e-01, 3.90754771e+00, 1.19582379e+00,
          1.05426168e+01, 8.75403309e+00, 8.49646270e-01, 5.92691660e+00,
          -1.05432999e+00, 9.67717266e+00, -2.72752142e+00,
          6.33079004e+00, 5.58073902e+00, -1.11202633e+00,
          1.83048260e+00, 8.29246235e+00, 7.65780401e+00, 3.84985137e+00,
          -3.18909144e+00, 9.07342553e-01, 6.85005665e+00,
          8.86942577e+00, 5.52304268e+00, 8.92712116e+00, 1.09464903e+01,
          1.36891258e+00, 1.57291248e-01, 1.36891258e+00, 1.83048260e+00,
          1.71509004e+00, -2.66982508e+00 ]
      - [ -2.03375983e+00, -2.17419314e+00, -2.56086540e+00,
          -2.52816176e+00, -2.56086540e+00, -2.25114298e+00,
          -2.57240796e+00, -2.50122952e+00, -2.53778052e+00,
          -2.33578753e+00, -2.41081357e+00, -2.53008556e+00,
          -2.49161077e+00, -2.45121217e+00, -2.39542365e+00,
          -2.48391581e+00, -2.47429705e+00, -1.79906332e+00,
          -2.31270266e+00, -2.22805786e+00, -2.26845646e+00,
          -2.29538894e+00, -2.40696597e+00, -2.05492115e+00,
          -1.98374259e+00, -9.71853793e-01, -1.39122975e+00,
          -2.20882058e+00, -1.55667162e+00, -1.62207890e+00,
          -2.30308390e+00, -1.79136837e+00, -1.08343089e+00,
          -1.78559709e+00, -2.11455703e+00, -2.17996430e+00,
          -2.37041497e+00, -2.07223487e+00, -2.36079621e+00,
          -2.33386374e+00, -2.25306654e+00, -2.46660209e+00,
          -2.44351721e+00, -2.31077886e+00, -2.45121217e+00,
          -2.52431440e+00, -2.54162812e+00, -2.49161077e+00,
          -2.44736457e+00, -2.53008556e+00, -2.54932308e+00,
          -2.47814465e+00, -2.29154158e+00, -2.54355192e+00,
          -2.56471300e+00, -2.52623820e+00, -2.33771133e+00,
          7.89083004e+00, -6.54436231e-01, -7.13302732e-01,
          6.73812342e+00, 1.42743838e+00, 3.07416248e+00, 6.24410629e+00,
          5.99709749e+00, 7.84966183e+00, 5.62658453e+00, 2.78598571e+00,
          2.33563542e-01, 1.22159791e+00, 4.59738207e+00, 1.71561515e+00,
          5.79125690e+00, 7.89083004e+00, 2.82715392e+00, 2.41547275e+00,
          5.66775274e+00, 2.95065808e+00, 7.56148529e+00, 3.23883486e+00,
          -5.07462263e-01, 4.55621386e+00, 7.47914886e+00,
          -3.83957952e-01, 8.92253101e-01, 3.28000283e+00,
          7.23214054e+00, -3.42789859e-01, 5.25607157e+00,
          2.58014512e+00, 6.12060165e+00 ]
      - [ -1.51082039e+00, -2.09350348e+00, -2.49338412e+00,
          -2.41112304e+00, -2.50709438e+00, -2.19404483e+00,
          -2.55736494e+00, -2.30601144e+00, -2.50709438e+00,
          -2.22146535e+00, -2.41340804e+00, -2.42026305e+00,
          -2.42026305e+00, -2.41797805e+00, -2.36313725e+00,
          -2.37456250e+00, -2.28773117e+00, -1.61821687e+00,
          -2.08436346e+00, -2.16205454e+00, -2.25574088e+00,
          -2.18947482e+00, -2.28087616e+00, -2.11635375e+00,
          -2.12549400e+00, -1.24347162e+00, -1.04924393e+00,
          -1.81472957e+00, -1.74617863e+00, -1.66848755e+00,
          -2.04551792e+00, -1.71647322e+00, -1.71418822e+00,
          -1.85814524e+00, -1.94269145e+00, -1.67762768e+00,
          -2.22146535e+00, -2.10721374e+00, -2.25117064e+00,
          -1.95411658e+00, -2.27402115e+00, -2.40655279e+00,
          -2.25574088e+00, -2.15748453e+00, -2.41112304e+00,
          -2.41112304e+00, -2.39284277e+00, -2.38370252e+00,
          -2.31286669e+00, -2.45453858e+00, -2.42026305e+00,
          -2.37913251e+00, -2.23289037e+00, -2.45453858e+00,
          -2.47053385e+00, -2.48424411e+00, -2.34257197e+00,
          7.48078060e+00, 7.37651169e-01, 4.82949829e+00, 3.36535740e+00,
          4.75035572e+00, 1.18893158e+00, 5.81878281e+00, 2.37607288e+00,
          7.08506680e+00, 8.32789183e-01, 2.01993060e+00, 6.84763861e+00,
          7.48078060e+00, -5.12637734e-01, -2.21420693e+00,
          4.86906958e+00, -1.10620832e+00, 8.72360528e-01,
          7.24335241e+00, 3.64235711e+00, 3.99849939e+00,
          -6.70923233e-01, 4.82949829e+00, 4.78992701e+00,
          4.39421320e+00, 5.06692648e+00, 6.05621099e+00, 7.16420984e+00,
          -4.73066330e-01, 1.99647099e-01, 6.37278223e+00,
          1.07021737e+00, 7.44120932e+00, 5.73964024e+00 ]
      - [ -1.82914448e+00, -2.01916504e+00, -2.61422920e+00,
          -2.49671650e+00, -2.56422377e+00, -2.08917260e+00,
          -2.65673375e+00, -2.58672619e+00, -2.61422920e+00,
          -2.24168897e+00, -2.41420770e+00, -2.50671768e+00,
          -2.49671650e+00, -2.44921136e+00, -2.35920167e+00,
          -2.57922530e+00, -2.57922530e+00, -1.53911316e+00,
          -2.10917473e+00, -2.08167171e+00, -2.20168471e+00,
          -2.23168802e+00, -2.41920805e+00, -1.90165234e+00,
          -2.30169559e+00, -1.23408031e+00, -9.19046283e-01,
          -1.90915310e+00, -9.34047878e-01, -1.17907429e+00,
          -2.12667656e+00, -1.72413313e+00, -1.09906566e+00,
          -2.08667231e+00, -1.81914341e+00, -1.75413644e+00,
          -2.14417839e+00, -1.83664525e+00, -2.23168802e+00,
          -2.12667656e+00, -2.10667443e+00, -2.57172465e+00,
          -2.54922223e+00, -2.10417414e+00, -2.35420108e+00,
          -2.50421739e+00, -2.53922105e+00, -2.41170740e+00,
          -2.36920285e+00, -2.59172678e+00, -2.63673162e+00,
          -2.57422495e+00, -2.23668838e+00, -2.54422164e+00,
          -2.62423038e+00, -2.55922318e+00, -2.29169440e+00,
          8.05942249e+00, 2.53580272e-01, 6.03661585e+00, 5.06735468e+00,
          5.32020521e+00, 6.50017595e+00, 7.89085531e+00, 6.24732494e+00,
          3.71881700e+00, 7.21658659e+00, 3.84524226e+00, 6.62660122e+00,
          -1.50676656e+00, -1.46462476e+00, 1.86457765e+00,
          8.01728058e+00, 2.62313008e+00, 4.64593649e+00, 2.91812277e+00,
          1.48530138e+00, 4.94092941e+00, -1.80175912e+00,
          3.67667508e+00, 6.42465353e-01, 5.15163803e+00, 7.55372095e+00,
          -1.54890835e+00, 1.31673419e+00, 6.71088505e+00,
          8.05942249e+00, 3.80310059e+00, 2.63189137e-01,
          -8.74639511e-01, 1.31673419e+00 ]
      - [ -1.93461752e+00, -2.18021965e+00, -2.52868080e+00,
          -2.48669744e+00, -2.52448249e+00, -2.17392206e+00,
          -2.54547405e+00, -2.50768900e+00, -2.53287911e+00,
          -2.21800447e+00, -2.42162347e+00, -2.44891262e+00,
          -2.46150756e+00, -2.36914420e+00, -2.27678108e+00,
          -2.52658153e+00, -2.46570587e+00, -1.74779201e+00,
          -2.01018739e+00, -2.20540953e+00, -2.23269868e+00,
          -2.18441796e+00, -2.18021965e+00, -1.87164271e+00,
          -2.31456614e+00, -1.51478493e+00, -6.05847299e-01,
          -1.80027115e+00, -1.63443720e+00, -1.68691635e+00,
          -1.96400583e+00, -1.49589241e+00, -1.51478493e+00,
          -2.15922809e+00, -1.98709667e+00, -1.59245396e+00,
          -2.29777265e+00, -1.94931173e+00, -2.27678108e+00,
          -1.91782427e+00, -2.15502977e+00, -2.46570587e+00,
          -2.45940828e+00, -2.21800447e+00, -2.33975601e+00,
          -2.44261503e+00, -2.43211913e+00, -2.28097939e+00,
          -2.22640133e+00, -2.44051576e+00, -2.55596972e+00,
          -2.38803673e+00, -2.25159121e+00, -2.45940828e+00,
          -2.52028394e+00, -2.39853263e+00, -2.25998783e+00,
          6.99102402e+00, -2.57386237e-01, 2.61564088e+00,
          3.29457951e+00, 6.76471090e+00, 6.50067902e+00, 6.57611704e+00,
          6.95330524e+00, 1.97442079e+00, 3.10598540e+00,
          -2.13270754e-01, 2.20073366e+00, 6.54262125e-01,
          4.16211224e+00, 3.33229828e+00, -2.13270754e-01,
          4.72789478e+00, -1.68430471e+00, -1.11852241e+00,
          3.25686073e+00, 4.31298780e+00, 2.84195375e+00, 4.16211224e+00,
          5.70858383e+00, -7.03615427e-01, 5.97261572e+00,
          5.21823931e+00, 5.82174063e+00, 6.99102402e+00, 5.97261572e+00,
          3.70948648e+00, 4.80333233e+00, 2.72879720e+00, 6.87786722e+00 ]
      - [ -1.94003057e+00, -2.23335123e+00, -2.57920671e+00,
          -2.50916004e+00, -2.55512810e+00, -2.29245305e+00,
          -2.58139563e+00, -2.49821520e+00, -2.53323865e+00,
          -2.24429584e+00, -2.42160153e+00, -2.47632551e+00,
          -2.48070359e+00, -2.44568014e+00, -2.37125564e+00,
          -2.51353788e+00, -2.45005822e+00, -1.55477381e+00,
          -2.12390327e+00, -2.14579272e+00, -2.30558681e+00,
          -2.21802855e+00, -2.32309842e+00, -1.93565273e+00,
          -2.05166745e+00, -1.00096703e+00, -1.16732800e+00,
          -2.01664424e+00, -1.52412832e+00, -1.60074186e+00,
          -2.12609220e+00, -2.11733627e+00, -1.14981627e+00,
          -1.89625144e+00, -1.81744885e+00, -1.99694359e+00,
          -2.29464197e+00, -2.08669090e+00, -2.31215358e+00,
          -2.30120897e+00, -2.17206025e+00, -2.48727036e+00,
          -2.46538091e+00, -2.27056336e+00, -2.38001132e+00,
          -2.49821520e+00, -2.51353788e+00, -2.41065693e+00,
          -2.39752316e+00, -2.52229381e+00, -2.55075026e+00,
          -2.51353788e+00, -2.34717703e+00, -2.54856133e+00,
          -2.53761649e+00, -2.53542757e+00, -2.34498811e+00,
          9.24555111e+00, -7.07646549e-01, 5.28718328e+00,
          -2.07072425e+00, 2.21362686e+00, 8.59358501e+00,
          2.81902432e+00, 8.08132553e+00, 8.22103214e+00, 1.18910813e+00,
          -1.65160298e+00, 1.60822952e+00, 9.24555111e+00,
          -1.74474108e+00, 2.48822551e-02, -1.27905071e+00,
          -6.82558194e-02, 5.42689037e+00, 2.44647217e+00,
          4.58864784e+00, 4.40237141e+00, 3.93668127e+00, 5.28718328e+00,
          9.19898224e+00, 3.50865513e-01, 7.01023769e+00, 6.76848769e-01,
          1.60822952e+00, 6.03228807e+00, 6.35827112e+00, 2.16705799e+00,
          6.91709948e+00, 2.95873141e+00, 8.31417084e+00 ]
      - [ -1.98803461e+00, -2.11527634e+00, -2.29023385e+00,
          -2.25263977e+00, -2.32927394e+00, -2.17600536e+00,
          -2.30613899e+00, -2.29457164e+00, -2.31770658e+00,
          -2.23095083e+00, -2.24107218e+00, -2.25986934e+00,
          -2.25553155e+00, -2.26565313e+00, -2.27432871e+00,
          -2.29023385e+00, -2.30469322e+00, -1.83476603e+00,
          -2.13985729e+00, -2.06466889e+00, -2.12250614e+00,
          -2.17455959e+00, -2.23384261e+00, -2.06177711e+00,
          -2.16299200e+00, -1.50220227e+00, -1.42990577e+00,
          -2.08924961e+00, -1.66559231e+00, -1.75813174e+00,
          -2.11527634e+00, -1.85645497e+00, -1.84199572e+00,
          -1.94610262e+00, -2.02562881e+00, -2.04731774e+00,
          -2.18323517e+00, -1.87958992e+00, -2.21649146e+00,
          -2.09647942e+00, -2.15576243e+00, -2.26999092e+00,
          -2.26565313e+00, -2.16010022e+00, -2.21649146e+00,
          -2.24107218e+00, -2.28155828e+00, -2.27866650e+00,
          -2.27288270e+00, -2.19480252e+00, -2.31915236e+00,
          -2.17311358e+00, -2.14130306e+00, -2.21938324e+00,
          -2.28011227e+00, -2.21649146e+00, -2.18901873e+00,
          7.20807695e+00, -5.59456229e-01, 3.29041332e-01,
          4.94068527e+00, 3.44190121e+00, -1.16974306e+00,
          4.21050835e+00, 7.20807695e+00, 4.94068527e+00, 4.01835680e+00,
          4.94068527e+00, 6.20888758e+00, -2.28422379e+00,
          7.05435562e+00, 6.70848227e+00, 6.47790003e+00, 5.59400177e+00,
          5.59400177e+00, 2.82701516e+00, 2.05840778e+00, 6.63162184e+00,
          -1.47718596e+00, 4.67167282e+00, 4.44332451e-01,
          4.36423016e+00, 6.90063429e+00, 4.24893904e+00,
          -4.39566016e-01, 1.28980052e+00, 6.32417870e+00,
          2.71172404e+00, 2.13526869e+00, 2.75015450e+00, 1.21293974e+00 ]
      - [ -1.92276835e+00, -2.09559679e+00, -2.19048285e+00,
          -2.16111326e+00, -2.18935323e+00, -2.10576296e+00,
          -2.18596435e+00, -2.16337252e+00, -2.17805719e+00,
          -2.12948465e+00, -2.17353892e+00, -2.15998363e+00,
          -2.16224289e+00, -2.17918682e+00, -2.14755821e+00,
          -2.15433574e+00, -2.13513255e+00, -1.91034281e+00,
          -2.07526398e+00, -2.07300472e+00, -2.07526398e+00,
          -2.09333754e+00, -2.14529896e+00, -1.98037779e+00,
          -1.96682262e+00, -1.70249689e+00, -1.69684887e+00,
          -1.96908188e+00, -1.89452839e+00, -1.84821498e+00,
          -2.06396794e+00, -1.86967731e+00, -1.76575434e+00,
          -1.88775086e+00, -1.98037779e+00, -1.95891547e+00,
          -2.07752323e+00, -1.92954588e+00, -2.10802221e+00,
          -2.06170869e+00, -2.06735682e+00, -2.14303970e+00,
          -2.12722540e+00, -2.10124469e+00, -2.14981747e+00,
          -2.16111326e+00, -2.13626218e+00, -2.14416933e+00,
          -2.11141109e+00, -2.09220791e+00, -2.16337252e+00,
          -2.10463357e+00, -2.10011506e+00, -2.12609577e+00,
          -2.18144608e+00, -2.11141109e+00, -2.10915184e+00,
          6.87114525e+00, -1.12075436e+00, 5.01706409e+00,
          1.70111203e+00, 1.52283502e+00, 4.30395603e+00,
          -4.38211977e-01, 6.40762472e+00, -5.45178175e-01,
          -1.40090775e+00, -2.24279568e-01, 6.26500320e+00,
          5.44492912e+00, 6.58590174e+00, 4.51788855e+00, 2.84208488e+00,
          2.98470640e+00, 2.09332132e+00, -2.59934962e-01,
          6.87114525e+00, 5.65886164e+00, 4.01871300e+00, 5.80148315e+00,
          5.62320614e+00, 5.94410467e+00, 6.87114525e+00, 6.47893572e+00,
          -9.01732147e-01, 4.44657803e+00, 4.05436850e+00,
          -9.37387586e-01, 5.37361813e+00, 3.73346972e+00,
          2.09332132e+00 ]
      - [ -2.32850313e+00, -2.40714574e+00, -2.55838203e+00,
          -2.52662230e+00, -2.54779530e+00, -2.39202213e+00,
          -2.55838203e+00, -2.54779530e+00, -2.55989432e+00,
          -2.41621995e+00, -2.43588066e+00, -2.48276377e+00,
          -2.47822690e+00, -2.47520208e+00, -2.45402908e+00,
          -2.50393701e+00, -2.53418422e+00, -2.01998138e+00,
          -2.33606482e+00, -2.35723782e+00, -2.30884242e+00,
          -2.39655924e+00, -2.41470766e+00, -2.22112536e+00,
          -2.19239044e+00, -1.16096020e+00, -1.76590466e+00,
          -2.20146465e+00, -1.59954488e+00, -1.85967100e+00,
          -2.28615689e+00, -2.07593870e+00, -1.49670434e+00,
          -2.15155673e+00, -2.16819263e+00, -2.27405810e+00,
          -2.40563345e+00, -2.19844007e+00, -2.44646716e+00,
          -2.41773224e+00, -2.35572553e+00, -2.53115940e+00,
          -2.50998640e+00, -2.44646716e+00, -2.48427629e+00,
          -2.51149869e+00, -2.50847411e+00, -2.48730087e+00,
          -2.45251656e+00, -2.52662230e+00, -2.54930782e+00,
          -2.52511001e+00, -2.44041777e+00, -2.52662230e+00,
          -2.55384493e+00, -2.54325843e+00, -2.45100427e+00,
          8.50605297e+00, -1.77497888e+00, 4.91308880e+00,
          -1.69640258e-01, 2.45935774e+00, 2.85370731e+00,
          2.41554093e+00, 7.01628733e+00, 2.80989075e+00, 2.37172437e+00,
          8.50605297e+00, 6.35903788e+00, 2.85370731e+00, 7.80498695e+00,
          2.94134068e+00, 7.10392046e+00, 5.08835554e+00, 5.30743885e+00,
          1.37076169e-01, 5.52652168e+00, 4.03675652e+00, 2.24027443e+00,
          7.45445347e+00, 5.21980524e+00, -1.00215626e+00,
          7.19155407e+00, 2.59080744e+00, 2.89752388e+00,
          -1.13360620e+00, 3.46714020e+00, 2.28409123e+00,
          4.69400597e+00, 2.24027443e+00, 8.15551949e+00 ]
      - [ -1.87656236e+00, -2.12485552e+00, -2.34282303e+00,
          -2.28785729e+00, -2.32386923e+00, -2.14001846e+00,
          -2.35988140e+00, -2.28217125e+00, -2.30681109e+00,
          -2.18550754e+00, -2.19119358e+00, -2.28975272e+00,
          -2.27648520e+00, -2.21962404e+00, -2.19308901e+00,
          -2.28217125e+00, -2.26132226e+00, -1.73061895e+00,
          -1.95616782e+00, -2.06420374e+00, -2.16086769e+00,
          -2.02250576e+00, -2.10969257e+00, -1.90120220e+00,
          -1.90878367e+00, -1.20560193e+00, -1.48232567e+00,
          -1.85950410e+00, -1.70408380e+00, -1.73440969e+00,
          -1.93342340e+00, -1.89172530e+00, -1.23782325e+00,
          -1.78748000e+00, -1.98080766e+00, -1.86519015e+00,
          -2.14001846e+00, -2.10590196e+00, -2.11727405e+00,
          -2.10211110e+00, -2.04714561e+00, -2.29733419e+00,
          -2.25374079e+00, -2.13433242e+00, -2.21014714e+00,
          -2.28596187e+00, -2.27079892e+00, -2.22910094e+00,
          -2.24047303e+00, -2.32955551e+00, -2.34850907e+00,
          -2.28406668e+00, -2.17603064e+00, -2.35040450e+00,
          -2.32386923e+00, -2.30870628e+00, -2.17413521e+00,
          1.05058794e+01, -7.33655214e-01, -1.99296772e+00,
          5.49622011e+00, 6.88971221e-01, 1.05058794e+01, 6.88971221e-01,
          8.07695389e+00, 1.80222893e+00, 7.21670914e+00, 1.95403671e+00,
          1.29620266e+00, 9.24081421e+00, -2.39778876e+00,
          7.26731205e+00, 1.01010590e+01, -7.78504789e-01,
          3.26970482e+00, 8.17815876e+00, 3.77573109e+00,
          -1.68935204e+00, -1.99296772e+00, -2.21875966e-01,
          4.48416758e+00, 3.82633376e+00, 7.26731205e+00, 9.29141712e+00,
          1.05058794e+01, 1.32342383e-01, -1.58814681e+00,
          -1.08212054e+00, 4.48416758e+00, 1.04318953e+00,
          5.87765992e-01 ]
      - [ -1.91758657e+00, -2.11155963e+00, -2.86282086e+00,
          -2.69040012e+00, -2.84126830e+00, -2.31784868e+00,
          -2.89361024e+00, -2.82895255e+00, -2.85666299e+00,
          -2.46255875e+00, -2.52721643e+00, -2.75505805e+00,
          -2.77968955e+00, -2.73042655e+00, -2.65037394e+00,
          -2.85050511e+00, -2.76429486e+00, -1.71437657e+00,
          -2.12387538e+00, -2.26550674e+00, -2.29629612e+00,
          -2.46255875e+00, -2.56416368e+00, -2.12079644e+00,
          -2.31784868e+00, -9.20010388e-01, -8.24563324e-01,
          -1.89911294e+00, -8.64589512e-01, -1.43419313e+00,
          -2.32708549e+00, -1.80674481e+00, -1.43419313e+00,
          -1.84984994e+00, -1.97608638e+00, -1.62816632e+00,
          -2.26550674e+00, -1.78827119e+00, -2.51490068e+00,
          -2.20392799e+00, -2.37019062e+00, -2.76429486e+00,
          -2.77045274e+00, -2.36095381e+00, -2.53953218e+00,
          -2.68732119e+00, -2.74274230e+00, -2.69347906e+00,
          -2.56416368e+00, -2.79508424e+00, -2.83511043e+00,
          -2.64113712e+00, -2.32400656e+00, -2.74274230e+00,
          -2.85358405e+00, -2.72734761e+00, -2.44408512e+00,
          9.35440826e+00, 1.62319303e+00, 6.21471357e+00, 6.26455021e+00,
          3.12485504e+00, 2.27763581e+00, 1.38058019e+00, 8.15833378e+00,
          2.77600002e+00, 2.97534585e+00, 3.07501864e+00, 2.47698164e+00,
          3.22452807e+00, 8.48330706e-02, -8.62059057e-01,
          -1.41025972e+00, -1.85878754e+00, -3.63694757e-01,
          5.51700354e+00, 3.92223787e+00, 3.72289228e+00, 6.61340523e+00,
          9.30457211e+00, 6.51373196e+00, -5.63040495e-01,
          9.35440826e+00, 2.97534585e+00, 8.05866146e+00,
          -5.63040495e-01, 8.35768032e+00, 2.37730861e+00,
          3.72289228e+00, 7.31111479e+00, 8.15833378e+00 ]
      - [ -1.31751180e+00, -2.10583901e+00, -2.66984534e+00,
          -2.48718429e+00, -2.60895824e+00, -2.03213358e+00,
          -2.70830035e+00, -2.61857200e+00, -2.66023159e+00,
          -2.31413674e+00, -2.47116137e+00, -2.50641179e+00,
          -2.58332157e+00, -2.49038887e+00, -2.38463759e+00,
          -2.59293532e+00, -2.63779950e+00, -1.69565248e+00,
          -2.00008774e+00, -1.98726940e+00, -2.06417942e+00,
          -2.21159029e+00, -2.20197654e+00, -1.97765565e+00,
          -2.37181926e+00, -1.22778356e+00, -1.51044011e-01,
          -1.71487999e+00, -7.31073320e-01, -1.34314847e+00,
          -2.10263443e+00, -1.52901423e+00, -1.16048729e+00,
          -2.06417942e+00, -2.01611066e+00, -1.64437914e+00,
          -2.21159029e+00, -1.59310591e+00, -2.35900092e+00,
          -1.85588157e+00, -2.22761297e+00, -2.61857200e+00,
          -2.63139033e+00, -2.34618258e+00, -2.32695508e+00,
          -2.49359345e+00, -2.55127597e+00, -2.50320721e+00,
          -2.30452299e+00, -2.53845763e+00, -2.66664076e+00,
          -2.55768514e+00, -2.33656883e+00, -2.50961637e+00,
          -2.63779950e+00, -2.48718429e+00, -2.25004506e+00,
          8.57503223e+00, 2.37737107e+00, 8.57503223e+00, 4.36346531e+00,
          2.99012828e+00, 2.99012828e+00, -1.90810728e+00,
          6.24035931e+00, 4.26565796e-01, 5.50791311e+00, 2.48657131e+00,
          4.72343683e-01, 8.07147598e+00, 2.89232075e-01, 8.30036545e+00,
          2.34923768e+00, -6.26325965e-01, 2.30345988e+00,
          1.20479012e+00, 7.70525217e+00, -8.09437573e-01,
          2.02879238e+00, 7.84258604e+00, 4.95857811e+00, 2.34923768e+00,
          -6.72103882e-01, 7.56791878e+00, 8.11725330e+00,
          4.77546644e+00, -2.82366538e+00, 2.66968298e+00,
          8.16303158e+00, 7.52214098e+00, -9.92549181e-01 ]
      - [ -2.12336040e+00, -2.22754169e+00, -2.38607836e+00,
          -2.33021307e+00, -2.39664745e+00, -2.28491688e+00,
          -2.40117693e+00, -2.37852883e+00, -2.40419674e+00,
          -2.29397607e+00, -2.31058455e+00, -2.35286117e+00,
          -2.36795974e+00, -2.32568336e+00, -2.33776236e+00,
          -2.37399936e+00, -2.35437083e+00, -1.79722798e+00,
          -2.13996911e+00, -2.12789011e+00, -2.25169969e+00,
          -2.24566007e+00, -2.20489359e+00, -2.09920239e+00,
          -2.17016649e+00, -1.53149045e+00, -1.07399905e+00,
          -2.09467292e+00, -1.73079360e+00, -1.84554386e+00,
          -2.13845921e+00, -1.79269838e+00, -1.71267509e+00,
          -1.98898172e+00, -2.04484701e+00, -1.96784353e+00,
          -2.23056149e+00, -2.02672863e+00, -2.28189707e+00,
          -1.98596203e+00, -2.25773907e+00, -2.34380174e+00,
          -2.33323264e+00, -2.24566007e+00, -2.28642678e+00,
          -2.34078217e+00, -2.36041045e+00, -2.30001545e+00,
          -2.32568336e+00, -2.30756497e+00, -2.38003874e+00,
          -2.29397607e+00, -2.24867988e+00, -2.26679826e+00,
          -2.37248945e+00, -2.30454516e+00, -2.26679826e+00,
          7.25898790e+00, -7.35787570e-01, 2.96549630e+00,
          4.78928041e+00, 4.71328926e+00, 1.14171231e+00, 7.10700560e+00,
          6.87903261e+00, 3.30745578e+00, 7.25898790e+00, 3.45943785e+00,
          6.04313183e+00, -1.32799506e+00, 4.59930277e+00,
          1.67364931e+00, 7.25898790e+00, 6.65105963e+00, 3.00349188e+00,
          2.69952774e+00, 2.24358177e+00, 4.37132978e+00,
          -1.70795012e+00, 4.33333445e+00, 4.95788872e-01,
          4.02937031e+00, 7.25898790e+00, 1.63565385e+00, 8.75743866e-01,
          1.17970788e+00, 6.65105963e+00, 3.26946020e+00, 7.99752831e-01,
          2.92750072e+00, 7.25898790e+00 ]
      - [ -2.00075054e+00, -2.07830429e+00, -2.21630430e+00,
          -2.17638683e+00, -2.21516371e+00, -2.07944489e+00,
          -2.22542810e+00, -2.20147777e+00, -2.21060181e+00,
          -2.14559340e+00, -2.17410588e+00, -2.20603967e+00,
          -2.18551087e+00, -2.17068434e+00, -2.15015554e+00,
          -2.19349432e+00, -2.18893242e+00, -1.93802333e+00,
          -2.11936212e+00, -2.12506461e+00, -2.12620521e+00,
          -2.10567617e+00, -2.09427118e+00, -1.96311426e+00,
          -2.04180837e+00, -1.62894905e+00, -1.93003988e+00,
          -2.05435395e+00, -1.87301505e+00, -1.81599033e+00,
          -2.03838682e+00, -1.88327956e+00, -1.60613918e+00,
          -1.98592412e+00, -2.02241993e+00, -2.10453558e+00,
          -2.12392402e+00, -2.07032084e+00, -2.11251926e+00,
          -2.10225463e+00, -2.05891585e+00, -2.21060181e+00,
          -2.20261836e+00, -2.13304806e+00, -2.15129590e+00,
          -2.20147777e+00, -2.21060181e+00, -2.17068434e+00,
          -2.14331245e+00, -2.21060181e+00, -2.22428775e+00,
          -2.20261836e+00, -2.11137867e+00, -2.20375872e+00,
          -2.21744466e+00, -2.20147777e+00, -2.11365962e+00,
          8.41311359e+00, -1.52744496e+00, 1.66183400e+00,
          -1.35737193e+00, 3.08757019e+00, 1.99730134e+00,
          3.84237170e+00, 1.36830008e+00, 2.41663551e+00, 2.45856881e+00,
          1.82956767e+00, 7.57444572e+00, 8.41311359e+00,
          -2.23797369e+00, 1.57796717e+00, 6.83642030e-02,
          -1.35737193e+00, 8.11958027e+00, 5.14230728e+00,
          6.69384384e+00, 2.96176982e+00, 7.74217939e+00, 6.19064283e+00,
          7.86797953e+00, 5.18424082e+00, 9.48965907e-01, 7.95184612e+00,
          8.28731346e+00, 2.08116817e+00, -2.23797369e+00,
          2.24890184e+00, 7.90991306e+00, 1.87150109e+00, 2.45856881e+00 ]
      - [ -2.02198148e+00, -2.14528584e+00, -2.40997887e+00,
          -2.38696218e+00, -2.41655517e+00, -2.10418439e+00,
          -2.41655517e+00, -2.40997887e+00, -2.41162300e+00,
          -2.26365781e+00, -2.34092855e+00, -2.37709785e+00,
          -2.37709785e+00, -2.28996277e+00, -2.26201391e+00,
          -2.38860631e+00, -2.38038588e+00, -2.13213325e+00,
          -2.22748876e+00, -2.18309903e+00, -2.24392915e+00,
          -2.18145514e+00, -2.21104813e+00, -1.97923601e+00,
          -2.15350604e+00, -1.79016948e+00, -1.98416817e+00,
          -2.17816687e+00, -1.62740791e+00, -1.72769535e+00,
          -2.10418439e+00, -1.97594798e+00, -1.38408744e+00,
          -2.01211715e+00, -2.20940399e+00, -2.18309903e+00,
          -2.24228525e+00, -2.07294726e+00, -2.23242092e+00,
          -2.15515018e+00, -2.17652297e+00, -2.36887765e+00,
          -2.36887765e+00, -2.20447183e+00, -2.31297970e+00,
          -2.38860631e+00, -2.37874198e+00, -2.28174257e+00,
          -2.25543761e+00, -2.39682651e+00, -2.43299580e+00,
          -2.38860631e+00, -2.19953966e+00, -2.37709785e+00,
          -2.41491103e+00, -2.39189434e+00, -2.16337037e+00,
          1.00930748e+01, -9.23751473e-01, 3.66962528e+00,
          6.78098345e+00, 3.66962528e+00, 2.06376314e+00, 2.81651115e+00,
          8.63776207e+00, 1.61211431e+00, 7.98538017e+00, 4.52273989e+00,
          -1.04759502e+00, 6.58025074e+00, -3.95213455e-01,
          -3.45030248e-01, 8.63776207e+00, 2.66596150e+00,
          -1.64979339e+00, 7.78464746e+00, 6.53006744e+00,
          8.23629570e+00, -2.45272446e+00, -1.95089245e+00,
          -6.96312606e-01, 1.00930748e+01, 6.42970133e+00,
          1.71248078e+00, 8.43702888e+00, -2.40254116e+00,
          6.93153286e+00, 3.31834292e+00, 4.37219000e+00, 1.06009924e+00,
          3.31834292e+00 ]
      - [ -1.71641636e+00, -2.09738278e+00, -2.21604443e+00,
          -2.13735294e+00, -2.20730090e+00, -2.13235664e+00,
          -2.21979165e+00, -2.12611127e+00, -2.17232704e+00,
          -2.12486219e+00, -2.16483259e+00, -2.15983629e+00,
          -2.17857218e+00, -2.20854998e+00, -2.20355368e+00,
          -2.15359092e+00, -2.09488463e+00, -1.87130105e+00,
          -2.06240869e+00, -2.05991054e+00, -2.04991817e+00,
          -2.11861682e+00, -2.15483999e+00, -1.99370992e+00,
          -2.02368760e+00, -1.77012634e+00, -1.64521933e+00,
          -1.95249057e+00, -1.70767283e+00, -1.79260969e+00,
          -2.06490684e+00, -1.90127873e+00, -1.87255013e+00,
          -1.90127873e+00, -1.94999242e+00, -1.96498132e+00,
          -2.09238648e+00, -1.92875826e+00, -2.10612631e+00,
          -2.08739018e+00, -2.08739018e+00, -2.13610387e+00,
          -2.11362076e+00, -2.09613371e+00, -2.14984369e+00,
          -2.12111497e+00, -2.15608907e+00, -2.16358352e+00,
          -2.16608167e+00, -2.14609647e+00, -2.19106293e+00,
          -2.10487723e+00, -2.14484739e+00, -2.12486219e+00,
          -2.20105553e+00, -2.15359092e+00, -2.14859462e+00,
          5.73803377e+00, -5.32297969e-01, 5.23581934e+00,
          5.26720762e+00, 2.75613618e+00, 5.58948457e-01, 5.17304277e+00,
          1.40643513e+00, 4.60805130e+00, 4.51388645e+00, 3.39229673e-01,
          7.15890408e-01, 4.41972113e+00, -1.35574377e+00,
          4.01167202e+00, 4.63944006e+00, 4.70221663e+00, 3.13279700e+00,
          4.67082834e+00, 4.01167202e+00, 5.48692656e+00, 4.73360491e+00,
          2.69335938e+00, 9.35609162e-01, 5.70664549e+00, 5.36137295e+00,
          7.15890408e-01, 6.53113604e-01, 4.60805130e+00, 5.73803377e+00,
          4.73360491e+00, 5.23581934e+00, 1.68893063e+00, 5.48692656e+00 ]
      - [ -1.69562173e+00, -1.82064784e+00, -2.17550135e+00,
          -2.10011792e+00, -2.16630840e+00, -1.88132226e+00,
          -2.15711522e+00, -2.08724761e+00, -2.12218142e+00,
          -1.94199669e+00, -2.04128218e+00, -2.12218142e+00,
          -2.08724761e+00, -1.98796225e+00, -2.00818706e+00,
          -2.08173180e+00, -2.04679799e+00, -1.42166734e+00,
          -1.83903396e+00, -1.87948370e+00, -1.87764502e+00,
          -1.86293602e+00, -1.87764502e+00, -1.57978868e+00,
          -1.83351815e+00, -1.19735575e+00, -9.06853855e-01,
          -1.69010580e+00, -1.23964405e+00, -1.55772519e+00,
          -1.92361057e+00, -1.31502748e+00, -1.09807026e+00,
          -1.75261891e+00, -1.65149486e+00, -1.74158716e+00,
          -2.00634837e+00, -1.64414036e+00, -2.00267124e+00,
          -1.82984090e+00, -1.85190439e+00, -2.04312086e+00,
          -2.03025055e+00, -1.92728770e+00, -2.03208899e+00,
          -2.08724761e+00, -2.07989311e+00, -2.02473450e+00,
          -1.98428500e+00, -2.08724761e+00, -2.13137460e+00,
          -2.04495931e+00, -1.89603126e+00, -2.10379529e+00,
          -2.15527654e+00, -2.08357048e+00, -1.90706289e+00,
          8.37633705e+00, -1.29117772e-01, -5.37363410e-01,
          4.27188873e+00, -9.93413210e-01, 8.37633705e+00,
          3.33277047e-01, 6.38630104e+00, 1.24537659e+00, 8.08612347e+00,
          8.37633705e+00, -1.82259464e+00, 7.25694180e+00,
          -2.19572616e+00, 8.37633705e+00, 8.04466438e+00,
          -5.37363410e-01, 2.44768953e+00, 6.46921921e+00,
          8.16904163e+00, -2.88608998e-01, -1.86405361e+00,
          -4.12986219e-01, 3.48416638e+00, 2.90373945e+00,
          5.72295618e+00, 7.54715538e+00, 8.37633705e+00,
          -7.44658768e-01, -1.15924942e+00, -1.44946301e+00,
          3.44270730e+00, 1.95018077e+00, -7.86117852e-01 ]
      - [ -1.56819212e+00, -2.05188322e+00, -2.59780359e+00,
          -2.44223046e+00, -2.52991700e+00, -1.97551095e+00,
          -2.56668878e+00, -2.47900224e+00, -2.55537438e+00,
          -2.15371299e+00, -2.22725654e+00, -2.46203065e+00,
          -2.52708840e+00, -2.32908630e+00, -2.25554252e+00,
          -2.50445962e+00, -2.44788766e+00, -1.57667792e+00,
          -1.79730892e+00, -1.98116815e+00, -2.11411238e+00,
          -2.17917037e+00, -2.26402831e+00, -1.89631009e+00,
          -2.16219878e+00, -1.16935921e+00, -7.36582994e-01,
          -1.59364963e+00, -1.15804482e+00, -1.39281881e+00,
          -2.17351317e+00, -1.66153610e+00, -1.10430133e+00,
          -1.99248254e+00, -1.94439626e+00, -1.42393339e+00,
          -2.08865499e+00, -1.86802399e+00, -2.36585808e+00,
          -2.15088439e+00, -2.21594214e+00, -2.51860261e+00,
          -2.46768785e+00, -2.19331336e+00, -2.30928612e+00,
          -2.44223046e+00, -2.47051644e+00, -2.28665733e+00,
          -2.27251410e+00, -2.53274560e+00, -2.56386018e+00,
          -2.52143121e+00, -2.12825537e+00, -2.52708840e+00,
          -2.53557420e+00, -2.47051644e+00, -2.12259817e+00,
          1.15989532e+01, 8.10662627e-01, 2.96832323e-01,
          -6.85960770e-01, 6.86926126e+00, 7.97490311e+00,
          1.52532363e+00, 6.13216639e+00, 1.11075563e+01, 1.40247452e+00,
          3.49090981e+00, 5.21079779e+00, 1.12304058e+01,
          -2.52869773e+00, 4.19681460e-01, 6.37786436e+00,
          -6.24536216e-01, 2.75381494e+00, 1.15989532e+01,
          7.91347885e+00, -2.03730130e+00, -2.65154696e+00,
          -2.16015053e+00, 8.83484745e+00, -1.60732925e+00,
          -2.16015053e+00, 6.50071383e+00, 7.17638397e+00,
          6.31644011e+00, -2.16015053e+00, 2.26241851e+00,
          -2.16015053e+00, 4.22800446e+00, 7.79062939e+00 ]
      - [ -1.90270317e+00, -1.96445012e+00, -2.16481256e+00,
          -2.12448812e+00, -2.17615390e+00, -1.99595368e+00,
          -2.18497491e+00, -2.14087009e+00, -2.17867422e+00,
          -2.04509926e+00, -2.12322807e+00, -2.12700844e+00,
          -2.15095115e+00, -2.13330913e+00, -2.11692739e+00,
          -2.15347147e+00, -2.13582945e+00, -1.87624025e+00,
          -2.00603485e+00, -1.96445012e+00, -2.08290339e+00,
          -2.01989627e+00, -2.09676504e+00, -1.89010179e+00,
          -2.04131889e+00, -1.68973923e+00, -1.66075599e+00,
          -1.69099939e+00, -1.73384416e+00, -1.72754347e+00,
          -1.78677011e+00, -1.68091822e+00, -1.78929043e+00,
          -1.91278434e+00, -1.93798721e+00, -1.85985839e+00,
          -1.97579145e+00, -1.90144300e+00, -2.02871728e+00,
          -1.95814943e+00, -2.03123760e+00, -2.12070775e+00,
          -2.10936642e+00, -2.01359558e+00, -2.07282233e+00,
          -2.10306573e+00, -2.12952876e+00, -2.10936642e+00,
          -2.08164334e+00, -2.08920407e+00, -2.14591050e+00,
          -2.05644059e+00, -2.02997756e+00, -2.07408237e+00,
          -2.15851188e+00, -2.09802508e+00, -2.04257894e+00,
          6.63727760e+00, -6.23659313e-01, 5.42062330e+00,
          1.01919818e+00, 6.35100603e+00, 6.60149336e+00,
          -8.41566920e-01, -1.98665309e+00, 1.77066100e+00,
          -1.62881374e+00, 4.09661722e+00, 5.17013550e+00,
          5.49219131e+00, 6.63727760e+00, 1.84222889e+00, 6.06473446e+00,
          4.49024057e+00, 2.20006824e+00, 2.02114868e+00, 5.99316645e+00,
          -1.85361989e-02, 6.35100603e+00, 6.13630199e+00,
          5.42062330e+00, 3.70299411e+00, 1.59174132e+00, 5.31327152e+00,
          3.91769767e+00, 6.35100603e+00, 2.37898803e+00,
          -5.91079295e-01, 6.49414158e+00, -1.02048659e+00,
          1.84222889e+00 ]
      - [ -1.66525793e+00, -2.04383302e+00, -2.32996535e+00,
          -2.26540232e+00, -2.31088996e+00, -2.04970241e+00,
          -2.32703066e+00, -2.26833701e+00, -2.30208588e+00,
          -2.19790435e+00, -2.21404505e+00, -2.27273893e+00,
          -2.27420640e+00, -2.26393485e+00, -2.23752260e+00,
          -2.28741241e+00, -2.27567363e+00, -2.00421476e+00,
          -2.13774323e+00, -2.06144118e+00, -2.04383302e+00,
          -2.17589402e+00, -2.25366354e+00, -2.12013507e+00,
          -2.05557179e+00, -1.45396018e+00, -1.81345975e+00,
          -2.01888824e+00, -1.44955814e+00, -1.85748017e+00,
          -2.13040638e+00, -2.10839629e+00, -1.70047414e+00,
          -1.95432496e+00, -2.12893915e+00, -2.05410457e+00,
          -2.14214516e+00, -1.85894752e+00, -2.19350219e+00,
          -2.20524096e+00, -2.19056749e+00, -2.31382465e+00,
          -2.25806546e+00, -2.17736149e+00, -2.17149210e+00,
          -2.26393485e+00, -2.26686954e+00, -2.20230627e+00,
          -2.23605537e+00, -2.31675935e+00, -2.31969404e+00,
          -2.31382465e+00, -2.08198404e+00, -2.28007555e+00,
          -2.30208588e+00, -2.28741241e+00, -2.16268802e+00,
          5.87396336e+00, -2.66877621e-01, 2.21313763e+00,
          2.66669130e+00, 5.87396336e+00, 4.80487251e+00, 1.27363384e+00,
          4.54569912e+00, 1.59760070e+00, 5.74437666e+00, 3.80057549e+00,
          4.83726931e+00, 1.62999737e+00, 3.50900531e+00, 5.80916977e+00,
          5.87396336e+00, 3.24983168e+00, 5.51759958e+00, 5.87396336e+00,
          5.74437666e+00, 3.54140186e+00, 2.01875758e+00, 2.89346814e+00,
          2.66669130e+00, -5.08184016e-01, 5.87396336e+00,
          1.72146410e-01, 4.83726931e+00, 3.28222847e+00, 1.98636091e+00,
          2.76388144e+00, 5.06404638e+00, 1.14404702e+00, 5.74437666e+00 ]
      - [ -1.81076145e+00, -2.07722068e+00, -2.27371573e+00,
          -2.22161484e+00, -2.27818155e+00, -2.08466363e+00,
          -2.27818155e+00, -2.23352361e+00, -2.26627278e+00,
          -2.16802526e+00, -2.16653657e+00, -2.22905779e+00,
          -2.23203492e+00, -2.16802526e+00, -2.15909362e+00,
          -2.21268320e+00, -2.23203492e+00, -1.90156591e+00,
          -2.04596019e+00, -2.08466363e+00, -2.11592436e+00,
          -2.11294699e+00, -2.10848117e+00, -1.98343897e+00,
          -2.12634444e+00, -1.76610339e+00, -1.51453018e+00,
          -2.02363110e+00, -1.77652359e+00, -1.91049755e+00,
          -2.03405142e+00, -1.85541940e+00, -1.78992105e+00,
          -2.05786896e+00, -2.05786896e+00, -1.94324672e+00,
          -2.13378739e+00, -2.00874519e+00, -2.18737698e+00,
          -2.01469946e+00, -2.11741281e+00, -2.23352361e+00,
          -2.23798943e+00, -2.16058230e+00, -2.21566033e+00,
          -2.22905779e+00, -2.24394369e+00, -2.21119452e+00,
          -2.20821738e+00, -2.26924992e+00, -2.28115869e+00,
          -2.24245524e+00, -2.12634444e+00, -2.23947811e+00,
          -2.25882983e+00, -2.22161484e+00, -2.11443567e+00,
          9.01879883e+00, -5.64803720e-01, -1.96418095e+00,
          6.07214594e+00, -1.20519447e+00, 8.88486004e+00,
          5.53639078e+00, 6.83113241e+00, -1.47307205e+00,
          9.01879883e+00, 8.95470381e-02, 4.02070850e-01, 3.21478510e+00,
          2.23485813e-01, 6.20608473e+00, 7.27759504e+00, 2.32186007e+00,
          -1.60701084e+00, 4.77740431e+00, 1.74145865e+00,
          6.92042494e+00, -1.60701084e+00, 2.68132091e-01,
          3.03620028e+00, 3.12549257e+00, 1.34193301e-01, 8.34910488e+00,
          7.27759504e+00, 4.49007787e-02, 3.25943136e+00, 8.39375114e+00,
          3.75054026e+00, 3.61660147e+00, 8.88486004e+00 ]
      - [ -2.11708450e+00, -2.16097260e+00, -2.34450483e+00,
          -2.29795694e+00, -2.34982467e+00, -2.23544955e+00,
          -2.35381460e+00, -2.32189584e+00, -2.33386540e+00,
          -2.30194664e+00, -2.30327654e+00, -2.31923604e+00,
          -2.32322574e+00, -2.31790590e+00, -2.29396701e+00,
          -2.32854557e+00, -2.34583473e+00, -2.11708450e+00,
          -2.26204824e+00, -2.19821095e+00, -2.25007892e+00,
          -2.22082019e+00, -2.30327654e+00, -2.13570356e+00,
          -2.26337838e+00, -1.72874081e+00, -1.65692389e+00,
          -2.23278952e+00, -1.76065946e+00, -1.97345054e+00,
          -2.23810935e+00, -1.98143017e+00, -1.82183695e+00,
          -1.98276007e+00, -2.18624163e+00, -2.08782578e+00,
          -2.24209929e+00, -1.92025280e+00, -2.22746992e+00,
          -2.04792738e+00, -2.20087099e+00, -2.28731728e+00,
          -2.29263711e+00, -2.22480989e+00, -2.21151042e+00,
          -2.28066754e+00, -2.26603818e+00, -2.26603818e+00,
          -2.27534771e+00, -2.16097260e+00, -2.33652520e+00,
          -2.17693186e+00, -2.12240434e+00, -2.13836360e+00,
          -2.32854557e+00, -2.19289136e+00, -2.18358159e+00,
          8.52246666e+00, -6.36856854e-01, 6.67765975e-01,
          -1.68010664e+00, 5.32082272e+00, 4.42436218e+00,
          7.75407219e+00, 2.93026137e+00, 5.66233110e+00, 3.74134469e+00,
          5.79039717e+00, 8.52246666e+00, 1.18002903e+00,
          -1.00628696e-01, 6.34534883e+00, 8.47977829e+00,
          1.00927472e+00, 2.16186666e+00, 3.39983582e+00, 3.05832720e+00,
          8.35171223e+00, -1.46666360e+00, 5.44888830e+00,
          1.56422639e+00, 8.35171223e+00, 7.28449774e+00,
          -1.80817235e+00, -5.79401068e-02, 1.69229221e+00,
          7.83944941e+00, 3.61327887e+00, 2.63144112e+00, 3.48521304e+00,
          1.35078347e+00 ]
      - [ -1.46201730e+00, -2.02058792e+00, -2.59698510e+00,
          -2.44842911e+00, -2.57618713e+00, -1.91362751e+00,
          -2.58212948e+00, -2.51379371e+00, -2.59104276e+00,
          -2.19588399e+00, -2.40386224e+00, -2.45734239e+00,
          -2.46625566e+00, -2.29987311e+00, -2.25233507e+00,
          -2.50785136e+00, -2.49596691e+00, -1.88391626e+00,
          -1.98196328e+00, -2.14834595e+00, -2.09783697e+00,
          -2.05624127e+00, -2.13349032e+00, -1.88985848e+00,
          -2.14537477e+00, -1.26889455e+00, -1.09062731e+00,
          -1.93739641e+00, -7.51919687e-01, -1.43527722e+00,
          -1.97899210e+00, -1.39962375e+00, -1.09359848e+00,
          -1.80072498e+00, -2.16023040e+00, -1.63137114e+00,
          -2.26719069e+00, -1.59571767e+00, -2.27907515e+00,
          -1.88391626e+00, -2.22559500e+00, -2.46625566e+00,
          -2.45734239e+00, -2.19588399e+00, -2.32364202e+00,
          -2.49893808e+00, -2.46031356e+00, -2.33255529e+00,
          -2.27907515e+00, -2.40683341e+00, -2.55538940e+00,
          -2.47219801e+00, -2.12754822e+00, -2.53756261e+00,
          -2.54350495e+00, -2.43357348e+00, -2.20776844e+00,
          1.17654076e+01, 1.53584254e+00, -2.22698164e+00,
          6.21377134e+00, -1.26394260e+00, 1.17654076e+01,
          7.57335615e+00, 9.04623890e+00, 2.24831700e+00, 8.13984966e+00,
          2.70151186e+00, -2.17033219e+00, 3.55125213e+00,
          -1.77378678e+00, 8.13984966e+00, 4.35537875e-01,
          -8.67397189e-01, 3.66455078e+00, 9.27283669e+00,
          6.62135243e-01, -1.88708544e+00, -2.68017650e+00,
          6.62135243e-01, 5.02413511e+00, 3.72120023e+00, 8.13984966e+00,
          1.08590183e+01, 1.13122129e+01, 3.78888518e-01, 2.02171969e+00,
          -1.66048813e+00, -2.22698164e+00, 8.47974586e+00,
          6.62135243e-01 ]
      - [ -1.54879248e+00, -2.04478979e+00, -2.23708415e+00,
          -2.21113968e+00, -2.19893050e+00, -2.06310344e+00,
          -2.24624109e+00, -2.17298603e+00, -2.18977356e+00,
          -2.14398932e+00, -2.17603827e+00, -2.18824744e+00,
          -2.19435215e+00, -2.17298603e+00, -2.17603827e+00,
          -2.15925074e+00, -2.11804485e+00, -1.83265555e+00,
          -2.11194015e+00, -2.05852509e+00, -2.09210038e+00,
          -2.12262321e+00, -2.14856768e+00, -1.94711649e+00,
          -1.92269814e+00, -1.67851484e+00, -1.36870730e+00,
          -2.04936814e+00, -1.54726636e+00, -1.98679626e+00,
          -2.03410673e+00, -1.84944320e+00, -1.54116178e+00,
          -1.86165226e+00, -1.93338120e+00, -2.02800226e+00,
          -2.08294344e+00, -1.98527014e+00, -2.15314603e+00,
          -2.06157732e+00, -2.07683873e+00, -2.17145991e+00,
          -2.12872767e+00, -2.13941073e+00, -2.18214297e+00,
          -2.21571803e+00, -2.18366909e+00, -2.20808744e+00,
          -2.19435215e+00, -2.17451215e+00, -2.23555803e+00,
          -2.15619850e+00, -2.07226038e+00, -2.23555803e+00,
          -2.24624109e+00, -2.16230297e+00, -2.15009379e+00,
          6.96862555e+00, -9.43757966e-02, 2.61996412e+00,
          -1.29017687e+00, 1.74292314e+00, 3.35083151e+00,
          6.67627859e+00, 6.53010511e+00, 6.42047501e+00, 6.67627859e+00,
          2.21798706e+00, 5.73535204e-01, 1.15822911e+00, 6.67627859e+00,
          6.74936533e+00, -1.20788932e-01, 4.62984991e+00,
          1.66983640e+00, 1.45057619e+00, 1.56020629e+00,
          -1.47289383e+00, 2.91231108e+00, 6.63973522e+00,
          5.72615099e+00, -6.68939531e-01, 6.38393164e+00,
          1.41403282e+00, -6.32396162e-01, 6.96862555e+00,
          2.36416054e+00, 2.87576771e+00, 5.47034740e+00, 6.49356174e+00,
          6.93208218e+00 ]
      - [ -1.95392787e+00, -2.17673945e+00, -2.45938015e+00,
          -2.42637110e+00, -2.46969557e+00, -2.05501842e+00,
          -2.47382164e+00, -2.42430806e+00, -2.45112777e+00,
          -2.33146977e+00, -2.28814530e+00, -2.39542508e+00,
          -2.39542508e+00, -2.24894691e+00, -2.27989292e+00,
          -2.44493866e+00, -2.45112777e+00, -2.09627986e+00,
          -2.21593785e+00, -2.16023493e+00, -2.11897349e+00,
          -2.09627986e+00, -2.21181178e+00, -2.01994610e+00,
          -2.08183837e+00, -9.65717256e-01, -1.79094541e+00,
          -1.98074782e+00, -1.42578197e+00, -1.17615044e+00,
          -1.94154954e+00, -1.75999928e+00, -9.01762068e-01,
          -1.93948638e+00, -2.21800089e+00, -2.17880249e+00,
          -2.17467642e+00, -1.90028811e+00, -2.12103653e+00,
          -2.17880249e+00, -2.18705487e+00, -2.41399264e+00,
          -2.41811872e+00, -2.29846072e+00, -2.33559585e+00,
          -2.44493866e+00, -2.43049717e+00, -2.29846072e+00,
          -2.29227138e+00, -2.43462324e+00, -2.48001075e+00,
          -2.42637110e+00, -2.18292880e+00, -2.44287562e+00,
          -2.48413706e+00, -2.43256021e+00, -2.16848731e+00,
          1.04121161e+01, -7.49094844e-01, 4.79273736e-01,
          6.99770117e+00, 3.68675399e+00, 2.13474727e+00, 1.25527704e+00,
          8.91184235e+00, 1.66914546e+00, 8.65317440e+00, 4.25582314e+00,
          5.82740843e-01, 6.79076719e+00, -2.05567026e+00,
          -3.48463088e-01, 8.60144138e+00, 3.16941833e+00,
          -1.48660123e+00, -4.00196642e-01, 6.68729973e+00,
          7.67023754e+00, -2.52127218e+00, -2.00393677e+00,
          2.60034943e+00, 1.04121161e+01, 9.94651318e+00, 8.39450741e+00,
          8.70490837e+00, -2.46953869e+00, 5.31007290e-01,
          3.42808604e+00, 4.72142506e+00, 1.51394475e+00, 3.37635255e+00 ]
      - [ -1.86632752e+00, -2.03832698e+00, -2.40024257e+00,
          -2.33215952e+00, -2.38053441e+00, -2.08491015e+00,
          -2.38770103e+00, -2.36261773e+00, -2.38770103e+00,
          -2.16374326e+00, -2.26586795e+00, -2.33574271e+00,
          -2.31245112e+00, -2.27124310e+00, -2.22286820e+00,
          -2.36082602e+00, -2.32678461e+00, -1.68536961e+00,
          -2.04549360e+00, -2.08491015e+00, -2.14941001e+00,
          -2.15657663e+00, -2.17628503e+00, -1.90216076e+00,
          -2.00607705e+00, -9.65121686e-01, -1.09412134e+00,
          -2.00966048e+00, -1.45424533e+00, -1.58503664e+00,
          -2.00966048e+00, -1.67820299e+00, -1.09591293e+00,
          -1.86274409e+00, -1.91649401e+00, -1.86274409e+00,
          -2.20853496e+00, -2.06341028e+00, -2.23899317e+00,
          -2.07953525e+00, -2.13686848e+00, -2.32678461e+00,
          -2.32678461e+00, -2.14403510e+00, -2.29811788e+00,
          -2.32857609e+00, -2.35186768e+00, -2.26407647e+00,
          -2.20674324e+00, -2.35007620e+00, -2.40024257e+00,
          -2.35186768e+00, -2.13507676e+00, -2.35545111e+00,
          -2.41099262e+00, -2.35545111e+00, -2.19420147e+00,
          6.28752470e+00, -4.97498006e-01, 1.35619724e+00,
          3.68487954e+00, -9.38239753e-01, 5.60261822e+00,
          5.67110872e+00, -1.72588229e+00, 4.98620224e+00,
          3.85610628e+00, 2.17808509e+00, 7.39781380e-01, 4.02733278e+00,
          1.91856116e-01, 4.98620224e+00, 4.57525826e+00, 5.15742874e+00,
          3.54789829e+00, 5.08893824e+00, 2.48629308e+00, 6.28752470e+00,
          6.28752470e+00, 2.86299181e+00, 9.45253313e-01, 6.15054321e+00,
          3.61638904e+00, 2.60346770e-01, 4.98620224e+00, 5.73959923e+00,
          6.18478870e+00, 6.71290696e-01, 2.45204782e+00, 6.25327921e+00,
          5.80809021e+00 ]
      - [ -1.92931700e+00, -2.12038732e+00, -2.31145763e+00,
          -2.23844695e+00, -2.28660297e+00, -2.16388297e+00,
          -2.31611800e+00, -2.29281664e+00, -2.28349614e+00,
          -2.14679551e+00, -2.19961166e+00, -2.25398111e+00,
          -2.26330161e+00, -2.22601962e+00, -2.21514583e+00,
          -2.28194261e+00, -2.24155378e+00, -1.78018904e+00,
          -2.06135750e+00, -2.09553266e+00, -2.11728048e+00,
          -2.07999849e+00, -2.15456247e+00, -2.01320148e+00,
          -1.97902644e+00, -1.32814467e+00, -1.70717847e+00,
          -1.94329774e+00, -1.68387711e+00, -1.79572320e+00,
          -2.00388098e+00, -1.95883203e+00, -1.47105908e+00,
          -1.96349227e+00, -1.93087041e+00, -1.99611402e+00,
          -2.13902831e+00, -2.00854135e+00, -2.10485315e+00,
          -2.14524198e+00, -2.10019302e+00, -2.27417564e+00,
          -2.19650483e+00, -2.11728048e+00, -2.17786384e+00,
          -2.24776745e+00, -2.28038931e+00, -2.26640844e+00,
          -2.23223329e+00, -2.29281664e+00, -2.28504944e+00,
          -2.23534012e+00, -2.20271850e+00, -2.29436994e+00,
          -2.31611800e+00, -2.30679727e+00, -2.17786384e+00,
          9.08751678e+00, -1.17435634e+00, 1.65845239e+00,
          -1.40322244e+00, 3.18928981e+00, 2.19874811e+00,
          -1.58332098e+00, 1.88357556e+00, 3.36938834e+00,
          -1.87557399e-01, 2.73904347e+00, 8.18702412e+00,
          9.08751678e+00, -2.34873962e+00, 1.74850166e+00,
          1.27615020e-01, 4.22485638e+00, 2.87411737e+00, 8.25903863e-02,
          8.68229485e+00, 3.23431444e+00, 8.36712265e+00, 8.14199924e+00,
          5.62061977e+00, 5.62061977e+00, 6.92633438e+00, 8.59224510e+00,
          8.41214657e+00, -5.92779040e-01, -2.34873962e+00,
          2.46889567e+00, 8.54722118e+00, 2.10869884e+00, 2.69401884e+00 ]
      - [ -1.87230778e+00, -2.01861858e+00, -2.20044184e+00,
          -2.17061138e+00, -2.19049835e+00, -2.08254075e+00,
          -2.20754433e+00, -2.19902134e+00, -2.20896482e+00,
          -2.12515569e+00, -2.15782690e+00, -2.17629337e+00,
          -2.16350889e+00, -2.18765736e+00, -2.15640664e+00,
          -2.17203188e+00, -2.17203188e+00, -1.78707814e+00,
          -2.05271053e+00, -1.96748090e+00, -2.06549501e+00,
          -2.09958673e+00, -2.09674573e+00, -1.83537495e+00,
          -2.04844904e+00, -1.75582731e+00, -9.95863080e-01,
          -1.77003217e+00, -1.69616652e+00, -1.91350210e+00,
          -1.89361513e+00, -1.34530461e+00, -1.75298631e+00,
          -1.98310626e+00, -1.87656927e+00, -1.87372828e+00,
          -2.07259750e+00, -1.96321940e+00, -2.10100722e+00,
          -1.92060459e+00, -1.96748090e+00, -2.17061138e+00,
          -2.16492939e+00, -2.10242772e+00, -2.13651967e+00,
          -2.17913437e+00, -2.19049835e+00, -2.18339586e+00,
          -2.12231469e+00, -2.15214515e+00, -2.18339586e+00,
          -2.15640664e+00, -2.10526872e+00, -2.14220166e+00,
          -2.20044184e+00, -2.16492939e+00, -2.12941718e+00,
          8.15211678e+00, -8.73700619e-01, -1.83163416e+00,
          5.29369879e+00, 5.37655115e+00, 8.15211678e+00, 7.73785353e+00,
          6.24650478e+00, 5.41797781e+00, 6.99217892e+00,
          -9.61680710e-01, 2.81109869e-01, 2.89096999e+00,
          1.15404472e-01, 4.87943506e+00, 6.99217892e+00, 2.31100106e+00,
          -2.24589753e+00, 4.34089231e+00, -1.12738609e+00,
          3.34665990e+00, -1.54164958e+00, -1.74579993e-01,
          2.80811739e+00, 2.14529586e+00, 7.82070589e+00, 2.35242748e+00,
          6.66076803e+00, 3.63962591e-01, 7.65500069e+00, 6.45363665e+00,
          -1.74878144e+00, 3.34665990e+00, 8.15211678e+00 ]
      - [ -1.51321340e+00, -2.39548397e+00, -2.65778065e+00,
          -2.32394862e+00, -2.62333775e+00, -2.47761726e+00,
          -2.59684300e+00, -2.25506258e+00, -2.55710101e+00,
          -2.36898947e+00, -2.52530766e+00, -2.46701956e+00,
          -2.44317436e+00, -2.53325605e+00, -2.42197871e+00,
          -2.32129908e+00, -2.36104107e+00, -1.72517025e+00,
          -2.12788844e+00, -2.02720881e+00, -2.24446464e+00,
          -2.11994004e+00, -2.35574198e+00, -2.02455950e+00,
          -2.14643455e+00, -1.42843068e+00, -1.09194911e+00,
          -1.61389291e+00, -1.68807781e+00, -1.75961328e+00,
          -1.82055092e+00, -1.69072735e+00, -1.62978971e+00,
          -1.92387986e+00, -2.00336385e+00, -1.85764337e+00,
          -2.27095938e+00, -2.00866270e+00, -2.28685617e+00,
          -2.20472288e+00, -2.32394862e+00, -2.33189702e+00,
          -2.32129908e+00, -2.35044312e+00, -2.42197871e+00,
          -2.43787527e+00, -2.44052482e+00, -2.52795696e+00,
          -2.41932917e+00, -2.49351406e+00, -2.41932917e+00,
          -2.39283442e+00, -2.44582367e+00, -2.55445170e+00,
          -2.47231841e+00, -2.54120445e+00, -2.51470971e+00,
          1.02742395e+01, 8.68652225e-01, -2.30339694e+00,
          5.28392220e+00, 3.95448029e-01, 9.25580692e+00, 6.50604057e+00,
          7.83000231e+00, 1.71940982e+00, 7.01525688e+00, 1.71940982e+00,
          1.00650728e+00, 3.70535231e+00, -2.71076989e+00,
          1.02742395e+01, 8.99184048e-02, -6.73905671e-01,
          2.99245000e+00, 7.93184566e+00, -1.79418099e+00,
          -1.13220012e+00, -2.30339694e+00, 3.55258751e+00,
          5.02931404e+00, 3.04337144e+00, 7.01525688e+00, 9.45949364e+00,
          1.02742395e+01, 6.55696201e+00, 5.48212826e-01,
          -1.64689615e-01, 4.21456861e+00, 7.26986456e+00,
          3.55258751e+00 ]
      - [ -1.76801980e+00, -1.94754255e+00, -2.25693274e+00,
          -2.21300697e+00, -2.24547386e+00, -1.92653453e+00,
          -2.25884247e+00, -2.21873641e+00, -2.24738359e+00,
          -2.08313942e+00, -2.17290068e+00, -2.19008923e+00,
          -2.19963813e+00, -2.16335177e+00, -2.08122969e+00,
          -2.18626952e+00, -2.19008923e+00, -1.41852355e+00,
          -1.89979708e+00, -1.94945228e+00, -1.90361679e+00,
          -2.02393508e+00, -2.07931972e+00, -1.80048668e+00,
          -1.83868301e+00, -1.07475662e+00, -1.05374861e+00,
          -1.75083148e+00, -1.15496886e+00, -1.35740936e+00,
          -1.95709157e+00, -1.37268794e+00, -1.25236952e+00,
          -1.66679955e+00, -1.72027445e+00, -1.72218418e+00,
          -2.02775478e+00, -1.64961123e+00, -2.02584505e+00,
          -1.84441245e+00, -1.93417382e+00, -2.21873641e+00,
          -2.19390869e+00, -1.97237015e+00, -2.12324548e+00,
          -2.17481065e+00, -2.18435955e+00, -2.12133574e+00,
          -2.01247621e+00, -2.18054008e+00, -2.24929333e+00,
          -2.12706518e+00, -2.06595111e+00, -2.20536757e+00,
          -2.27603078e+00, -2.16335177e+00, -2.02775478e+00,
          7.18328714e+00, -2.09610045e-01, 7.07157421e+00,
          1.15078545e+00, 3.36555578e-02, 1.78382576e+00, 4.27874947e+00,
          2.94319212e-01, 1.22526085e+00, -5.24909437e-01,
          6.06615734e+00, 5.20969105e+00, 6.55024672e+00,
          -2.31231737e+00, 7.03433657e+00, 6.88538599e+00,
          -2.27507973e+00, 1.97001410e+00, 5.73101807e+00,
          6.84814835e+00, 2.30515313e+00, 6.40129614e+00, 1.59763753e+00,
          3.75742197e+00, 6.95986128e+00, -5.62147081e-01,
          6.73643541e+00, 7.18328714e+00, 6.28958321e+00,
          -2.31231737e+00, 1.33697379e+00, 6.69919777e+00,
          1.48592448e+00, -7.48335421e-01 ]
      - [ -2.02377820e+00, -2.19465971e+00, -2.35954523e+00,
          -2.30258489e+00, -2.34755373e+00, -2.17067647e+00,
          -2.35654736e+00, -2.29808807e+00, -2.33106518e+00,
          -2.21714401e+00, -2.28309846e+00, -2.29209208e+00,
          -2.27710247e+00, -2.26511097e+00, -2.24712324e+00,
          -2.29958701e+00, -2.31007957e+00, -1.82141864e+00,
          -2.09872627e+00, -2.14069724e+00, -2.08973241e+00,
          -2.16617942e+00, -2.21564507e+00, -1.93533969e+00,
          -2.07624197e+00, -1.48115468e+00, -1.32076597e+00,
          -1.90086353e+00, -1.61606109e+00, -1.65203619e+00,
          -2.17067647e+00, -1.73148108e+00, -1.69250810e+00,
          -1.93833756e+00, -1.99080122e+00, -1.97731054e+00,
          -2.18416691e+00, -1.83490932e+00, -2.19016290e+00,
          -2.09273052e+00, -2.09422946e+00, -2.29508996e+00,
          -2.28759527e+00, -2.12870550e+00, -2.23213363e+00,
          -2.27860141e+00, -2.28759527e+00, -2.23663068e+00,
          -2.17967010e+00, -2.25012136e+00, -2.32357025e+00,
          -2.21564507e+00, -2.19316077e+00, -2.27110672e+00,
          -2.33706093e+00, -2.20215464e+00, -2.19915652e+00,
          6.31793451e+00, -7.07691312e-01, 4.09991455e+00,
          8.58192921e-01, 1.50653720e+00, 4.50939512e+00, 5.49897337e+00,
          5.94257736e+00, 3.04208970e+00, 4.85062885e+00, 4.47527170e+00,
          2.78095365e-01, 4.06579113e+00, 4.13403797e+00, 1.16530335e+00,
          5.12361622e+00, 4.13403797e+00, 3.21270657e+00, 6.28381109e+00,
          6.18144083e+00, 2.76910257e+00, 5.36247969e+00, 6.04494762e+00,
          -1.05271661e+00, -8.82099748e-01, 6.31793451e+00,
          1.54066062e+00, 6.53452635e-01, 3.28095341e+00, 3.45157027e+00,
          8.58192921e-01, 6.31793451e+00, 6.31793451e+00, 4.95299911e+00 ]
      - [ -1.31700039e+00, -2.11012411e+00, -2.29414010e+00,
          -2.17431569e+00, -2.30983138e+00, -2.05449128e+00,
          -2.23708081e+00, -2.12438893e+00, -2.27702236e+00,
          -2.25562525e+00, -2.24278688e+00, -2.25562525e+00,
          -2.26846361e+00, -2.26561046e+00, -2.22852206e+00,
          -2.18572760e+00, -2.24278688e+00, -2.15862441e+00,
          -2.22994852e+00, -2.19285989e+00, -2.10299158e+00,
          -2.18572760e+00, -2.19571304e+00, -2.07588840e+00,
          -2.06590319e+00, -1.92325497e+00, -2.12153602e+00,
          -2.09015322e+00, -1.89615178e+00, -1.91754901e+00,
          -2.12438893e+00, -2.12010932e+00, -1.74779773e+00,
          -1.85193086e+00, -2.19999242e+00, -2.15149212e+00,
          -2.21425724e+00, -1.95891702e+00, -2.21568370e+00,
          -2.11297703e+00, -2.15291858e+00, -2.19000697e+00,
          -2.22852206e+00, -2.25990462e+00, -2.24991918e+00,
          -2.23565435e+00, -2.24136043e+00, -2.25419879e+00,
          -2.19428658e+00, -2.17288923e+00, -2.20712471e+00,
          -2.23565435e+00, -2.18002176e+00, -2.24136043e+00,
          -2.25705171e+00, -2.21853662e+00, -2.17574215e+00,
          6.69411945e+00, 5.80220044e-01, 3.66427851e+00, 9.55244243e-01,
          1.52556729e+00, 5.80298996e+00, 6.40895796e+00, 2.13153553e+00,
          6.15944195e+00, 4.16331148e+00, 6.70082748e-01, 5.98121595e+00,
          2.13153553e+00, 5.83863497e+00, 5.44653797e+00,
          -1.85401797e-01, 2.88008451e+00, 1.24040580e+00,
          -1.49756610e-01, 6.40895796e+00, -1.53991902e+00,
          6.15944195e+00, 6.23073244e+00, 4.19895649e+00, 1.81072879e+00,
          3.84250450e+00, 1.31169617e+00, 6.15944195e+00, 3.77121425e+00,
          2.20282578e+00, 1.59685767e+00, 6.69411945e+00, 5.09008598e+00,
          6.51589394e+00 ]
      - [ -2.02954555e+00, -2.05495811e+00, -2.18731594e+00,
          -2.15872669e+00, -2.18943357e+00, -2.08460641e+00,
          -2.19790459e+00, -2.17566848e+00, -2.18943357e+00,
          -2.14390254e+00, -2.15660882e+00, -2.18202162e+00,
          -2.18519807e+00, -2.14496136e+00, -2.17460966e+00,
          -2.17778611e+00, -2.18413925e+00, -1.91836500e+00,
          -2.09943032e+00, -2.08460641e+00, -2.11107779e+00,
          -2.10684252e+00, -2.10790133e+00, -2.02425122e+00,
          -2.07084107e+00, -1.65576732e+00, -1.72353446e+00,
          -2.03060436e+00, -1.85906875e+00, -1.85165679e+00,
          -2.04013419e+00, -1.92895365e+00, -1.64835536e+00,
          -1.87283397e+00, -1.99036765e+00, -1.95542526e+00,
          -2.08248854e+00, -1.89401126e+00, -2.06554675e+00,
          -1.94589543e+00, -2.07825327e+00, -2.15449119e+00,
          -2.15555000e+00, -2.09095955e+00, -2.11425447e+00,
          -2.14813805e+00, -2.15449119e+00, -2.12060761e+00,
          -2.11954880e+00, -2.11001897e+00, -2.19155145e+00,
          -2.08990073e+00, -2.06766462e+00, -2.11213684e+00,
          -2.18731594e+00, -2.11743093e+00, -2.07507658e+00,
          6.22851658e+00, -1.05009854e+00, 1.95877528e+00,
          4.11019516e+00, 5.33484983e+00, 6.34824455e-01, 5.56654119e+00,
          5.02429366e-01, 3.05103469e+00, 3.87850380e+00,
          -1.31800294e+00, 6.19541788e+00, 4.04399776e+00,
          3.58061504e+00, 1.23060226e+00, 1.36299741e+00, 5.16935587e+00,
          2.75314569e+00, 5.16935587e+00, 5.96372652e+00, 5.89752865e+00,
          5.96372652e+00, 6.16231918e+00, 1.06510842e+00, 6.22851658e+00,
          6.06302261e+00, -2.91941106e-01, 9.32713389e-01,
          4.30878782e+00, 4.11019516e+00, 5.16935587e+00, 5.96372652e+00,
          8.99614632e-01, 9.32713389e-01 ]
      - [ -1.35123754e+00, -2.16448331e+00, -2.38536501e+00,
          -2.22807050e+00, -2.37197828e+00, -2.09420300e+00,
          -2.36193824e+00, -2.21133709e+00, -2.33851123e+00,
          -2.27659750e+00, -2.33683801e+00, -2.33516455e+00,
          -2.36695814e+00, -2.35189819e+00, -2.31173778e+00,
          -2.31006455e+00, -2.32345128e+00, -2.21301031e+00,
          -2.29835105e+00, -2.23643732e+00, -2.12599635e+00,
          -2.21635699e+00, -2.31508446e+00, -2.17954350e+00,
          -2.12264967e+00, -1.99882221e+00, -2.09252954e+00,
          -2.21803045e+00, -1.93021500e+00, -1.84822118e+00,
          -2.13938332e+00, -2.18121696e+00, -1.64407301e+00,
          -1.94862187e+00, -2.25149727e+00, -2.18456364e+00,
          -2.26488423e+00, -1.98041546e+00, -2.29165769e+00,
          -2.20966363e+00, -2.22137713e+00, -2.27157760e+00,
          -2.30504441e+00, -2.30169773e+00, -2.33349133e+00,
          -2.30839109e+00, -2.29835105e+00, -2.32847118e+00,
          -2.31341124e+00, -2.26823092e+00, -2.30504441e+00,
          -2.30504441e+00, -2.26153755e+00, -2.30504441e+00,
          -2.27994418e+00, -2.31341124e+00, -2.24982405e+00,
          8.85784245e+00, 8.15744638e-01, -4.55013484e-01,
          5.57616949e+00, 2.51623106e+00, 8.31047535e-01, 1.67363930e+00,
          2.69361877e+00, 8.32567883e+00, 8.54741383e+00, 1.93972087e+00,
          1.14147604e+00, 2.38319016e+00, -1.38629913e+00,
          1.54059851e+00, 1.14147604e+00, 4.55619001e+00, 5.53182220e+00,
          1.58494544e+00, 8.31047535e-01, 6.86223030e+00, 2.95970035e+00,
          4.24576139e+00, -9.42829728e-01, 8.85784245e+00,
          8.41437340e+00, 1.05278218e+00, 8.76914883e+00,
          -2.40627861e+00, 2.33884335e+00, 8.68045425e+00,
          6.37441397e+00, 7.92655659e+00, 4.20141459e+00 ]
      - [ -1.87307656e+00, -1.91737664e+00, -2.20374513e+00,
          -2.17210221e+00, -2.21323800e+00, -1.89680874e+00,
          -2.22273088e+00, -2.17684865e+00, -2.20532727e+00,
          -2.12780213e+00, -2.08191991e+00, -2.18317723e+00,
          -2.16102719e+00, -2.10406995e+00, -2.11198068e+00,
          -2.19899869e+00, -2.15786290e+00, -1.80820858e+00,
          -2.02021623e+00, -1.94743741e+00, -1.99964833e+00,
          -2.02021623e+00, -2.07242703e+00, -1.88256943e+00,
          -1.98699117e+00, -1.57563317e+00, -1.73701203e+00,
          -1.93794453e+00, -1.55664742e+00, -1.52500451e+00,
          -1.97908032e+00, -1.68796551e+00, -1.10098934e+00,
          -1.64524758e+00, -1.94901955e+00, -1.85409081e+00,
          -2.04236627e+00, -1.76074421e+00, -2.07875562e+00,
          -1.97116959e+00, -1.94901955e+00, -2.11356282e+00,
          -2.10565209e+00, -2.05502343e+00, -2.08033776e+00,
          -2.15311646e+00, -2.15311646e+00, -2.07084489e+00,
          -2.05502343e+00, -2.03920197e+00, -2.19425225e+00,
          -2.04078412e+00, -1.91737664e+00, -2.08508420e+00,
          -2.17210221e+00, -2.07875562e+00, -1.92212307e+00,
          7.83497143e+00, 6.82166293e-02, -5.60950100e-01,
          5.11629200e+00, -1.22200290e-03, 7.75501060e+00,
          2.11774874e+00, 6.59557390e+00, 4.83642817e+00, 6.39567089e+00,
          4.11677790e+00, 7.83497143e+00, 2.39761281e+00,
          -1.88030922e+00, 5.35617590e+00, 6.59557390e+00,
          2.15772939e+00, -2.24013448e+00, 4.03681660e+00,
          2.67747688e+00, 6.35569000e+00, -1.56046462e+00,
          -2.16017342e+00, 1.99780703e+00, 7.75501060e+00,
          7.39518547e+00, 6.67553473e+00, 6.43565130e+00,
          -1.00073647e+00, 2.67747688e+00, 1.07825363e+00,
          -1.92028987e+00, 5.98486722e-01, 7.79499102e+00 ]
      - [ -2.00802875e+00, -2.31156468e+00, -2.51729465e+00,
          -2.47513676e+00, -2.52403975e+00, -2.28121114e+00,
          -2.53753018e+00, -2.49199986e+00, -2.51223564e+00,
          -2.35034990e+00, -2.44309688e+00, -2.48356843e+00,
          -2.47345042e+00, -2.37564445e+00, -2.39588022e+00,
          -2.47850943e+00, -2.46670532e+00, -2.06873608e+00,
          -2.28121114e+00, -2.26603436e+00, -2.28627014e+00,
          -2.36046767e+00, -2.35709500e+00, -2.25423026e+00,
          -2.26266170e+00, -1.90853655e+00, -1.62523639e+00,
          -2.24242592e+00, -1.86975133e+00, -2.13112950e+00,
          -2.27446580e+00, -2.16991472e+00, -1.90853655e+00,
          -2.17160106e+00, -2.29301524e+00, -2.18846393e+00,
          -2.33180046e+00, -2.15811038e+00, -2.40937066e+00,
          -2.26266170e+00, -2.40431166e+00, -2.46333265e+00,
          -2.46333265e+00, -2.36889935e+00, -2.39756656e+00,
          -2.47345042e+00, -2.47850943e+00, -2.42117476e+00,
          -2.41274333e+00, -2.49705887e+00, -2.53078508e+00,
          -2.48019576e+00, -2.34866357e+00, -2.50717664e+00,
          -2.49705887e+00, -2.47682309e+00, -2.37058568e+00,
          1.03205862e+01, -8.25925231e-01, -1.35943413e+00,
          5.31486320e+00, 5.11391640e-01, 1.03205862e+01, 6.78118610e+00,
          7.89356899e+00, 1.82602596e+00, 7.03400040e+00, 3.84854031e+00,
          2.83728313e+00, 2.98897171e+00, 2.58577317e-01, 1.03205862e+01,
          3.44403744e+00, -9.54931319e-01, 3.14066029e+00,
          7.28681469e+00, 3.19122314e+00, 4.60828781e-01,
          -2.16843987e+00, 3.64628887e+00, 5.92161751e+00,
          3.64628887e+00, 6.12517357e-01, 9.51158047e+00, 1.03205862e+01,
          3.09009743e+00, 1.57321167e+00, -4.47998270e-02,
          4.30360603e+00, 7.33737755e+00, 4.10265923e-01 ]
      - [ -1.91033459e+00, -2.18347955e+00, -2.59095836e+00,
          -2.48349142e+00, -2.56856942e+00, -2.20139074e+00,
          -2.61782503e+00, -2.53946376e+00, -2.58424163e+00,
          -2.25288534e+00, -2.44543004e+00, -2.49020791e+00,
          -2.47901344e+00, -2.42304111e+00, -2.36259103e+00,
          -2.53946376e+00, -2.50140238e+00, -1.71555078e+00,
          -1.96854579e+00, -2.17004633e+00, -2.19691300e+00,
          -2.20810747e+00, -2.15661287e+00, -2.01780152e+00,
          -2.31557441e+00, -1.50957263e+00, -4.21470255e-01,
          -1.79167318e+00, -1.67077291e+00, -1.66405630e+00,
          -1.94615686e+00, -1.39538896e+00, -1.59017277e+00,
          -2.15885186e+00, -1.90137899e+00, -1.57450056e+00,
          -2.27303529e+00, -1.93496239e+00, -2.35811329e+00,
          -1.93720126e+00, -2.29094648e+00, -2.52826929e+00,
          -2.51931357e+00, -2.16780734e+00, -2.38274121e+00,
          -2.50364137e+00, -2.45662451e+00, -2.36259103e+00,
          -2.32452989e+00, -2.53946376e+00, -2.58200264e+00,
          -2.48796916e+00, -2.30437994e+00, -2.54618049e+00,
          -2.56633043e+00, -2.51259685e+00, -2.33572435e+00,
          7.15494585e+00, -2.51860823e-02, -2.25290492e-01,
          6.84743595e+00, 1.08162642e+00, 4.04140854e+00, 6.80899715e+00,
          -7.15355724e-02, 1.00474894e+00, 6.88587475e+00,
          -1.99347210e+00, 2.74413019e-01, 5.84802914e+00,
          6.53992605e+00, 8.50993991e-01, 2.15791082e+00, 3.31107283e+00,
          3.50326657e+00, 2.23478842e+00, 5.84802914e+00, 3.15731788e+00,
          6.23241663e+00, 2.84980798e+00, 2.38854313e+00, 1.54289114e+00,
          7.15494585e+00, 6.96275234e+00, 5.30988693e+00, 4.07984734e+00,
          7.03962994e+00, 4.69486713e+00, 4.69486713e+00, 1.88883972e+00,
          5.38676453e+00 ]
      - [ -1.59998786e+00, -2.04115725e+00, -2.16782975e+00,
          -2.10886145e+00, -2.16673756e+00, -2.02586913e+00,
          -2.17438173e+00, -2.11432147e+00, -2.14052963e+00,
          -2.11868954e+00, -2.11759758e+00, -2.13179350e+00,
          -2.13834548e+00, -2.14598966e+00, -2.16127753e+00,
          -2.14489746e+00, -2.10449338e+00, -2.04552531e+00,
          -1.97782111e+00, -2.03788114e+00, -2.06845737e+00,
          -2.06190538e+00, -2.14380550e+00, -2.07500935e+00,
          -2.04334116e+00, -1.85660875e+00, -1.89155281e+00,
          -1.89373684e+00, -1.94724500e+00, -1.98109710e+00,
          -2.00184512e+00, -2.06954932e+00, -1.92322087e+00,
          -1.98328114e+00, -2.09575748e+00, -1.93086493e+00,
          -2.10995340e+00, -2.02150130e+00, -2.10121751e+00,
          -2.12633348e+00, -2.13506961e+00, -2.14380550e+00,
          -2.11978149e+00, -2.11104536e+00, -2.12196541e+00,
          -2.14489746e+00, -2.13834548e+00, -2.15690970e+00,
          -2.14271355e+00, -2.17110562e+00, -2.14708161e+00,
          -2.12196541e+00, -2.03242135e+00, -2.14926553e+00,
          -2.12414956e+00, -2.13943768e+00, -2.11213756e+00,
          6.22093964e+00, -5.58216751e-01, 2.41413069e+00,
          5.12855101e+00, 6.15473461e+00, 5.82370758e+00, 5.85681009e+00,
          5.45957804e+00, 6.15473461e+00, 3.83754635e+00, 1.98379564e+00,
          9.24509645e-01, 1.71897411e+00, 1.71897411e+00, 6.15473461e+00,
          1.45415270e+00, 4.99614048e+00, 2.62455851e-01,
          -9.29240942e-01, 1.32174194e+00, -3.99597913e-01,
          2.91067100e+00, 3.70513558e+00, 6.12163162e+00,
          -3.33392531e-01, 5.42647552e+00, 1.42104995e+00,
          2.91067100e+00, 6.22093964e+00, 4.16857290e+00, 3.30790329e+00,
          4.66511345e+00, 5.88991308e+00, 6.08852911e+00 ]
      - [ -1.91178286e+00, -2.03090334e+00, -2.19869685e+00,
          -2.15898991e+00, -2.18076468e+00, -2.02449918e+00,
          -2.18460727e+00, -2.19997764e+00, -2.20253944e+00,
          -2.13465357e+00, -2.11544061e+00, -2.17307949e+00,
          -2.13337255e+00, -2.13721514e+00, -2.14233875e+00,
          -2.17820287e+00, -2.18973064e+00, -1.87079525e+00,
          -1.97710705e+00, -2.03474593e+00, -2.03602695e+00,
          -2.07445288e+00, -2.10519361e+00, -1.98607314e+00,
          -2.01809478e+00, -1.30849516e+00, -1.38662803e+00,
          -1.92459154e+00, -1.74142778e+00, -1.74014688e+00,
          -2.07061028e+00, -1.68250799e+00, -1.37766194e+00,
          -1.98863482e+00, -2.04627371e+00, -1.90537858e+00,
          -2.10647440e+00, -1.88872731e+00, -2.10775542e+00,
          -2.06164408e+00, -2.10391283e+00, -2.16923690e+00,
          -2.16155171e+00, -2.09750843e+00, -2.16539431e+00,
          -2.15258574e+00, -2.16155171e+00, -2.13721514e+00,
          -2.14490032e+00, -2.12952995e+00, -2.20510101e+00,
          -2.12952995e+00, -2.02449918e+00, -2.13721514e+00,
          -2.17948389e+00, -2.12824917e+00, -2.01681399e+00,
          7.35143709e+00, -9.58818913e-01, -9.37454283e-01,
          7.35143709e+00, 4.20998478e+00, 3.60440397e+00, 6.06457710e+00,
          5.83748436e+00, 4.66417074e+00, 6.78370476e+00, 3.75579906e+00,
          2.20399761e+00, 5.34544945e+00, -1.80797708e+00,
          -5.58966100e-01, 7.31358814e+00, 1.63626540e+00,
          -2.22431421e+00, 6.14027452e+00, 2.43109059e+00,
          6.97294855e+00, 5.68608904e+00, -1.80477932e-01,
          6.06457710e+00, 4.81556606e+00, 7.12434387e+00,
          -6.69314712e-02, -1.42948890e+00, 3.79364800e+00,
